{"learner":{"attributes":{"best_iteration":"27","best_score":"0.15156167751967312"},"feature_names":["gla_diff","gla_pct_diff","room_count_diff","room_count_pct_diff","bedrooms_diff","bedrooms_pct_diff","half_baths_diff","half_baths_pct_diff","full_baths_diff","full_baths_pct_diff","gla","room_count","bedrooms","half_baths","full_baths","year_built_diff","year_built_pct_diff","year_built","gla_per_room_count","room_count_per_gla","gla_x_room_count","gla_per_bedrooms","bedrooms_per_gla","gla_x_bedrooms","gla_per_full_baths","full_baths_per_gla","gla_x_full_baths","gla_per_half_baths","half_baths_per_gla","gla_x_half_baths","room_count_per_bedrooms","bedrooms_per_room_count","room_count_x_bedrooms","room_count_per_full_baths","full_baths_per_room_count","room_count_x_full_baths","room_count_per_half_baths","half_baths_per_room_count","room_count_x_half_baths","bedrooms_per_full_baths","full_baths_per_bedrooms","bedrooms_x_full_baths","bedrooms_per_half_baths","half_baths_per_bedrooms","bedrooms_x_half_baths","full_baths_per_half_baths","half_baths_per_full_baths","full_baths_x_half_baths"],"feature_types":["float","float","float","float","float","float","float","float","float","float","float","float","float","float","float","float","float","float","float","float","float","float","float","float","float","float","float","float","float","float","float","float","float","float","float","float","float","float","float","float","float","float","float","float","float","float","float","float"],"gradient_booster":{"model":{"gbtree_model_param":{"num_parallel_tree":"1","num_trees":"78"},"iteration_indptr":[0,1,2,3,4,5,6,7,8,9,10,11,12,13,14,15,16,17,18,19,20,21,22,23,24,25,26,27,28,29,30,31,32,33,34,35,36,37,38,39,40,41,42,43,44,45,46,47,48,49,50,51,52,53,54,55,56,57,58,59,60,61,62,63,64,65,66,67,68,69,70,71,72,73,74,75,76,77,78],"tree_info":[0,0,0,0,0,0,0,0,0,0,0,0,0,0,0,0,0,0,0,0,0,0,0,0,0,0,0,0,0,0,0,0,0,0,0,0,0,0,0,0,0,0,0,0,0,0,0,0,0,0,0,0,0,0,0,0,0,0,0,0,0,0,0,0,0,0,0,0,0,0,0,0,0,0,0,0,0,0],"trees":[{"base_weights":[1.1739533E-2,-2.3213665E-1,6.4555854E-1,1.749947E-1,-2.3213637E-1],"categories":[],"categories_nodes":[],"categories_segments":[],"categories_sizes":[],"default_left":[0,0,0,0,0],"id":0,"left_children":[1,-1,3,-1,-1],"loss_changes":[3.133478E3,0E0,5.463892E3,0E0,0E0],"parents":[2147483647,0,0,2,2],"right_children":[2,-1,4,-1,-1],"split_conditions":[9.595262E-1,-2.3213665E-1,9.6001977E-1,1.749947E-1,-2.3213637E-1],"split_indices":[17,0,17,0,0],"split_type":[0,0,0,0,0],"sum_hessian":[2.1169668E3,4.5167514E2,1.6652917E3,1.2138617E3,4.5143008E2],"tree_param":{"num_deleted":"0","num_feature":"48","num_nodes":"5","size_leaf_vector":"1"}},{"base_weights":[-3.650524E-2,-2.0472865E-1,5.540941E-1,1.6278069E-1,-2.0472677E-1],"categories":[],"categories_nodes":[],"categories_segments":[],"categories_sizes":[],"default_left":[0,0,0,0,0],"id":1,"left_children":[1,-1,3,-1,-1],"loss_changes":[2.4294973E3,0E0,4.420276E3,0E0,0E0],"parents":[2147483647,0,0,2,2],"right_children":[2,-1,4,-1,-1],"split_conditions":[9.595262E-1,-2.0472865E-1,9.6001977E-1,1.6278069E-1,-2.0472677E-1],"split_indices":[17,0,17,0,0],"split_type":[0,0,0,0,0],"sum_hessian":[2.0438236E3,4.6345547E2,1.5803682E3,1.1189114E3,4.6145676E2],"tree_param":{"num_deleted":"0","num_feature":"48","num_nodes":"5","size_leaf_vector":"1"}},{"base_weights":[1.9148381E-2,5.5864257E-1,-1.8529545E-1,-1.8529506E-1,1.5328887E-1],"categories":[],"categories_nodes":[],"categories_segments":[],"categories_sizes":[],"default_left":[0,0,0,0,0],"id":2,"left_children":[1,3,-1,-1,-1],"loss_changes":[2.0712217E3,3.7430876E3,0E0,0E0,0E0],"parents":[2147483647,0,0,1,1],"right_children":[2,4,-1,-1,-1],"split_conditions":[9.6001977E-1,9.595262E-1,-1.8529545E-1,-1.8529506E-1,1.5328887E-1],"split_indices":[17,17,0,0,0],"split_type":[0,0,0,0,0],"sum_hessian":[2.048713E3,1.5909435E3,4.5776938E2,4.5752075E2,1.1334227E3],"tree_param":{"num_deleted":"0","num_feature":"48","num_nodes":"5","size_leaf_vector":"1"}},{"base_weights":[3.1525437E-2,5.1339215E-1,-1.7102784E-1,-1.7095141E-1,1.3429203E0,-1.6394784E-1,1.4044099E0,1.4111694E0,-1.21280275E-1,1.4479198E0,1.1651877E0,1.4510186E-1,9.236496E-2,1.1980239E-1,-1.0780716E-1],"categories":[],"categories_nodes":[],"categories_segments":[],"categories_sizes":[],"default_left":[0,0,0,0,0,0,0,0,0,0,0,0,0,0,0],"id":3,"left_children":[1,3,-1,-1,5,-1,7,9,-1,11,13,-1,-1,-1,-1],"loss_changes":[1.6840055E3,2.9002031E3,0E0,0E0,2.1228687E2,0E0,2.1568604E1,8.437744E0,0E0,2.3596191E-1,1.2392456E1,0E0,0E0,0E0,0E0],"parents":[2147483647,0,0,1,1,4,4,6,6,7,7,9,9,10,10],"right_children":[2,4,-1,-1,6,-1,8,10,-1,12,14,-1,-1,-1,-1],"split_conditions":[3.063241E-2,3.0195829E-2,-1.7102784E-1,-1.7095141E-1,2.7777778E-2,-1.6394784E-1,4.5E-1,1.1218004E-1,-1.21280275E-1,5E-1,3E-1,1.4510186E-1,9.236496E-2,1.1980239E-1,-1.0780716E-1],"split_indices":[16,16,0,0,41,0,2,0,0,11,2,0,0,0,0],"split_type":[0,0,0,0,0,0,0,0,0,0,0,0,0,0,0],"sum_hessian":[2.0043529E3,1.5705645E3,4.3378842E2,4.2652756E2,1.1440369E3,2.2592289E1,1.1214446E3,1.1190154E3,2.4292784E0,9.693107E2,1.4970465E2,9.6185803E2,7.4526963E0,1.4800415E2,1.7004949E0],"tree_param":{"num_deleted":"0","num_feature":"48","num_nodes":"15","size_leaf_vector":"1"}},{"base_weights":[3.895255E-2,-1.6008376E-1,5.2748126E-1,1.3975482E-1,-1.599713E-1],"categories":[],"categories_nodes":[],"categories_segments":[],"categories_sizes":[],"default_left":[0,0,0,0,0],"id":4,"left_children":[1,-1,3,-1,-1],"loss_changes":[1.5479963E3,0E0,2.7576404E3,0E0,0E0],"parents":[2147483647,0,0,2,2],"right_children":[2,-1,4,-1,-1],"split_conditions":[9.595262E-1,-1.6008376E-1,9.6001977E-1,1.3975482E-1,-1.599713E-1],"split_indices":[17,0,17,0,0],"split_type":[0,0,0,0,0],"sum_hessian":[1.9303218E3,4.425584E2,1.4877634E3,1.056128E3,4.3163535E2],"tree_param":{"num_deleted":"0","num_feature":"48","num_nodes":"5","size_leaf_vector":"1"}},{"base_weights":[-5.615986E-3,4.6053723E-1,-1.5125464E-1,-1.512782E-1,1.3349226E0,-1.2237394E-1,1.3478996E-1],"categories":[],"categories_nodes":[],"categories_segments":[],"categories_sizes":[],"default_left":[0,0,0,0,0,0,0],"id":5,"left_children":[1,3,-1,-1,5,-1,-1],"loss_changes":[1.24331E3,2.3344487E3,0E0,0E0,3.276941E1,0E0,0E0],"parents":[2147483647,0,0,1,1,4,4],"right_children":[2,4,-1,-1,6,-1,-1],"split_conditions":[2.7654322E-2,2.7160494E-2,-1.5125464E-1,-1.512782E-1,2.8688524E-2,-1.2237394E-1,1.3478996E-1],"split_indices":[15,15,0,0,16,0,0],"split_type":[0,0,0,0,0,0,0],"sum_hessian":[1.7679443E3,1.3507869E3,4.1715747E2,4.1453384E2,9.3625305E2,4.2536683E0,9.319994E2],"tree_param":{"num_deleted":"0","num_feature":"48","num_nodes":"7","size_leaf_vector":"1"}},{"base_weights":[-3.2904703E-2,4.1913918E-1,-1.4412232E-1,-1.4406158E-1,1.2906332E0,-1.16632156E-1,1.3039505E-1],"categories":[],"categories_nodes":[],"categories_segments":[],"categories_sizes":[],"default_left":[0,0,0,0,0,0,0],"id":6,"left_children":[1,3,-1,-1,5,-1,-1],"loss_changes":[1.0410535E3,2.008339E3,0E0,0E0,2.912024E1,0E0,0E0],"parents":[2147483647,0,0,1,1,4,4],"right_children":[2,4,-1,-1,6,-1,-1],"split_conditions":[2.7654322E-2,2.7160494E-2,-1.4412232E-1,-1.4406158E-1,2.8688524E-2,-1.16632156E-1,1.3039505E-1],"split_indices":[15,15,0,0,16,0,0],"split_type":[0,0,0,0,0,0,0],"sum_hessian":[1.633329E3,1.236983E3,3.96346E2,3.9449136E2,8.4249164E2,4.0751896E0,8.3841644E2],"tree_param":{"num_deleted":"0","num_feature":"48","num_nodes":"7","size_leaf_vector":"1"}},{"base_weights":[-2.3615351E-2,-1.3798241E-1,4.166092E-1,1.2613527E-1,-1.3793145E-1],"categories":[],"categories_nodes":[],"categories_segments":[],"categories_sizes":[],"default_left":[0,0,0,0,0],"id":7,"left_children":[1,-1,3,-1,-1],"loss_changes":[9.134571E2,0E0,1.7541305E3,0E0,0E0],"parents":[2147483647,0,0,2,2],"right_children":[2,-1,4,-1,-1],"split_conditions":[9.595262E-1,-1.3798241E-1,9.6001977E-1,1.2613527E-1,-1.3793145E-1],"split_indices":[17,0,17,0,0],"split_type":[0,0,0,0,0],"sum_hessian":[1.5280226E3,3.7392618E2,1.1540964E3,7.85106E2,3.6899045E2],"tree_param":{"num_deleted":"0","num_feature":"48","num_nodes":"5","size_leaf_vector":"1"}},{"base_weights":[-2.0605857E-2,-1.3311237E-1,4.0556863E-1,1.2244169E0,-1.3317269E-1,-1.01942144E-1,1.23514034E-1],"categories":[],"categories_nodes":[],"categories_segments":[],"categories_sizes":[],"default_left":[0,0,0,0,0,0,0],"id":8,"left_children":[1,-1,3,5,-1,-1,-1],"loss_changes":[8.072302E2,0E0,1.5532278E3,1.9108276E1,0E0,0E0,0E0],"parents":[2147483647,0,0,2,2,3,3],"right_children":[2,-1,4,6,-1,-1,-1],"split_conditions":[2.7160494E-2,-1.3311237E-1,2.7654322E-2,2.8688524E-2,-1.3317269E-1,-1.01942144E-1,1.23514034E-1],"split_indices":[15,0,15,16,0,0,0],"split_type":[0,0,0,0,0,0,0],"sum_hessian":[1.4433634E3,3.5367212E2,1.0896913E3,7.408146E2,3.4887668E2,3.0761495E0,7.3773846E2],"tree_param":{"num_deleted":"0","num_feature":"48","num_nodes":"7","size_leaf_vector":"1"}},{"base_weights":[1.6694207E-2,4.2959267E-1,-1.2883793E-1,-1.2886067E-1,1.2009831E-1],"categories":[],"categories_nodes":[],"categories_segments":[],"categories_sizes":[],"default_left":[0,0,0,0,0],"id":9,"left_children":[1,3,-1,-1,-1],"loss_changes":[7.416436E2,1.3872537E3,0E0,0E0,0E0],"parents":[2147483647,0,0,1,1],"right_children":[2,4,-1,-1,-1],"split_conditions":[9.6001977E-1,9.595262E-1,-1.2883793E-1,-1.2886067E-1,1.2009831E-1],"split_indices":[17,17,0,0,0],"split_type":[0,0,0,0,0],"sum_hessian":[1.3742855E3,1.0444984E3,3.2978708E2,3.234263E2,7.210721E2],"tree_param":{"num_deleted":"0","num_feature":"48","num_nodes":"5","size_leaf_vector":"1"}},{"base_weights":[1.3160627E-2,-1.2550753E-1,4.2168823E-1,1.1699966E0,-1.2550531E-1,1.18201055E-1,-9.768017E-2],"categories":[],"categories_nodes":[],"categories_segments":[],"categories_sizes":[],"default_left":[0,0,0,0,0,0,0],"id":10,"left_children":[1,-1,3,5,-1,-1,-1],"loss_changes":[6.5639087E2,0E0,1.2037471E3,1.8255432E1,0E0,0E0,0E0],"parents":[2147483647,0,0,2,2,3,3],"right_children":[2,-1,4,6,-1,-1,-1],"split_conditions":[2.7160494E-2,-1.2550753E-1,2.7654322E-2,9.6001977E-1,-1.2550531E-1,1.18201055E-1,-9.768017E-2],"split_indices":[15,0,15,17,0,0,0],"split_type":[0,0,0,0,0,0,0],"sum_hessian":[1.2648749E3,3.0766998E2,9.5720496E2,6.620449E2,2.9516E2,6.5880756E2,3.237416E0],"tree_param":{"num_deleted":"0","num_feature":"48","num_nodes":"7","size_leaf_vector":"1"}},{"base_weights":[1.5224469E-2,-1.2225109E-1,4.0976778E-1,1.1571119E-1,-1.22234285E-1],"categories":[],"categories_nodes":[],"categories_segments":[],"categories_sizes":[],"default_left":[0,0,0,0,0],"id":11,"left_children":[1,-1,3,-1,-1],"loss_changes":[5.655714E2,0E0,1.0725742E3,0E0,0E0],"parents":[2147483647,0,0,2,2],"right_children":[2,-1,4,-1,-1],"split_conditions":[9.595262E-1,-1.2225109E-1,9.6001977E-1,1.1571119E-1,-1.22234285E-1],"split_indices":[17,0,17,0,0],"split_type":[0,0,0,0,0],"sum_hessian":[1.1561245E3,2.789433E2,8.771812E2,6.0187396E2,2.7530728E2],"tree_param":{"num_deleted":"0","num_feature":"48","num_nodes":"5","size_leaf_vector":"1"}},{"base_weights":[1.793032E-2,4.0701595E-1,-1.19610645E-1,-1.1960079E-1,1.1381128E-1],"categories":[],"categories_nodes":[],"categories_segments":[],"categories_sizes":[],"default_left":[0,0,0,0,0],"id":12,"left_children":[1,3,-1,-1,-1],"loss_changes":[5.082814E2,9.5632947E2,0E0,0E0,0E0],"parents":[2147483647,0,0,1,1],"right_children":[2,4,-1,-1,-1],"split_conditions":[9.6001977E-1,9.595262E-1,-1.19610645E-1,-1.1960079E-1,1.1381128E-1],"split_indices":[17,17,0,0,0],"split_type":[0,0,0,0,0],"sum_hessian":[1.0740063E3,8.138432E2,2.601632E2,2.5471404E2,5.5912915E2],"tree_param":{"num_deleted":"0","num_feature":"48","num_nodes":"5","size_leaf_vector":"1"}},{"base_weights":[-6.0833804E-3,-1.1734562E-1,3.7984425E-1,1.1212517E-1,-1.17301226E-1],"categories":[],"categories_nodes":[],"categories_segments":[],"categories_sizes":[],"default_left":[0,0,0,0,0],"id":13,"left_children":[1,-1,3,-1,-1],"loss_changes":[4.387245E2,0E0,8.4392395E2,0E0,0E0],"parents":[2147483647,0,0,2,2],"right_children":[2,-1,4,-1,-1],"split_conditions":[9.595262E-1,-1.1734562E-1,9.6001977E-1,1.1212517E-1,-1.17301226E-1],"split_indices":[17,0,17,0,0],"split_type":[0,0,0,0,0],"sum_hessian":[9.718256E2,2.4094942E2,7.308762E2,4.9487656E2,2.3599965E2],"tree_param":{"num_deleted":"0","num_feature":"48","num_nodes":"5","size_leaf_vector":"1"}},{"base_weights":[1.3086484E-2,-1.15327954E-1,3.8692757E-1,1.1089088E-1,-1.1531023E-1],"categories":[],"categories_nodes":[],"categories_segments":[],"categories_sizes":[],"default_left":[0,0,0,0,0],"id":14,"left_children":[1,-1,3,-1,-1],"loss_changes":[3.9604254E2,0E0,7.660193E2,0E0,0E0],"parents":[2147483647,0,0,2,2],"right_children":[2,-1,4,-1,-1],"split_conditions":[9.595262E-1,-1.15327954E-1,9.6001977E-1,1.1089088E-1,-1.1531023E-1],"split_indices":[17,0,17,0,0],"split_type":[0,0,0,0,0],"sum_hessian":[9.0625696E2,2.1946182E2,6.8679517E2,4.6777673E2,2.1901842E2],"tree_param":{"num_deleted":"0","num_feature":"48","num_nodes":"5","size_leaf_vector":"1"}},{"base_weights":[-9.272072E-3,-1.1357725E-1,3.6620086E-1,1.09331906E-1,-1.13552235E-1],"categories":[],"categories_nodes":[],"categories_segments":[],"categories_sizes":[],"default_left":[0,0,0,0,0],"id":15,"left_children":[1,-1,3,-1,-1],"loss_changes":[3.4821722E2,0E0,6.754861E2,0E0,0E0],"parents":[2147483647,0,0,2,2],"right_children":[2,-1,4,-1,-1],"split_conditions":[9.595262E-1,-1.1357725E-1,9.6001977E-1,1.09331906E-1,-1.13552235E-1],"split_indices":[17,0,17,0,0],"split_type":[0,0,0,0,0],"sum_hessian":[8.212829E2,2.0480338E2,6.164795E2,4.1554773E2,2.009318E2],"tree_param":{"num_deleted":"0","num_feature":"48","num_nodes":"5","size_leaf_vector":"1"}},{"base_weights":[4.9284708E-2,-1.1200284E-1,4.1328934E-1,1.0864841E-1,-1.11979805E-1],"categories":[],"categories_nodes":[],"categories_segments":[],"categories_sizes":[],"default_left":[0,0,0,0,0],"id":16,"left_children":[1,-1,3,-1,-1],"loss_changes":[3.34556E2,0E0,6.197538E2,0E0,0E0],"parents":[2147483647,0,0,2,2],"right_children":[2,-1,4,-1,-1],"split_conditions":[9.595262E-1,-1.1200284E-1,9.6001977E-1,1.0864841E-1,-1.11979805E-1],"split_indices":[17,0,17,0,0],"split_type":[0,0,0,0,0],"sum_hessian":[7.8392804E2,1.856089E2,5.9831915E2,4.1595865E2,1.823605E2],"tree_param":{"num_deleted":"0","num_feature":"48","num_nodes":"5","size_leaf_vector":"1"}},{"base_weights":[9.377097E-4,-1.1093185E-1,3.6903942E-1,1.0680228E0,-1.115612E-1,1.0798265E-1,-7.34892E-2],"categories":[],"categories_nodes":[],"categories_segments":[],"categories_sizes":[],"default_left":[0,0,0,0,0,0,0],"id":17,"left_children":[1,-1,3,5,-1,-1,-1],"loss_changes":[2.809729E2,0E0,5.369965E2,8.275024E0,0E0,0E0,0E0],"parents":[2147483647,0,0,2,2,3,3],"right_children":[2,-1,4,6,-1,-1,-1],"split_conditions":[2.7160494E-2,-1.1093185E-1,2.7654322E-2,9.6001977E-1,-1.115612E-1,1.0798265E-1,-7.34892E-2],"split_indices":[15,0,15,17,0,0,0],"split_type":[0,0,0,0,0,0,0],"sum_hessian":[6.854994E2,1.7018361E2,5.153158E2,3.5055356E2,1.6476222E2,3.4867184E2,1.881689E0],"tree_param":{"num_deleted":"0","num_feature":"48","num_nodes":"7","size_leaf_vector":"1"}},{"base_weights":[-3.929125E-3,3.5759318E-1,-1.10345446E-1,-1.0936296E-1,1.0603094E0,-7.07972E-2,1.07220605E-1],"categories":[],"categories_nodes":[],"categories_segments":[],"categories_sizes":[],"default_left":[0,0,0,0,0,0,0],"id":18,"left_children":[1,3,-1,-1,5,-1,-1],"loss_changes":[2.4746994E2,4.7895798E2,0E0,0E0,7.41037E0,0E0,0E0],"parents":[2147483647,0,0,1,1,4,4],"right_children":[2,4,-1,-1,6,-1,-1],"split_conditions":[2.7654322E-2,2.7160494E-2,-1.10345446E-1,-1.0936296E-1,2.8688524E-2,-7.07972E-2,1.07220605E-1],"split_indices":[15,15,0,0,16,0,0],"split_type":[0,0,0,0,0,0,0],"sum_hessian":[6.2056866E2,4.6752264E2,1.5304599E2,1.523464E2,3.1517624E2,1.7152494E0,3.13461E2],"tree_param":{"num_deleted":"0","num_feature":"48","num_nodes":"7","size_leaf_vector":"1"}},{"base_weights":[-3.9934306E-3,3.5243303E-1,-1.08927466E-1,-1.08943425E-1,1.0489346E0,1.06261194E-1,-7.203558E-2],"categories":[],"categories_nodes":[],"categories_segments":[],"categories_sizes":[],"default_left":[0,0,0,0,0,0,0],"id":19,"left_children":[1,3,-1,-1,5,-1,-1],"loss_changes":[2.2407791E2,4.390758E2,0E0,0E0,7.8932495E0,0E0,0E0],"parents":[2147483647,0,0,1,1,4,4],"right_children":[2,4,-1,-1,6,-1,-1],"split_conditions":[2.7654322E-2,2.7160494E-2,-1.08927466E-1,-1.08943425E-1,9.6001977E-1,1.06261194E-1,-7.203558E-2],"split_indices":[15,15,0,0,17,0,0],"split_type":[0,0,0,0,0,0,0],"sum_hessian":[5.772853E2,4.3507413E2,1.4221115E2,1.4152698E2,2.9354715E2,2.9169168E2,1.8554825E0],"tree_param":{"num_deleted":"0","num_feature":"48","num_nodes":"7","size_leaf_vector":"1"}},{"base_weights":[-5.4825805E-3,-1.07962966E-1,3.5279596E-1,1.0431757E0,-1.07582405E-1,-6.9702886E-2,1.0570078E-1],"categories":[],"categories_nodes":[],"categories_segments":[],"categories_sizes":[],"default_left":[0,0,0,0,0,0,0],"id":20,"left_children":[1,-1,3,5,-1,-1,-1],"loss_changes":[1.9965787E2,0E0,3.848394E2,7.062683E0,0E0,0E0,0E0],"parents":[2147483647,0,0,2,2,3,3],"right_children":[2,-1,4,6,-1,-1,-1],"split_conditions":[2.7160494E-2,-1.07962966E-1,2.7654322E-2,2.8688524E-2,-1.07582405E-1,-6.9702886E-2,1.0570078E-1],"split_indices":[15,0,15,16,0,0,0],"split_type":[0,0,0,0,0,0,0],"sum_hessian":[5.1681256E2,1.2876166E2,3.8805093E2,2.6180408E2,1.2624686E2,1.6750567E0,2.60129E2],"tree_param":{"num_deleted":"0","num_feature":"48","num_nodes":"7","size_leaf_vector":"1"}},{"base_weights":[2.658183E-3,-1.0707506E-1,3.5569704E-1,1.0371003E0,-1.0705664E-1,-6.6691004E-2,1.0506058E-1],"categories":[],"categories_nodes":[],"categories_segments":[],"categories_sizes":[],"default_left":[0,0,0,0,0,0,0],"id":21,"left_children":[1,-1,3,5,-1,-1,-1],"loss_changes":[1.8207837E2,0E0,3.5249048E2,6.3428955E0,0E0,0E0,0E0],"parents":[2147483647,0,0,2,2,3,3],"right_children":[2,-1,4,6,-1,-1,-1],"split_conditions":[2.7160494E-2,-1.0707506E-1,2.7654322E-2,2.8688524E-2,-1.0705664E-1,-6.6691004E-2,1.0506058E-1],"split_indices":[15,0,15,16,0,0,0],"split_type":[0,0,0,0,0,0,0],"sum_hessian":[4.784699E2,1.1791583E2,3.6055408E2,2.441725E2,1.1638157E2,1.539577E0,2.4263292E2],"tree_param":{"num_deleted":"0","num_feature":"48","num_nodes":"7","size_leaf_vector":"1"}},{"base_weights":[-1.2272934E-2,-1.0555339E-1,3.39446E-1,1.0281498E0,-1.05558515E-1,1.03212416E-1,2.9857649E-2],"categories":[],"categories_nodes":[],"categories_segments":[],"categories_sizes":[],"default_left":[0,0,0,0,0,0,0],"id":22,"left_children":[1,-1,3,5,-1,-1,-1],"loss_changes":[1.5681763E2,0E0,3.0818784E2,3.1381226E-1,0E0,0E0,0E0],"parents":[2147483647,0,0,2,2,3,3],"right_children":[2,-1,4,6,-1,-1,-1],"split_conditions":[9.595262E-1,-1.0555339E-1,9.6001977E-1,3.6376863E-4,-1.05558515E-1,1.03212416E-1,2.9857649E-2],"split_indices":[17,0,17,1,0,0,0],"split_type":[0,0,0,0,0,0,0],"sum_hessian":[4.253956E2,1.06751274E2,3.1864432E2,2.1350395E2,1.0514038E2,2.1193474E2,1.5692089E0],"tree_param":{"num_deleted":"0","num_feature":"48","num_nodes":"7","size_leaf_vector":"1"}},{"base_weights":[5.189707E-3,-1.05666295E-1,3.522077E-1,1.0229765E0,-1.0520635E-1,-6.659247E-2,1.0395417E-1],"categories":[],"categories_nodes":[],"categories_segments":[],"categories_sizes":[],"default_left":[0,0,0,0,0,0,0],"id":23,"left_children":[1,-1,3,5,-1,-1,-1],"loss_changes":[1.4608795E2,0E0,2.825247E2,6.363632E0,0E0,0E0,0E0],"parents":[2147483647,0,0,2,2,3,3],"right_children":[2,-1,4,6,-1,-1,-1],"split_conditions":[2.7160494E-2,-1.05666295E-1,2.7654322E-2,2.8688524E-2,-1.0520635E-1,-6.659247E-2,1.0395417E-1],"split_indices":[15,0,15,16,0,0,0],"split_type":[0,0,0,0,0,0,0],"sum_hessian":[3.944489E2,9.6652756E1,2.9779617E2,2.0171558E2,9.60806E1,1.5785141E0,2.0013705E2],"tree_param":{"num_deleted":"0","num_feature":"48","num_nodes":"7","size_leaf_vector":"1"}},{"base_weights":[-2.6472053E-2,3.2168484E-1,-1.0540145E-1,-1.045558E-1,1.0188358E0,-6.1219186E-2,1.03442214E-1],"categories":[],"categories_nodes":[],"categories_segments":[],"categories_sizes":[],"default_left":[0,0,0,0,0,0,0],"id":24,"left_children":[1,3,-1,-1,5,-1,-1],"loss_changes":[1.2727639E2,2.5441298E2,0E0,0E0,5.1212463E0,0E0,0E0],"parents":[2147483647,0,0,1,1,4,4],"right_children":[2,4,-1,-1,6,-1,-1],"split_conditions":[2.7654322E-2,2.7160494E-2,-1.0540145E-1,-1.045558E-1,2.8688524E-2,-6.1219186E-2,1.03442214E-1],"split_indices":[15,15,0,0,16,0,0],"split_type":[0,0,0,0,0,0,0],"sum_hessian":[3.5382532E2,2.647936E2,8.903171E1,8.925269E1,1.7554091E2,1.2992948E0,1.7424161E2],"tree_param":{"num_deleted":"0","num_feature":"48","num_nodes":"7","size_leaf_vector":"1"}},{"base_weights":[9.061657E-3,3.5313356E-1,-1.0477584E-1,-1.04373954E-1,1.0147299E0,1.02898814E-1,-5.7427526E-2],"categories":[],"categories_nodes":[],"categories_segments":[],"categories_sizes":[],"default_left":[0,0,0,0,0,0,0],"id":25,"left_children":[1,3,-1,-1,5,-1,-1],"loss_changes":[1.2081833E2,2.3268913E2,0E0,0E0,4.4558716E0,0E0,0E0],"parents":[2147483647,0,0,1,1,4,4],"right_children":[2,4,-1,-1,6,-1,-1],"split_conditions":[2.7654322E-2,2.7160494E-2,-1.0477584E-1,-1.04373954E-1,9.6001977E-1,1.02898814E-1,-5.7427526E-2],"split_indices":[15,15,0,0,17,0,0],"split_type":[0,0,0,0,0,0,0],"sum_hessian":[3.302459E2,2.496368E2,8.060911E1,8.004813E1,1.6958867E2,1.6842976E2,1.1589046E0],"tree_param":{"num_deleted":"0","num_feature":"48","num_nodes":"7","size_leaf_vector":"1"}},{"base_weights":[6.3296786E-4,-1.0379584E-1,3.4636396E-1,1.0080565E0,-1.0377371E-1,1.02299176E-1,-5.5887576E-2],"categories":[],"categories_nodes":[],"categories_segments":[],"categories_sizes":[],"default_left":[0,0,0,0,0,0,0],"id":26,"left_children":[1,-1,3,5,-1,-1,-1],"loss_changes":[1.0869836E2,0E0,2.0904872E2,4.179535E0,0E0,0E0,0E0],"parents":[2147483647,0,0,2,2,3,3],"right_children":[2,-1,4,6,-1,-1,-1],"split_conditions":[2.7160494E-2,-1.0379584E-1,2.7654322E-2,9.6001977E-1,-1.0377371E-1,1.02299176E-1,-5.5887576E-2],"split_indices":[15,0,15,17,0,0,0],"split_type":[0,0,0,0,0,0,0],"sum_hessian":[3.0071796E2,7.46035E1,2.2611446E2,1.531637E2,7.295076E1,1.5206146E2,1.10224E0],"tree_param":{"num_deleted":"0","num_feature":"48","num_nodes":"7","size_leaf_vector":"1"}},{"base_weights":[4.056163E-2,3.745098E-1,-1.036446E-1,-1.02777146E-1,1.0045501E0,1.0192404E-1,-5.439608E-2],"categories":[],"categories_nodes":[],"categories_segments":[],"categories_sizes":[],"default_left":[0,0,0,0,0,0,0],"id":27,"left_children":[1,3,-1,-1,5,-1,-1],"loss_changes":[1.0123719E2,1.9077762E2,0E0,0E0,3.936905E0,0E0,0E0],"parents":[2147483647,0,0,1,1,4,4],"right_children":[2,4,-1,-1,6,-1,-1],"split_conditions":[2.7654322E-2,2.7160494E-2,-1.036446E-1,-1.02777146E-1,9.6001977E-1,1.0192404E-1,-5.439608E-2],"split_indices":[15,15,0,0,17,0,0],"split_type":[0,0,0,0,0,0,0],"sum_hessian":[2.7939734E2,2.1376685E2,6.563051E1,6.607419E1,1.4769266E2,1.4664328E2,1.0493705E0],"tree_param":{"num_deleted":"0","num_feature":"48","num_nodes":"7","size_leaf_vector":"1"}},{"base_weights":[2.75656E-2,-1.02760985E-1,3.4501785E-1,9.2799807E-1,-1.0265028E-1,-7.8213714E-2,9.724692E-1,1.0028502E0,7.1744955E-1,1.00683115E-1,2.7723277E-2,8.611905E-2,2.7750963E-1,-2.719644E-2,7.355194E-2],"categories":[],"categories_nodes":[],"categories_segments":[],"categories_sizes":[],"default_left":[0,0,0,0,0,0,0,0,0,0,0,0,0,0,0],"id":28,"left_children":[1,-1,3,5,-1,-1,7,9,11,-1,-1,-1,13,-1,-1],"loss_changes":[8.6439095E1,0E0,1.5951231E2,1.1383621E1,0E0,0E0,3.3874512E-1,6.616974E-2,9.026699E-1,0E0,0E0,0E0,1.6902479E0,0E0,0E0],"parents":[2147483647,0,0,2,2,3,3,6,6,7,7,8,8,12,12],"right_children":[2,-1,4,6,-1,-1,8,10,12,-1,-1,-1,14,-1,-1],"split_conditions":[3.0195829E-2,-1.02760985E-1,3.063241E-2,1.6666667E-1,-1.0265028E-1,-7.8213714E-2,1.21285E-1,5E-1,3.3333334E-1,1.00683115E-1,2.7723277E-2,8.611905E-2,9.009009E-4,-2.719644E-2,7.355194E-2],"split_indices":[16,0,16,14,0,0,0,11,6,0,0,0,22,0,0],"split_type":[0,0,0,0,0,0,0,0,0,0,0,0,0,0,0],"sum_hessian":[2.5599352E2,5.868712E1,1.973064E2,1.3868161E2,5.862479E1,3.0945194E0,1.3558708E2,1.1853354E2,1.7053547E1,1.17501335E2,1.0322062E0,1.213212E1,4.9214277E0,2.4219816E0,2.499446E0],"tree_param":{"num_deleted":"0","num_feature":"48","num_nodes":"15","size_leaf_vector":"1"}},{"base_weights":[3.0105978E-2,-1.0141045E-1,3.671578E-1,9.96972E-2,-1.01342216E-1],"categories":[],"categories_nodes":[],"categories_segments":[],"categories_sizes":[],"default_left":[0,0,0,0,0],"id":29,"left_children":[1,-1,3,-1,-1],"loss_changes":[8.214518E1,0E0,1.5437383E2,0E0,0E0],"parents":[2147483647,0,0,2,2],"right_children":[2,-1,4,-1,-1],"split_conditions":[9.595262E-1,-1.0141045E-1,9.6001977E-1,9.96972E-2,-1.01342216E-1],"split_indices":[17,0,17,0,0],"split_type":[0,0,0,0,0],"sum_hessian":[2.3134024E2,5.5960842E1,1.7537941E2,1.2062753E2,5.475187E1],"tree_param":{"num_deleted":"0","num_feature":"48","num_nodes":"5","size_leaf_vector":"1"}},{"base_weights":[-1.124147E-2,-1.0196527E-1,3.3179775E-1,9.909521E-1,-1.0188677E-1,-5.449046E-2,1.0120242E-1],"categories":[],"categories_nodes":[],"categories_segments":[],"categories_sizes":[],"default_left":[0,0,0,0,0,0,0],"id":30,"left_children":[1,-1,3,5,-1,-1,-1],"loss_changes":[7.074353E1,0E0,1.3688731E2,3.887268E0,0E0,0E0,0E0],"parents":[2147483647,0,0,2,2,3,3],"right_children":[2,-1,4,6,-1,-1,-1],"split_conditions":[2.7160494E-2,-1.0196527E-1,2.7654322E-2,2.8688524E-2,-1.0188677E-1,-5.449046E-2,1.0120242E-1],"split_indices":[15,0,15,16,0,0,0],"split_type":[0,0,0,0,0,0,0],"sum_hessian":[2.025276E2,5.090701E1,1.516206E2,1.02073044E2,4.9547558E1,1.0450397E0,1.01028E2],"tree_param":{"num_deleted":"0","num_feature":"48","num_nodes":"7","size_leaf_vector":"1"}},{"base_weights":[-1.8673822E-3,3.3534876E-1,-1.0197573E-1,-1.01488866E-1,9.897415E-1,9.985627E-2,4.3746132E-1,5.4082394E-2,1.3493902E-2],"categories":[],"categories_nodes":[],"categories_segments":[],"categories_sizes":[],"default_left":[0,0,0,0,0,0,0,0,0],"id":31,"left_children":[1,3,-1,-1,5,-1,7,-1,-1],"loss_changes":[6.540824E1,1.2748166E2,0E0,0E0,3.5339355E-2,0E0,3.0315876E-2,0E0,0E0],"parents":[2147483647,0,0,1,1,4,4,6,6],"right_children":[2,4,-1,-1,6,-1,8,-1,-1],"split_conditions":[2.7654322E-2,2.7160494E-2,-1.0197573E-1,-1.01488866E-1,1.7142858E-1,9.985627E-2,2.4566226E-2,5.4082394E-2,1.3493902E-2],"split_indices":[15,15,0,0,5,0,0,0,0],"split_type":[0,0,0,0,0,0,0,0,0],"sum_hessian":[1.8856004E2,1.4214084E2,4.6419212E1,4.6220715E1,9.592012E1,9.3616776E1,2.3033502E0,1.1296631E0,1.1736872E0],"tree_param":{"num_deleted":"0","num_feature":"48","num_nodes":"9","size_leaf_vector":"1"}},{"base_weights":[-1.0769933E-2,3.264252E-1,-1.0150955E-1,-1.0101997E-1,9.811374E-2],"categories":[],"categories_nodes":[],"categories_segments":[],"categories_sizes":[],"default_left":[0,0,0,0,0],"id":32,"left_children":[1,3,-1,-1,-1],"loss_changes":[5.8207546E1,1.1361804E2,0E0,0E0,0E0],"parents":[2147483647,0,0,1,1],"right_children":[2,4,-1,-1,-1],"split_conditions":[2.7654322E-2,2.7160494E-2,-1.0150955E-1,-1.0101997E-1,9.811374E-2],"split_indices":[15,15,0,0,0],"split_type":[0,0,0,0,0],"sum_hessian":[1.6990083E2,1.2770109E2,4.219975E1,4.180707E1,8.589401E1],"tree_param":{"num_deleted":"0","num_feature":"48","num_nodes":"5","size_leaf_vector":"1"}},{"base_weights":[7.385045E-4,3.3696863E-1,-1.0101191E-1,-9.945917E-2,9.7896874E-2],"categories":[],"categories_nodes":[],"categories_segments":[],"categories_sizes":[],"default_left":[0,0,0,0,0],"id":33,"left_children":[1,3,-1,-1,-1],"loss_changes":[5.2782722E1,1.0059428E2,0E0,0E0,0E0],"parents":[2147483647,0,0,1,1],"right_children":[2,4,-1,-1,-1],"split_conditions":[2.7654322E-2,2.7160494E-2,-1.0101191E-1,-9.945917E-2,9.7896874E-2],"split_indices":[15,15,0,0,0],"split_type":[0,0,0,0,0],"sum_hessian":[1.5329631E2,1.1553414E2,3.776217E1,3.740465E1,7.8129486E1],"tree_param":{"num_deleted":"0","num_feature":"48","num_nodes":"5","size_leaf_vector":"1"}},{"base_weights":[2.5902674E-2,3.5199243E-1,-1.0053034E-1,-1.00082554E-1,9.707129E-1,-5.763821E-2,1.0014836E-1],"categories":[],"categories_nodes":[],"categories_segments":[],"categories_sizes":[],"default_left":[0,0,0,0,0,0,0],"id":34,"left_children":[1,3,-1,-1,5,-1,-1],"loss_changes":[4.944434E1,9.4428116E1,0E0,0E0,4.2486496E0,0E0,0E0],"parents":[2147483647,0,0,1,1,4,4],"right_children":[2,4,-1,-1,6,-1,-1],"split_conditions":[2.7654322E-2,2.7160494E-2,-1.0053034E-1,-1.00082554E-1,2.8688524E-2,-5.763821E-2,1.0014836E-1],"split_indices":[15,15,0,0,16,0,0],"split_type":[0,0,0,0,0,0,0],"sum_hessian":[1.4498717E2,1.1065447E2,3.4332687E1,3.4532467E1,7.612201E1,1.1386974E0,7.498331E1],"tree_param":{"num_deleted":"0","num_feature":"48","num_nodes":"7","size_leaf_vector":"1"}},{"base_weights":[-2.396624E-2,3.1684843E-1,-1.0006509E-1,-9.9558145E-2,9.7049105E-1,9.831042E-2,2.2673901E-2],"categories":[],"categories_nodes":[],"categories_segments":[],"categories_sizes":[],"default_left":[0,0,0,0,0,0,0],"id":35,"left_children":[1,3,-1,-1,5,-1,-1],"loss_changes":[4.2112362E1,8.146783E1,0E0,0E0,3.6949158E-1,0E0,0E0],"parents":[2147483647,0,0,1,1,4,4],"right_children":[2,4,-1,-1,6,-1,-1],"split_conditions":[2.7654322E-2,2.7160494E-2,-1.0006509E-1,-9.9558145E-2,1.7142858E-1,9.831042E-2,2.2673901E-2],"split_indices":[15,15,0,0,5,0,0],"split_type":[0,0,0,0,0,0,0],"sum_hessian":[1.24561035E2,9.2840034E1,3.1720997E1,3.069178E1,6.214826E1,6.079542E1,1.3528349E0],"tree_param":{"num_deleted":"0","num_feature":"48","num_nodes":"7","size_leaf_vector":"1"}},{"base_weights":[-6.1776964E-3,3.2341513E-1,-9.9572174E-2,-9.912761E-2,9.533054E-1,-5.989724E-2,9.95306E-2],"categories":[],"categories_nodes":[],"categories_segments":[],"categories_sizes":[],"default_left":[0,0,0,0,0,0,0],"id":36,"left_children":[1,3,-1,-1,5,-1,-1],"loss_changes":[3.9166573E1,7.555633E1,0E0,0E0,4.60075E0,0E0,0E0],"parents":[2147483647,0,0,1,1,4,4],"right_children":[2,4,-1,-1,6,-1,-1],"split_conditions":[2.7654322E-2,2.7160494E-2,-9.9572174E-2,-9.912761E-2,2.8688524E-2,-5.989724E-2,9.95306E-2],"split_indices":[15,15,0,0,16,0,0],"split_type":[0,0,0,0,0,0,0],"sum_hessian":[1.1810147E2,8.9098206E1,2.9003262E1,2.8674915E1,6.0423294E1,1.2424697E0,5.9180824E1],"tree_param":{"num_deleted":"0","num_feature":"48","num_nodes":"7","size_leaf_vector":"1"}},{"base_weights":[-8.098941E-3,3.1988823E-1,-9.901477E-2,-9.810984E-2,9.493639E-1,9.632498E-2,1.3065268E-2],"categories":[],"categories_nodes":[],"categories_segments":[],"categories_sizes":[],"default_left":[0,0,0,0,0,0,0],"id":37,"left_children":[1,3,-1,-1,5,-1,-1],"loss_changes":[3.4598923E1,6.689055E1,0E0,0E0,4.9700546E-1,0E0,0E0],"parents":[2147483647,0,0,1,1,4,4],"right_children":[2,4,-1,-1,6,-1,-1],"split_conditions":[2.7654322E-2,2.7160494E-2,-9.901477E-2,-9.810984E-2,3.6376863E-4,9.632498E-2,1.3065268E-2],"split_indices":[15,15,0,0,1,0,0],"split_type":[0,0,0,0,0,0,0],"sum_hessian":[1.05433556E2,7.954213E1,2.5891424E1,2.5754562E1,5.3787567E1,5.2716908E1,1.0706599E0],"tree_param":{"num_deleted":"0","num_feature":"48","num_nodes":"7","size_leaf_vector":"1"}},{"base_weights":[-3.0245133E-2,3.114222E-1,-9.7452216E-2,-9.705609E-2,9.640355E-1,9.753161E-2,2.8521871E-2],"categories":[],"categories_nodes":[],"categories_segments":[],"categories_sizes":[],"default_left":[0,0,0,0,0,0,0],"id":38,"left_children":[1,3,-1,-1,5,-1,-1],"loss_changes":[3.0543951E1,5.9153584E1,0E0,0E0,7.8762054E-2,0E0,0E0],"parents":[2147483647,0,0,1,1,4,4],"right_children":[2,4,-1,-1,6,-1,-1],"split_conditions":[9.6001977E-1,9.595262E-1,-9.7452216E-2,-9.705609E-2,1.4285715E-1,9.753161E-2,2.8521871E-2],"split_indices":[17,17,0,0,5,0,0],"split_type":[0,0,0,0,0,0,0],"sum_hessian":[9.273151E1,6.8585464E1,2.4146046E1,2.2972149E1,4.561331E1,4.4438053E1,1.175259E0],"tree_param":{"num_deleted":"0","num_feature":"48","num_nodes":"7","size_leaf_vector":"1"}},{"base_weights":[3.0509704E-3,3.2742813E-1,-9.827168E-2,-9.775906E-2,9.430539E-1,-5.4026466E-2,9.8721646E-2],"categories":[],"categories_nodes":[],"categories_segments":[],"categories_sizes":[],"default_left":[0,0,0,0,0,0,0],"id":39,"left_children":[1,3,-1,-1,5,-1,-1],"loss_changes":[2.9098291E1,5.5924957E1,0E0,0E0,3.6139755E0,0E0,0E0],"parents":[2147483647,0,0,1,1,4,4],"right_children":[2,4,-1,-1,6,-1,-1],"split_conditions":[2.7654322E-2,2.7160494E-2,-9.827168E-2,-9.775906E-2,2.8688524E-2,-5.4026466E-2,9.8721646E-2],"split_indices":[15,15,0,0,16,0,0],"split_type":[0,0,0,0,0,0,0],"sum_hessian":[8.899397E1,6.7462555E1,2.1531414E1,2.143537E1,4.6027187E1,1.0059547E0,4.5021233E1],"tree_param":{"num_deleted":"0","num_feature":"48","num_nodes":"7","size_leaf_vector":"1"}},{"base_weights":[2.362569E-3,-9.714762E-2,3.2805774E-1,9.435491E-1,-9.757245E-2,9.6332945E-2,2.9863248E-2],"categories":[],"categories_nodes":[],"categories_segments":[],"categories_sizes":[],"default_left":[0,0,0,0,0,0,0],"id":40,"left_children":[1,-1,3,5,-1,-1,-1],"loss_changes":[2.5667885E1,0E0,4.958145E1,2.4428558E-1,0E0,0E0,0E0],"parents":[2147483647,0,0,2,2,3,3],"right_children":[2,-1,4,6,-1,-1,-1],"split_conditions":[2.7160494E-2,-9.714762E-2,2.7654322E-2,1.7142858E-1,-9.757245E-2,9.6332945E-2,2.9863248E-2],"split_indices":[15,0,15,5,0,0,0],"split_type":[0,0,0,0,0,0,0],"sum_hessian":[7.892187E1,1.9282827E1,5.9639038E1,4.0701103E1,1.8937935E1,3.9010868E1,1.6902343E0],"tree_param":{"num_deleted":"0","num_feature":"48","num_nodes":"7","size_leaf_vector":"1"}},{"base_weights":[-5.2252796E-4,3.2039708E-1,-9.7052485E-2,-9.65773E-2,9.275696E-1,9.517788E-2,1.7275564E-2],"categories":[],"categories_nodes":[],"categories_segments":[],"categories_sizes":[],"default_left":[0,0,0,0,0,0,0],"id":41,"left_children":[1,3,-1,-1,5,-1,-1],"loss_changes":[2.3505592E1,4.520512E1,0E0,0E0,5.4922867E-1,0E0,0E0],"parents":[2147483647,0,0,1,1,4,4],"right_children":[2,4,-1,-1,6,-1,-1],"split_conditions":[2.7654322E-2,2.7160494E-2,-9.7052485E-2,-9.65773E-2,1.7142858E-1,9.517788E-2,1.7275564E-2],"split_indices":[15,15,0,0,5,0,0],"split_type":[0,0,0,0,0,0,0],"sum_hessian":[7.35107E1,5.5739353E1,1.7771345E1,1.768555E1,3.8053802E1,3.6618393E1,1.4354078E0],"tree_param":{"num_deleted":"0","num_feature":"48","num_nodes":"7","size_leaf_vector":"1"}},{"base_weights":[8.905922E-6,-9.658457E-2,3.2404E-1,8.80861E-1,-9.616597E-2,-1.9088203E-2,9.2207557E-1,9.423164E-2,3.5066903E-2],"categories":[],"categories_nodes":[],"categories_segments":[],"categories_sizes":[],"default_left":[0,0,0,0,0,0,0,0,0],"id":42,"left_children":[1,-1,3,5,-1,-1,7,-1,-1],"loss_changes":[2.1952477E1,0E0,3.8448185E1,1.8179398E0,0E0,0E0,8.554077E-2,0E0,0E0],"parents":[2147483647,0,0,2,2,3,3,6,6],"right_children":[2,-1,4,6,-1,-1,8,-1,-1],"split_conditions":[3.0195829E-2,-9.658457E-2,3.063241E-2,1.8917896E-4,-9.616597E-2,-1.9088203E-2,1.822711E-1,9.423164E-2,3.5066903E-2],"split_indices":[16,0,16,25,0,0,0,0,0],"split_type":[0,0,0,0,0,0,0,0,0],"sum_hessian":[6.81431E1,1.6620594E1,5.1522503E1,3.6171806E1,1.5350695E1,1.2050209E0,3.4966785E1,3.3143627E1,1.8231606E0],"tree_param":{"num_deleted":"0","num_feature":"48","num_nodes":"9","size_leaf_vector":"1"}},{"base_weights":[-6.116789E-3,-9.5812105E-2,3.1205085E-1,8.9127016E-1,-9.5616765E-2,-5.882966E-2,9.7462475E-2],"categories":[],"categories_nodes":[],"categories_segments":[],"categories_sizes":[],"default_left":[0,0,0,0,0,0,0],"id":43,"left_children":[1,-1,3,5,-1,-1,-1],"loss_changes":[1.9221186E1,0E0,3.5800915E1,4.6651363E0,0E0,0E0,0E0],"parents":[2147483647,0,0,2,2,3,3],"right_children":[2,-1,4,6,-1,-1,-1],"split_conditions":[3.0195829E-2,-9.5812105E-2,2.7654322E-2,6.9135805E-3,-9.5616765E-2,-5.882966E-2,9.7462475E-2],"split_indices":[16,0,15,15,0,0,0],"split_type":[0,0,0,0,0,0,0],"sum_hessian":[6.147076E1,1.489409E1,4.657667E1,3.2177723E1,1.4398947E1,1.3930454E0,3.078468E1],"tree_param":{"num_deleted":"0","num_feature":"48","num_nodes":"7","size_leaf_vector":"1"}},{"base_weights":[-1.16494205E-2,3.0789432E-1,-9.406226E-2,-9.379705E-2,9.112996E-1,9.517085E-2,2.8170887E-1,5.2346725E-2,-9.313669E-3],"categories":[],"categories_nodes":[],"categories_segments":[],"categories_sizes":[],"default_left":[0,0,0,0,0,0,0,0,0],"id":44,"left_children":[1,3,-1,-1,5,-1,7,-1,-1],"loss_changes":[1.6970633E1,3.285356E1,0E0,0E0,4.743576E-1,0E0,3.3698428E-1,0E0,0E0],"parents":[2147483647,0,0,1,1,4,4,6,6],"right_children":[2,4,-1,-1,6,-1,8,-1,-1],"split_conditions":[9.6001977E-1,9.595262E-1,-9.406226E-2,-9.379705E-2,1.8236805E-4,9.517085E-2,3.8521865E-3,5.2346725E-2,-9.313669E-3],"split_indices":[17,17,0,0,1,0,20,0,0],"split_type":[0,0,0,0,0,0,0,0,0],"sum_hessian":[5.5193886E1,4.156509E1,1.3628796E1,1.3381513E1,2.8183578E1,2.6003002E1,2.1805756E0,1.0845816E0,1.0959939E0],"tree_param":{"num_deleted":"0","num_feature":"48","num_nodes":"9","size_leaf_vector":"1"}},{"base_weights":[-1.9798953E-2,-9.441376E-2,2.986719E-1,8.861487E-1,-9.444016E-2,-5.259316E-2,9.662392E-2],"categories":[],"categories_nodes":[],"categories_segments":[],"categories_sizes":[],"default_left":[0,0,0,0,0,0,0],"id":45,"left_children":[1,-1,3,5,-1,-1,-1],"loss_changes":[1.5334446E1,0E0,2.9164526E1,3.545578E0,0E0,0E0,0E0],"parents":[2147483647,0,0,2,2,3,3],"right_children":[2,-1,4,6,-1,-1,-1],"split_conditions":[3.0195829E-2,-9.441376E-2,2.7654322E-2,5.4320986E-3,-9.444016E-2,-5.259316E-2,9.662392E-2],"split_indices":[16,0,15,15,0,0,0],"split_type":[0,0,0,0,0,0,0],"sum_hessian":[5.0133633E1,1.234335E1,3.779028E1,2.5857264E1,1.1933018E1,1.0890719E0,2.4768192E1],"tree_param":{"num_deleted":"0","num_feature":"48","num_nodes":"7","size_leaf_vector":"1"}},{"base_weights":[-2.2208352E-2,2.9925382E-1,-9.389549E-2,-9.27001E-2,8.952894E-1,9.2532784E-2,2.2486452E-2],"categories":[],"categories_nodes":[],"categories_segments":[],"categories_sizes":[],"default_left":[0,0,0,0,0,0,0],"id":46,"left_children":[1,3,-1,-1,5,-1,-1],"loss_changes":[1.4063906E1,2.6692915E1,0E0,0E0,2.8170204E-1,0E0,0E0],"parents":[2147483647,0,0,1,1,4,4],"right_children":[2,4,-1,-1,6,-1,-1],"split_conditions":[2.7654322E-2,2.7160494E-2,-9.389549E-2,-9.27001E-2,1.6666667E-1,9.2532784E-2,2.2486452E-2],"split_indices":[15,15,0,0,3,0,0],"split_type":[0,0,0,0,0,0,0],"sum_hessian":[4.576943E1,3.4385525E1,1.1383903E1,1.1065213E1,2.3320312E1,2.1956347E1,1.3639661E0],"tree_param":{"num_deleted":"0","num_feature":"48","num_nodes":"7","size_leaf_vector":"1"}},{"base_weights":[-5.103648E-2,2.7306187E-1,-9.212982E-2,-9.159323E-2,8.836165E-1,9.15962E-2,1.2021932E-2],"categories":[],"categories_nodes":[],"categories_segments":[],"categories_sizes":[],"default_left":[0,0,0,0,0,0,0],"id":47,"left_children":[1,3,-1,-1,5,-1,-1],"loss_changes":[1.2100531E1,2.3590755E1,0E0,0E0,4.1443443E-1,0E0,0E0],"parents":[2147483647,0,0,1,1,4,4],"right_children":[2,4,-1,-1,6,-1,-1],"split_conditions":[9.6001977E-1,9.595262E-1,-9.212982E-2,-9.159323E-2,5E-1,9.15962E-2,1.2021932E-2],"split_indices":[17,17,0,0,4,0,0],"split_type":[0,0,0,0,0,0,0],"sum_hessian":[4.101008E1,3.038171E1,1.0628367E1,1.0138272E1,2.0243437E1,1.9228851E1,1.0145859E0],"tree_param":{"num_deleted":"0","num_feature":"48","num_nodes":"7","size_leaf_vector":"1"}},{"base_weights":[-1.2398327E-2,-9.232156E-2,3.036696E-1,-9.057746E-2,8.568613E-1,9.011924E-2,4.9335114E-3],"categories":[],"categories_nodes":[],"categories_segments":[],"categories_sizes":[],"default_left":[0,0,0,0,0,0,0],"id":48,"left_children":[1,-1,3,-1,5,-1,-1],"loss_changes":[1.1890769E1,0E0,2.1311605E1,0E0,7.278671E-1,0E0,0E0],"parents":[2147483647,0,0,2,2,4,4],"right_children":[2,-1,4,-1,6,-1,-1],"split_conditions":[3.0195829E-2,-9.232156E-2,9.595262E-1,-9.057746E-2,2.0201589E-4,9.011924E-2,4.9335114E-3],"split_indices":[16,0,17,0,1,0,0],"split_type":[0,0,0,0,0,0,0],"sum_hessian":[3.9330734E1,9.637443E0,2.969329E1,9.119013E0,2.0574278E1,1.9393627E1,1.1806519E0],"tree_param":{"num_deleted":"0","num_feature":"48","num_nodes":"7","size_leaf_vector":"1"}},{"base_weights":[-2.4004675E-2,2.9511192E-1,-9.0774715E-2,-9.016822E-2,8.663456E-1,9.413436E-2,3.998836E-1,6.327005E-2,2.6410685E-3],"categories":[],"categories_nodes":[],"categories_segments":[],"categories_sizes":[],"default_left":[0,0,0,0,0,0,0,0,0],"id":49,"left_children":[1,3,-1,-1,5,-1,7,-1,-1],"loss_changes":[1.0798643E1,2.0052591E1,0E0,0E0,3.0895424E-1,0E0,3.70408E-1,0E0,0E0],"parents":[2147483647,0,0,1,1,4,4,6,6],"right_children":[2,4,-1,-1,6,-1,8,-1,-1],"split_conditions":[9.6001977E-1,9.595262E-1,-9.0774715E-2,-9.016822E-2,1.2989395E-4,9.413436E-2,8.833703E-2,6.327005E-2,2.6410685E-3],"split_indices":[17,17,0,0,1,0,21,0,0],"split_type":[0,0,0,0,0,0,0,0,0],"sum_hessian":[3.6340874E1,2.7189058E1,9.151816E0,8.597634E0,1.8591423E1,1.5139272E1,3.4521513E0,1.6989523E0,1.753199E0],"tree_param":{"num_deleted":"0","num_feature":"48","num_nodes":"9","size_leaf_vector":"1"}},{"base_weights":[-1.864262E-2,2.9829013E-1,-9.159471E-2,-8.984238E-2,8.654226E-1,6.0469373E-3,9.1317296E-2],"categories":[],"categories_nodes":[],"categories_segments":[],"categories_sizes":[],"default_left":[0,0,0,0,0,0,0],"id":50,"left_children":[1,3,-1,-1,5,-1,-1],"loss_changes":[9.978486E0,1.8405855E1,0E0,0E0,6.417084E-1,0E0,0E0],"parents":[2147483647,0,0,1,1,4,4],"right_children":[2,4,-1,-1,6,-1,-1],"split_conditions":[2.7654322E-2,2.8688524E-2,-9.159471E-2,-8.984238E-2,5.5555556E-2,6.0469373E-3,9.1317296E-2],"split_indices":[15,16,0,0,41,0,0],"split_type":[0,0,0,0,0,0,0],"sum_hessian":[3.3127193E1,2.4973862E1,8.153331E0,7.8420644E0,1.7131798E1,1.0862732E0,1.6045525E1],"tree_param":{"num_deleted":"0","num_feature":"48","num_nodes":"7","size_leaf_vector":"1"}},{"base_weights":[-1.3568103E-2,2.9691193E-1,-8.958041E-2,-8.8759944E-2,8.7926817E-1,9.076314E-2,2.5100762E-2],"categories":[],"categories_nodes":[],"categories_segments":[],"categories_sizes":[],"default_left":[0,0,0,0,0,0,0],"id":51,"left_children":[1,3,-1,-1,5,-1,-1],"loss_changes":[8.754182E0,1.7110033E1,0E0,0E0,6.392956E-2,0E0,0E0],"parents":[2147483647,0,0,1,1,4,4],"right_children":[2,4,-1,-1,6,-1,-1],"split_conditions":[2.7654322E-2,2.7160494E-2,-8.958041E-2,-8.8759944E-2,1.5555556E-1,9.076314E-2,2.5100762E-2],"split_indices":[15,15,0,0,3,0,0],"split_type":[0,0,0,0,0,0,0],"sum_hessian":[2.9988287E1,2.2672682E1,7.315606E0,7.300114E0,1.5372567E1,1.4283076E1,1.0894911E0],"tree_param":{"num_deleted":"0","num_feature":"48","num_nodes":"7","size_leaf_vector":"1"}},{"base_weights":[-1.3498878E-2,3.028288E-1,-8.7884896E-2,-8.721061E-2,8.6571985E-1,9.016075E-2,1.988926E-2],"categories":[],"categories_nodes":[],"categories_segments":[],"categories_sizes":[],"default_left":[0,0,0,0,0,0,0],"id":52,"left_children":[1,3,-1,-1,5,-1,-1],"loss_changes":[8.09867E0,1.5104981E1,0E0,0E0,1.8374443E-1,0E0,0E0],"parents":[2147483647,0,0,1,1,4,4],"right_children":[2,4,-1,-1,6,-1,-1],"split_conditions":[9.6001977E-1,9.595262E-1,-8.7884896E-2,-8.721061E-2,1.4285715E-1,9.016075E-2,1.988926E-2],"split_indices":[17,17,0,0,5,0,0],"split_type":[0,0,0,0,0,0,0],"sum_hessian":[2.7613634E1,2.0697676E1,6.91596E0,6.526155E0,1.417152E1,1.3113675E1,1.0578448E0],"tree_param":{"num_deleted":"0","num_feature":"48","num_nodes":"7","size_leaf_vector":"1"}},{"base_weights":[-2.7535649E-2,-8.779409E-2,2.7643406E-1,8.118883E-1,-8.834268E-2,8.6656176E-2,4.274933E-3],"categories":[],"categories_nodes":[],"categories_segments":[],"categories_sizes":[],"default_left":[0,0,0,0,0,0,0],"id":53,"left_children":[1,-1,3,5,-1,-1,-1],"loss_changes":[7.2026215E0,0E0,1.3508021E1,5.773907E-1,0E0,0E0,0E0],"parents":[2147483647,0,0,2,2,3,3],"right_children":[2,-1,4,6,-1,-1,-1],"split_conditions":[3.0195829E-2,-8.779409E-2,3.063241E-2,5E-1,-8.834268E-2,8.6656176E-2,4.274933E-3],"split_indices":[16,0,16,8,0,0,0],"split_type":[0,0,0,0,0,0,0],"sum_hessian":[2.592456E1,6.329235E0,1.9595325E1,1.3611525E1,5.983801E0,1.2589918E1,1.0216064E0],"tree_param":{"num_deleted":"0","num_feature":"48","num_nodes":"7","size_leaf_vector":"1"}},{"base_weights":[-4.5947596E-2,2.622202E-1,-8.7907836E-2,-8.661469E-2,8.4242207E-1,8.739557E-2,2.3922114E-2],"categories":[],"categories_nodes":[],"categories_segments":[],"categories_sizes":[],"default_left":[0,0,0,0,0,0,0],"id":54,"left_children":[1,3,-1,-1,5,-1,-1],"loss_changes":[6.5852427E0,1.3062712E1,0E0,0E0,3.721714E-2,0E0,0E0],"parents":[2147483647,0,0,1,1,4,4],"right_children":[2,4,-1,-1,6,-1,-1],"split_conditions":[2.7654322E-2,2.7160494E-2,-8.7907836E-2,-8.661469E-2,1.5555556E-1,8.739557E-2,2.3922114E-2],"split_indices":[15,15,0,0,3,0,0],"split_type":[0,0,0,0,0,0,0],"sum_hessian":[2.3751228E1,1.7838266E1,5.9129605E0,5.890222E0,1.1948045E1,1.0927901E1,1.020144E0],"tree_param":{"num_deleted":"0","num_feature":"48","num_nodes":"7","size_leaf_vector":"1"}},{"base_weights":[-6.251859E-3,-8.581896E-2,2.9800218E-1,-8.358546E-2,7.981805E-1,8.8014334E-2,3.0624193E-1,4.999538E-2,-1.1944895E-3],"categories":[],"categories_nodes":[],"categories_segments":[],"categories_sizes":[],"default_left":[0,0,0,0,0,0,0,0,0],"id":55,"left_children":[1,-1,3,-1,5,-1,7,-1,-1],"loss_changes":[6.332168E0,0E0,1.0884487E1,0E0,2.5514317E-1,0E0,2.1504617E-1,0E0,0E0],"parents":[2147483647,0,0,2,2,4,4,6,6],"right_children":[2,-1,4,-1,6,-1,8,-1,-1],"split_conditions":[3.0195829E-2,-8.581896E-2,9.595262E-1,-8.358546E-2,1.2989395E-4,8.8014334E-2,4.4252045E-2,4.999538E-2,-1.1944895E-3],"split_indices":[16,0,17,0,1,0,23,0,0],"split_type":[0,0,0,0,0,0,0,0,0],"sum_hessian":[2.2442505E1,5.426684E0,1.7015821E1,5.003117E0,1.2012705E1,9.620656E0,2.3920488E0,1.1317698E0,1.260279E0],"tree_param":{"num_deleted":"0","num_feature":"48","num_nodes":"9","size_leaf_vector":"1"}},{"base_weights":[-3.5449088E-2,-8.4262125E-2,2.634897E-1,7.7746964E-1,-8.363365E-2,2.5319738E-2,8.256515E-2],"categories":[],"categories_nodes":[],"categories_segments":[],"categories_sizes":[],"default_left":[0,0,0,0,0,0,0],"id":56,"left_children":[1,-1,3,5,-1,-1,-1],"loss_changes":[5.256418E0,0E0,9.687556E0,7.926035E-2,0E0,0E0,0E0],"parents":[2147483647,0,0,2,2,3,3],"right_children":[2,-1,4,6,-1,-1,-1],"split_conditions":[3.0195829E-2,-8.4262125E-2,3.063241E-2,8.3333336E-2,-8.363365E-2,2.5319738E-2,8.256515E-2],"split_indices":[16,0,16,41,0,0,0],"split_type":[0,0,0,0,0,0,0],"sum_hessian":[1.9864069E1,4.8769593E0,1.4987109E1,1.0413625E1,4.573485E0,1.402954E0,9.010671E0],"tree_param":{"num_deleted":"0","num_feature":"48","num_nodes":"7","size_leaf_vector":"1"}},{"base_weights":[-3.508274E-2,2.558226E-1,-8.246711E-2,-8.230296E-2,7.870051E-1,1.9530011E-2,8.630673E-2],"categories":[],"categories_nodes":[],"categories_segments":[],"categories_sizes":[],"default_left":[0,0,0,0,0,0,0],"id":57,"left_children":[1,3,-1,-1,5,-1,-1],"loss_changes":[4.7799406E0,9.415214E0,0E0,0E0,3.158412E-1,0E0,0E0],"parents":[2147483647,0,0,1,1,4,4],"right_children":[2,4,-1,-1,6,-1,-1],"split_conditions":[9.6001977E-1,9.595262E-1,-8.246711E-2,-8.230296E-2,6.0509354E-2,1.9530011E-2,8.630673E-2],"split_indices":[17,17,0,0,18,0,0],"split_type":[0,0,0,0,0,0,0],"sum_hessian":[1.8891428E1,1.4299221E1,4.592208E0,4.53633E0,9.762891E0,1.5184163E0,8.244474E0],"tree_param":{"num_deleted":"0","num_feature":"48","num_nodes":"7","size_leaf_vector":"1"}},{"base_weights":[-6.1547313E-2,2.3916405E-1,-8.3625935E-2,-8.215279E-2,8.001133E-2],"categories":[],"categories_nodes":[],"categories_segments":[],"categories_sizes":[],"default_left":[0,0,0,0,0],"id":58,"left_children":[1,3,-1,-1,-1],"loss_changes":[4.4526787E0,8.944293E0,0E0,0E0,0E0],"parents":[2147483647,0,0,1,1],"right_children":[2,4,-1,-1,-1],"split_conditions":[2.7654322E-2,2.7160494E-2,-8.3625935E-2,-8.215279E-2,8.001133E-2],"split_indices":[15,15,0,0,0],"split_type":[0,0,0,0,0],"sum_hessian":[1.725459E1,1.2927826E1,4.326764E0,4.311234E0,8.616591E0],"tree_param":{"num_deleted":"0","num_feature":"48","num_nodes":"5","size_leaf_vector":"1"}},{"base_weights":[-1.8449455E-2,2.7712965E-1,-8.0049686E-2,-7.9217635E-2,7.8947026E-1,8.757317E-2,1.7355856E-2],"categories":[],"categories_nodes":[],"categories_segments":[],"categories_sizes":[],"default_left":[0,0,0,0,0,0,0],"id":59,"left_children":[1,3,-1,-1,5,-1,-1],"loss_changes":[4.1572185E0,7.801059E0,0E0,0E0,3.450861E-1,0E0,0E0],"parents":[2147483647,0,0,1,1,4,4],"right_children":[2,4,-1,-1,6,-1,-1],"split_conditions":[9.6001977E-1,9.595262E-1,-8.0049686E-2,-7.9217635E-2,3.7901758E-4,8.757317E-2,1.7355856E-2],"split_indices":[17,17,0,0,19,0,0],"split_type":[0,0,0,0,0,0,0],"sum_hessian":[1.6024702E1,1.2097878E1,3.9268236E0,3.7419224E0,8.355956E0,6.9594107E0,1.3965458E0],"tree_param":{"num_deleted":"0","num_feature":"48","num_nodes":"7","size_leaf_vector":"1"}},{"base_weights":[-8.32504E-2,-8.02001E-2,2.0907664E-1,7.257851E-2,-8.038758E-2],"categories":[],"categories_nodes":[],"categories_segments":[],"categories_sizes":[],"default_left":[0,0,0,0,0],"id":60,"left_children":[1,-1,3,-1,-1],"loss_changes":[3.4655995E0,0E0,6.8387227E0,0E0,0E0],"parents":[2147483647,0,0,2,2],"right_children":[2,-1,4,-1,-1],"split_conditions":[3.0195829E-2,-8.02001E-2,3.063241E-2,7.257851E-2,-8.038758E-2],"split_indices":[16,0,16,0,0],"split_type":[0,0,0,0,0],"sum_hessian":[1.4696143E1,3.7449214E0,1.0951221E1,7.43971E0,3.511511E0],"tree_param":{"num_deleted":"0","num_feature":"48","num_nodes":"5","size_leaf_vector":"1"}},{"base_weights":[-4.4941753E-2,2.6406562E-1,-8.035236E-2,-7.669734E-2,7.740452E-2],"categories":[],"categories_nodes":[],"categories_segments":[],"categories_sizes":[],"default_left":[0,0,0,0,0],"id":61,"left_children":[1,3,-1,-1,-1],"loss_changes":[3.7120328E0,6.5677543E0,0E0,0E0,0E0],"parents":[2147483647,0,0,1,1],"right_children":[2,4,-1,-1,-1],"split_conditions":[2.7654322E-2,2.7160494E-2,-8.035236E-2,-7.669734E-2,7.740452E-2],"split_indices":[15,15,0,0,0],"split_type":[0,0,0,0,0],"sum_hessian":[1.393063E1,1.03617E1,3.56893E0,3.2622979E0,7.099402E0],"tree_param":{"num_deleted":"0","num_feature":"48","num_nodes":"5","size_leaf_vector":"1"}},{"base_weights":[-6.816815E-2,2.214628E-1,-7.871061E-2,-7.73494E-2,7.494993E-2],"categories":[],"categories_nodes":[],"categories_segments":[],"categories_sizes":[],"default_left":[0,0,0,0,0],"id":62,"left_children":[1,3,-1,-1,-1],"loss_changes":[3.116104E0,6.2806387E0,0E0,0E0,0E0],"parents":[2147483647,0,0,1,1],"right_children":[2,4,-1,-1,-1],"split_conditions":[2.7654322E-2,2.7160494E-2,-7.871061E-2,-7.73494E-2,7.494993E-2],"split_indices":[15,15,0,0,0],"split_type":[0,0,0,0,0],"sum_hessian":[1.312782E1,9.85115E0,3.2766705E0,3.2543204E0,6.5968285E0],"tree_param":{"num_deleted":"0","num_feature":"48","num_nodes":"5","size_leaf_vector":"1"}},{"base_weights":[-7.47119E-2,-7.67766E-2,2.1480525E-1,6.892727E-1,-7.560593E-2,7.577195E-2,1.9579621E-2],"categories":[],"categories_nodes":[],"categories_segments":[],"categories_sizes":[],"default_left":[0,0,0,0,0,0,0],"id":63,"left_children":[1,-1,3,5,-1,-1,-1],"loss_changes":[2.807006E0,0E0,5.1593947E0,9.776473E-2,0E0,0E0,0E0],"parents":[2147483647,0,0,2,2,3,3],"right_children":[2,-1,4,6,-1,-1,-1],"split_conditions":[3.0195829E-2,-7.67766E-2,3.063241E-2,1.21285E-1,-7.560593E-2,7.577195E-2,1.9579621E-2],"split_indices":[16,0,16,0,0,0,0],"split_type":[0,0,0,0,0,0,0],"sum_hessian":[1.2167565E1,3.0984724E0,9.069093E0,6.286758E0,2.782335E0,5.0507336E0,1.2360246E0],"tree_param":{"num_deleted":"0","num_feature":"48","num_nodes":"7","size_leaf_vector":"1"}},{"base_weights":[-8.045787E-2,2.0601273E-1,-7.586419E-2,-7.485872E-2,7.267669E-2],"categories":[],"categories_nodes":[],"categories_segments":[],"categories_sizes":[],"default_left":[0,0,0,0,0],"id":64,"left_children":[1,3,-1,-1,-1],"loss_changes":[2.5396707E0,5.2224126E0,0E0,0E0,0E0],"parents":[2147483647,0,0,1,1],"right_children":[2,4,-1,-1,-1],"split_conditions":[2.7654322E-2,2.8688524E-2,-7.586419E-2,-7.485872E-2,7.267669E-2],"split_indices":[15,16,0,0,0],"split_type":[0,0,0,0,0],"sum_hessian":[1.12677765E1,8.411091E0,2.8566864E0,2.8144279E0,5.5966625E0],"tree_param":{"num_deleted":"0","num_feature":"48","num_nodes":"5","size_leaf_vector":"1"}},{"base_weights":[-5.652229E-2,-7.3664375E-2,2.2175588E-1,6.6414064E-1,-7.2322056E-2,7.267085E-2,2.1435285E-2],"categories":[],"categories_nodes":[],"categories_segments":[],"categories_sizes":[],"default_left":[0,0,0,0,0,0,0],"id":65,"left_children":[1,-1,3,5,-1,-1,-1],"loss_changes":[2.3996336E0,0E0,4.306905E0,3.4359694E-2,0E0,0E0,0E0],"parents":[2147483647,0,0,2,2,3,3],"right_children":[2,-1,4,6,-1,-1,-1],"split_conditions":[3.0195829E-2,-7.3664375E-2,3.063241E-2,1.21285E-1,-7.2322056E-2,7.267085E-2,2.1435285E-2],"split_indices":[16,0,16,0,0,0,0],"split_type":[0,0,0,0,0,0,0],"sum_hessian":[1.0815724E1,2.6621614E0,8.1535635E0,5.756079E0,2.397484E0,4.512673E0,1.243406E0],"tree_param":{"num_deleted":"0","num_feature":"48","num_nodes":"7","size_leaf_vector":"1"}},{"base_weights":[-5.24749E-2,-7.2612025E-2,2.3905542E-1,7.0836805E-2,-7.0399046E-2],"categories":[],"categories_nodes":[],"categories_segments":[],"categories_sizes":[],"default_left":[0,0,0,0,0],"id":66,"left_children":[1,-1,3,-1,-1],"loss_changes":[2.3337803E0,0E0,4.229453E0,0E0,0E0],"parents":[2147483647,0,0,2,2],"right_children":[2,-1,4,-1,-1],"split_conditions":[2.7160494E-2,-7.2612025E-2,2.7654322E-2,7.0836805E-2,-7.0399046E-2],"split_indices":[15,0,15,0,0],"split_type":[0,0,0,0,0],"sum_hessian":[9.999637E0,2.5701098E0,7.429527E0,5.1269298E0,2.3025973E0],"tree_param":{"num_deleted":"0","num_feature":"48","num_nodes":"5","size_leaf_vector":"1"}},{"base_weights":[-6.218134E-2,-7.1424715E-2,2.3083013E-1,6.926831E-2,-6.867843E-2],"categories":[],"categories_nodes":[],"categories_segments":[],"categories_sizes":[],"default_left":[0,0,0,0,0],"id":67,"left_children":[1,-1,3,-1,-1],"loss_changes":[2.1289628E0,0E0,3.8019125E0,0E0,0E0],"parents":[2147483647,0,0,2,2],"right_children":[2,-1,4,-1,-1],"split_conditions":[2.7160494E-2,-7.1424715E-2,2.7654322E-2,6.926831E-2,-6.867843E-2],"split_indices":[15,0,15,0,0],"split_type":[0,0,0,0,0],"sum_hessian":[9.279833E0,2.4314013E0,6.848432E0,4.7185974E0,2.1298342E0],"tree_param":{"num_deleted":"0","num_feature":"48","num_nodes":"5","size_leaf_vector":"1"}},{"base_weights":[-6.303052E-2,2.1101867E-1,-6.974649E-2,-6.877625E-2,6.798991E-1,7.762232E-2,1.6844174E-2],"categories":[],"categories_nodes":[],"categories_segments":[],"categories_sizes":[],"default_left":[0,0,0,0,0,0,0],"id":68,"left_children":[1,3,-1,-1,5,-1,-1],"loss_changes":[1.8967606E0,3.7525978E0,0E0,0E0,1.4639592E-1,0E0,0E0],"parents":[2147483647,0,0,1,1,4,4],"right_children":[2,4,-1,-1,6,-1,-1],"split_conditions":[9.6001977E-1,9.595262E-1,-6.974649E-2,-6.877625E-2,1.2871953E-4,7.762232E-2,1.6844174E-2],"split_indices":[17,17,0,0,1,0,0],"split_type":[0,0,0,0,0,0,0],"sum_hessian":[9.06281E0,6.7950306E0,2.2677794E0,2.1695242E0,4.6255064E0,3.4568076E0,1.1686989E0],"tree_param":{"num_deleted":"0","num_feature":"48","num_nodes":"7","size_leaf_vector":"1"}},{"base_weights":[-8.2813926E-2,1.8503937E-1,-6.838926E-2,-6.682926E-2,6.30177E-1,7.5674124E-2,1.1618628E-2],"categories":[],"categories_nodes":[],"categories_segments":[],"categories_sizes":[],"default_left":[0,0,0,0,0,0,0],"id":69,"left_children":[1,3,-1,-1,5,-1,-1],"loss_changes":[1.6514771E0,3.2088435E0,0E0,0E0,2.5931E-1,0E0,0E0],"parents":[2147483647,0,0,1,1,4,4],"right_children":[2,4,-1,-1,6,-1,-1],"split_conditions":[9.6001977E-1,9.595262E-1,-6.838926E-2,-6.682926E-2,1.2989395E-4,7.5674124E-2,1.1618628E-2],"split_indices":[17,17,0,0,1,0,0],"split_type":[0,0,0,0,0,0,0],"sum_hessian":[8.471562E0,6.3389482E0,2.1326141E0,2.0012403E0,4.3377075E0,3.1016717E0,1.2360358E0],"tree_param":{"num_deleted":"0","num_feature":"48","num_nodes":"7","size_leaf_vector":"1"}},{"base_weights":[-7.145897E-2,2.0173745E-1,-6.6395335E-2,-6.503964E-2,6.617395E-1,1.8658748E-2,7.384985E-2],"categories":[],"categories_nodes":[],"categories_segments":[],"categories_sizes":[],"default_left":[0,0,0,0,0,0,0],"id":70,"left_children":[1,3,-1,-1,5,-1,-1],"loss_changes":[1.5292972E0,3.0437016E0,0E0,0E0,3.8195133E-2,0E0,0E0],"parents":[2147483647,0,0,1,1,4,4],"right_children":[2,4,-1,-1,6,-1,-1],"split_conditions":[9.6001977E-1,9.595262E-1,-6.6395335E-2,-6.503964E-2,7.314937E-2,1.8658748E-2,7.384985E-2],"split_indices":[17,17,0,0,18,0,0],"split_type":[0,0,0,0,0,0,0],"sum_hessian":[7.6203504E0,5.666887E0,1.9534638E0,1.8415662E0,3.8253205E0,1.0091739E0,2.8161466E0],"tree_param":{"num_deleted":"0","num_feature":"48","num_nodes":"7","size_leaf_vector":"1"}},{"base_weights":[-8.617514E-2,1.773647E-1,-6.666302E-2,-6.556476E-2,6.372586E-2],"categories":[],"categories_nodes":[],"categories_segments":[],"categories_sizes":[],"default_left":[0,0,0,0,0],"id":71,"left_children":[1,3,-1,-1,-1],"loss_changes":[1.4177482E0,2.9586282E0,0E0,0E0,0E0],"parents":[2147483647,0,0,1,1],"right_children":[2,4,-1,-1,-1],"split_conditions":[2.7654322E-2,2.7160494E-2,-6.666302E-2,-6.556476E-2,6.372586E-2],"split_indices":[15,15,0,0,0],"split_type":[0,0,0,0,0],"sum_hessian":[7.4950366E0,5.6322875E0,1.862749E0,1.8520299E0,3.780258E0],"tree_param":{"num_deleted":"0","num_feature":"48","num_nodes":"5","size_leaf_vector":"1"}},{"base_weights":[-7.953547E-2,1.8129331E-1,-6.500428E-2,-6.430064E-2,6.340703E-2],"categories":[],"categories_nodes":[],"categories_segments":[],"categories_sizes":[],"default_left":[0,0,0,0,0],"id":72,"left_children":[1,3,-1,-1,-1],"loss_changes":[1.3146747E0,2.7595503E0,0E0,0E0,0E0],"parents":[2147483647,0,0,1,1],"right_children":[2,4,-1,-1,-1],"split_conditions":[2.7654322E-2,2.8688524E-2,-6.500428E-2,-6.430064E-2,6.340703E-2],"split_indices":[15,16,0,0,0],"split_type":[0,0,0,0,0],"sum_hessian":[7.0429296E0,5.3014145E0,1.7415154E0,1.7306159E0,3.5707984E0],"tree_param":{"num_deleted":"0","num_feature":"48","num_nodes":"5","size_leaf_vector":"1"}},{"base_weights":[-7.839002E-2,1.7583916E-1,-6.345254E-2,-6.246493E-2,6.0668614E-2],"categories":[],"categories_nodes":[],"categories_segments":[],"categories_sizes":[],"default_left":[0,0,0,0,0],"id":73,"left_children":[1,3,-1,-1,-1],"loss_changes":[1.2023444E0,2.4750376E0,0E0,0E0,0E0],"parents":[2147483647,0,0,1,1],"right_children":[2,4,-1,-1,-1],"split_conditions":[2.7654322E-2,2.8688524E-2,-6.345254E-2,-6.246493E-2,6.0668614E-2],"split_indices":[15,16,0,0,0],"split_type":[0,0,0,0,0],"sum_hessian":[6.7148476E0,5.0775423E0,1.6373049E0,1.6192513E0,3.4582913E0],"tree_param":{"num_deleted":"0","num_feature":"48","num_nodes":"5","size_leaf_vector":"1"}},{"base_weights":[-8.3720624E-2,-6.103906E-2,1.7575514E-1,5.9505034E-2,-5.971933E-2],"categories":[],"categories_nodes":[],"categories_segments":[],"categories_sizes":[],"default_left":[0,0,0,0,0],"id":74,"left_children":[1,-1,3,-1,-1],"loss_changes":[1.0696845E0,0E0,2.1360714E0,0E0,0E0],"parents":[2147483647,0,0,2,2],"right_children":[2,-1,4,-1,-1],"split_conditions":[2.7160494E-2,-6.103906E-2,2.7654322E-2,5.9505034E-2,-5.971933E-2],"split_indices":[15,0,15,0,0],"split_type":[0,0,0,0,0],"sum_hessian":[6.0424314E0,1.5479949E0,4.4944363E0,3.0630198E0,1.4314166E0],"tree_param":{"num_deleted":"0","num_feature":"48","num_nodes":"5","size_leaf_vector":"1"}},{"base_weights":[-9.680473E-2,-6.1905976E-2,1.6303998E-1,5.7370067E-2,-5.9993543E-2],"categories":[],"categories_nodes":[],"categories_segments":[],"categories_sizes":[],"default_left":[0,0,0,0,0],"id":75,"left_children":[1,-1,3,-1,-1],"loss_changes":[1.0659113E0,0E0,2.0799606E0,0E0,0E0],"parents":[2147483647,0,0,2,2],"right_children":[2,-1,4,-1,-1],"split_conditions":[3.0195829E-2,-6.1905976E-2,2.7654322E-2,5.7370067E-2,-5.9993543E-2],"split_indices":[16,0,15,0,0],"split_type":[0,0,0,0,0],"sum_hessian":[6.1108537E0,1.5709736E0,4.53988E0,3.112627E0,1.427253E0],"tree_param":{"num_deleted":"0","num_feature":"48","num_nodes":"5","size_leaf_vector":"1"}},{"base_weights":[-8.88135E-2,-5.9421774E-2,1.7203566E-1,6.0646493E-2,-5.805407E-2],"categories":[],"categories_nodes":[],"categories_segments":[],"categories_sizes":[],"default_left":[0,0,0,0,0],"id":76,"left_children":[1,-1,3,-1,-1],"loss_changes":[9.637851E-1,0E0,2.01488E0,0E0,0E0],"parents":[2147483647,0,0,2,2],"right_children":[2,-1,4,-1,-1],"split_conditions":[9.595262E-1,-5.9421774E-2,9.6001977E-1,6.0646493E-2,-5.805407E-2],"split_indices":[17,0,17,0,0],"split_type":[0,0,0,0,0],"sum_hessian":[5.535164E0,1.449226E0,4.0859375E0,2.713628E0,1.3723097E0],"tree_param":{"num_deleted":"0","num_feature":"48","num_nodes":"5","size_leaf_vector":"1"}},{"base_weights":[-1.0515552E-1,-5.8912374E-2,1.542079E-1,5.458047E-2,-5.604821E-2],"categories":[],"categories_nodes":[],"categories_segments":[],"categories_sizes":[],"default_left":[0,0,0,0,0],"id":77,"left_children":[1,-1,3,-1,-1],"loss_changes":[8.817469E-1,0E0,1.675842E0,0E0,0E0],"parents":[2147483647,0,0,2,2],"right_children":[2,-1,4,-1,-1],"split_conditions":[2.7160494E-2,-5.8912374E-2,2.7654322E-2,5.458047E-2,-5.604821E-2],"split_indices":[15,0,15,0,0],"split_type":[0,0,0,0,0],"sum_hessian":[5.3007994E0,1.4059311E0,3.8948681E0,2.6688454E0,1.2260226E0],"tree_param":{"num_deleted":"0","num_feature":"48","num_nodes":"5","size_leaf_vector":"1"}}]},"name":"gbtree"},"learner_model_param":{"base_score":"5.701709E-1","boost_from_average":"1","num_class":"0","num_feature":"48","num_target":"1"},"objective":{"name":"binary:logistic","reg_loss_param":{"scale_pos_weight":"30"}}},"version":[2,1,1]}