{"learner":{"attributes":{"best_iteration":"35","best_score":"0.11259561412955785"},"feature_names":["gla_diff","gla_pct_diff","room_count_diff","room_count_pct_diff","bedrooms_diff","bedrooms_pct_diff","full_baths_diff","full_baths_pct_diff","half_baths_diff","half_baths_pct_diff","gla","room_count","bedrooms","full_baths","half_baths","gla_per_room_count","room_count_per_gla","gla_x_room_count","gla_per_bedrooms","bedrooms_per_gla","gla_x_bedrooms","gla_per_full_baths","full_baths_per_gla","gla_x_full_baths","gla_per_half_baths","half_baths_per_gla","gla_x_half_baths","room_count_per_bedrooms","bedrooms_per_room_count","room_count_x_bedrooms","room_count_per_full_baths","full_baths_per_room_count","room_count_x_full_baths","room_count_per_half_baths","half_baths_per_room_count","room_count_x_half_baths","bedrooms_per_full_baths","full_baths_per_bedrooms","bedrooms_x_full_baths","bedrooms_per_half_baths","half_baths_per_bedrooms","bedrooms_x_half_baths","full_baths_per_half_baths","half_baths_per_full_baths","full_baths_x_half_baths"],"feature_types":["float","float","float","float","float","float","float","float","float","float","float","float","float","float","float","float","float","float","float","float","float","float","float","float","float","float","float","float","float","float","float","float","float","float","float","float","float","float","float","float","float","float","float","float","float"],"gradient_booster":{"model":{"gbtree_model_param":{"num_parallel_tree":"1","num_trees":"86"},"iteration_indptr":[0,1,2,3,4,5,6,7,8,9,10,11,12,13,14,15,16,17,18,19,20,21,22,23,24,25,26,27,28,29,30,31,32,33,34,35,36,37,38,39,40,41,42,43,44,45,46,47,48,49,50,51,52,53,54,55,56,57,58,59,60,61,62,63,64,65,66,67,68,69,70,71,72,73,74,75,76,77,78,79,80,81,82,83,84,85,86],"tree_info":[0,0,0,0,0,0,0,0,0,0,0,0,0,0,0,0,0,0,0,0,0,0,0,0,0,0,0,0,0,0,0,0,0,0,0,0,0,0,0,0,0,0,0,0,0,0,0,0,0,0,0,0,0,0,0,0,0,0,0,0,0,0,0,0,0,0,0,0,0,0,0,0,0,0,0,0,0,0,0,0,0,0,0,0,0,0],"trees":[{"base_weights":[-3.210512E-2,-1.2616011E0,6.3438576E-1,-3.7990157E-2,-1.4579199E-1,1.635189E0,-7.3299444E-1,1.6881824E0,-1.416891E-1,2.314821E0,3.072368E-1,-9.85675E-1,2.784953E0,2.7423832E-1,2.9127803E-1,2.475346E0,3.5383466E-1,1.8090843E0,-5.8898944E-1,2.0816985E-1,-1.2154136E0,3.0093652E-1,-7.594399E-2,-1.187434E-1,1.248722E0,-1.1758085E-1,2.5374496E0,-1.3574347E-1,2.741848E-1,-1.187434E-1,2.0855694E0,-9.594844E-1,2.0492218E0,-1.3968243E-1,1.5140322E0,-4.9152732E-1,-1.3586321E0,2.0063002E-1,-9.263926E-2,2.5709292E-1,-9.9964544E-2,2.275093E-1,-1.05527475E-1,-1.0704436E-1,2.1632841E-1,-9.263926E-2,2.6516852E-1,2.1745889E-1,-1.2172603E-1,-1.3913637E-1,3.3680387E-2,-1.4059626E-1,1.2396745E-1],"categories":[],"categories_nodes":[],"categories_segments":[],"categories_sizes":[],"default_left":[0,0,0,0,0,0,0,0,0,0,0,0,0,0,0,0,0,0,0,0,0,0,0,0,0,0,0,0,0,0,0,0,0,0,0,0,0,0,0,0,0,0,0,0,0,0,0,0,0,0,0,0,0],"id":0,"left_children":[1,3,5,7,-1,9,11,13,-1,15,17,19,21,-1,23,25,27,29,31,33,35,-1,-1,-1,37,-1,39,-1,-1,-1,41,43,45,-1,47,49,51,-1,-1,-1,-1,-1,-1,-1,-1,-1,-1,-1,-1,-1,-1,-1,-1],"loss_changes":[9.4716095E2,9.7546326E1,1.0269705E3,1.3854599E2,0E0,3.9017773E2,2.8494238E2,3.7281166E1,0E0,8.925879E1,1.9996913E2,8.169177E1,1.9414825E1,0E0,1.881261E1,6.295923E1,9.7027336E1,4.843544E1,9.31631E1,1.04336E2,2.5163025E1,0E0,0E0,0E0,1.490474E1,0E0,3.3406006E1,0E0,0E0,0E0,3.284848E1,3.0899605E1,2.3624912E1,0E0,5.2030586E1,3.2310036E1,2.7253082E1,0E0,0E0,0E0,0E0,0E0,0E0,0E0,0E0,0E0,0E0,0E0,0E0,0E0,0E0,0E0,0E0],"parents":[2147483647,0,0,1,1,2,2,3,3,5,5,6,6,7,7,9,9,10,10,11,11,12,12,14,14,15,15,16,16,17,17,18,18,19,19,20,20,24,24,26,26,30,30,31,31,32,32,34,34,35,35,36,36],"right_children":[2,4,6,8,-1,10,12,14,-1,16,18,20,22,-1,24,26,28,30,32,34,36,-1,-1,-1,38,-1,40,-1,-1,-1,42,44,46,-1,48,50,52,-1,-1,-1,-1,-1,-1,-1,-1,-1,-1,-1,-1,-1,-1,-1,-1],"split_conditions":[8.3333336E-2,8.3333336E-2,5.7142857E-2,8.3333336E-2,-1.4579199E-1,2.99703E-4,1.0416667E-3,2.8689228E-2,-1.416891E-1,1.5615873E-1,2.4566226E-2,7.5E-2,7.5E-2,2.7423832E-1,3.4E-1,1.7966223E-1,7.170569E-1,4.4117647E-4,3.3333334E-1,2.6877472E-1,2.4566226E-2,3.0093652E-1,-7.594399E-2,-1.187434E-1,4.624506E-2,-1.1758085E-1,1.4285715E-1,-1.3574347E-1,2.741848E-1,-1.187434E-1,2.5E-1,7.777778E-1,1.3304473E-1,-1.3968243E-1,1.36E-1,6.732735E-2,5.18847E-1,2.0063002E-1,-9.263926E-2,2.5709292E-1,-9.9964544E-2,2.275093E-1,-1.05527475E-1,-1.0704436E-1,2.1632841E-1,-9.263926E-2,2.6516852E-1,2.1745889E-1,-1.2172603E-1,-1.3913637E-1,3.3680387E-2,-1.4059626E-1,1.2396745E-1],"split_indices":[31,7,3,3,0,16,22,0,0,0,0,3,5,0,33,21,24,19,36,21,0,0,0,0,17,0,5,0,0,0,4,12,10,0,32,15,18,0,0,0,0,0,0,0,0,0,0,0,0,0,0,0,0],"split_type":[0,0,0,0,0,0,0,0,0,0,0,0,0,0,0,0,0,0,0,0,0,0,0,0,0,0,0,0,0,0,0,0,0,0,0,0,0,0,0,0,0,0,0,0,0,0,0,0,0,0,0,0,0],"sum_hessian":[1.1538759E3,4.0530484E2,7.4857104E2,5.620227E1,3.4910257E2,4.32109E2,3.16462E2,2.4858698E1,3.1343575E1,2.8533463E2,1.467744E2,2.9592657E2,2.0535446E1,1.3618243E1,1.1240454E1,2.635022E2,2.183242E1,5.4472973E1,9.230142E1,4.777193E1,2.4815463E2,1.9454632E1,1.0808129E0,4.3232517E0,6.9172025E0,4.107089E0,2.593951E2,1.2969754E1,8.862666E0,4.3232517E0,5.014972E1,8.149329E1,1.0808129E1,2.1400095E1,2.6371836E1,4.171938E1,2.0643526E2,5.187902E0,1.7293006E0,2.572335E2,2.1616259E0,4.7555767E1,2.593951E0,7.9331665E1,2.1616259E0,1.7293006E0,9.078829E0,2.1400095E1,4.9717393E0,1.9670795E1,2.2048584E1,2.0319283E2,3.2424388E0],"tree_param":{"num_deleted":"0","num_feature":"45","num_nodes":"53","size_leaf_vector":"1"}},{"base_weights":[-7.852106E-2,8.0265546E-1,-8.605663E-1,1.5126531E0,-8.038746E-1,2.5253334E0,-9.760767E-1,2.0391552E0,4.7379665E-2,-9.625864E-1,2.5014013E-1,-7.176945E-2,2.739332E-1,-1.2719182E0,8.508788E-3,2.1438947E0,-1.27123E-1,-7.1746284E-1,1.8050671E0,-1.8860681E-1,-1.2242869E0,-8.2964325E-1,-1.397839E-1,-8.601602E-1,9.8877686E-1,-1.2384291E-1,2.2066255E0,-1.1002052E0,2.2815712E-1,-9.9492356E-2,2.0360556E0,8.086555E-1,-1.3388552E-1,-1.3064181E0,8.4051096E-1,3.0223644E-1,-1.3858108E-1,1.6254301E0,-1.2398758E0,-1.3560218E-1,1.7211987E0,2.2343968E-1,-9.737491E-2,-1.249177E-1,1.9327371E-1,-8.867353E-2,2.2162464E-1,1.512395E-1,-1.1973099E-1,-1.3930091E-1,1.8721087E-2,2.3454683E-1,-9.406481E-2,1.4380023E-1,-7.91057E-2,-7.937961E-2,2.0166111E-1,-1.391058E-1,1.5274797E-1,2.1210074E-1,-1.1955625E-1],"categories":[],"categories_nodes":[],"categories_segments":[],"categories_sizes":[],"default_left":[0,0,0,0,0,0,0,0,0,0,0,0,0,0,0,0,0,0,0,0,0,0,0,0,0,0,0,0,0,0,0,0,0,0,0,0,0,0,0,0,0,0,0,0,0,0,0,0,0,0,0,0,0,0,0,0,0,0,0,0,0],"id":1,"left_children":[1,3,5,7,9,11,13,15,17,19,-1,-1,-1,21,23,25,-1,27,29,31,33,35,-1,37,39,-1,41,43,-1,-1,45,47,-1,49,51,53,-1,55,57,-1,59,-1,-1,-1,-1,-1,-1,-1,-1,-1,-1,-1,-1,-1,-1,-1,-1,-1,-1,-1,-1],"loss_changes":[7.793295E2,6.0780066E2,2.3677939E2,2.846933E2,8.82535E1,1.5875954E1,1.6897235E2,9.687842E1,1.3385484E2,3.1543E1,0E0,0E0,0E0,2.3681335E1,1.1582084E2,5.866028E1,0E0,8.2197845E1,2.154631E1,4.79078E1,2.0947632E1,6.419559E1,0E0,7.008126E1,1.1207251E2,0E0,2.506482E1,3.053601E1,0E0,0E0,1.682228E1,3.3556137E1,0E0,1.4870758E1,1.58401985E1,4.3604897E1,0E0,1.1054764E1,2.8535912E1,0E0,5.982924E1,0E0,0E0,0E0,0E0,0E0,0E0,0E0,0E0,0E0,0E0,0E0,0E0,0E0,0E0,0E0,0E0,0E0,0E0,0E0,0E0],"parents":[2147483647,0,0,1,1,2,2,3,3,4,4,5,5,6,6,7,7,8,8,9,9,13,13,14,14,15,15,17,17,18,18,19,19,20,20,21,21,23,23,24,24,26,26,27,27,30,30,31,31,33,33,34,34,35,35,37,37,38,38,40,40],"right_children":[2,4,6,8,10,12,14,16,18,20,-1,-1,-1,22,24,26,-1,28,30,32,34,36,-1,38,40,-1,42,44,-1,-1,46,48,-1,50,52,54,-1,56,58,-1,60,-1,-1,-1,-1,-1,-1,-1,-1,-1,-1,-1,-1,-1,-1,-1,-1,-1,-1,-1,-1],"split_conditions":[1.6666667E-1,6.666667E-2,9.549048E-2,1.0472128E-4,1.7857143E-3,1.2386969E-3,2.7650017E-1,5E-1,3.3345312E-1,8.3333336E-2,2.5014013E-1,-7.176945E-2,2.739332E-1,8.3333336E-2,6.481481E-2,1.5684798E-2,-1.27123E-1,1.3774105E-3,7.2916664E-2,1.0958895E-4,7.058824E-1,4.4444446E-2,-1.397839E-1,9.2714645E-6,2.0589167E-1,-1.2384291E-1,1.4285715E-1,4.3137255E-1,2.2815712E-1,-9.9492356E-2,1.1087411E-4,1.25E-1,-1.3388552E-1,4E-1,3E-1,8.7452994E-5,-1.3858108E-1,1.25E-1,5.18847E-1,-1.3560218E-1,7.5E-2,2.2343968E-1,-9.737491E-2,-1.249177E-1,1.9327371E-1,-8.867353E-2,2.2162464E-1,1.512395E-1,-1.1973099E-1,-1.3930091E-1,1.8721087E-2,2.3454683E-1,-9.406481E-2,1.4380023E-1,-7.91057E-2,-7.937961E-2,2.0166111E-1,-1.391058E-1,1.5274797E-1,2.1210074E-1,-1.1955625E-1],"split_indices":[7,3,21,1,19,19,21,4,21,3,0,0,0,43,28,17,0,19,29,1,30,3,0,1,18,0,5,30,0,0,1,40,0,5,2,1,0,4,18,0,3,0,0,0,0,0,0,0,0,0,0,0,0,0,0,0,0,0,0,0,0],"split_type":[0,0,0,0,0,0,0,0,0,0,0,0,0,0,0,0,0,0,0,0,0,0,0,0,0,0,0,0,0,0,0,0,0,0,0,0,0,0,0,0,0,0,0,0,0,0,0,0,0,0,0,0,0,0,0,0,0,0,0,0,0],"sum_hessian":[1.1289032E3,5.307968E2,5.981064E2,3.6815228E2,1.6264453E2,1.9043093E1,5.790633E2,2.7054745E2,9.7604805E1,1.5586885E2,6.775695E0,1.0331124E0,1.8009981E1,4.4504688E2,1.3401643E2,2.6259152E2,7.955929E0,6.842296E1,2.9181847E1,3.982046E1,1.16048386E2,1.0031098E2,3.447359E2,7.111769E1,6.2898735E1,4.4402328E0,2.581513E2,6.1240482E1,7.182479E0,1.9718839E0,2.7209963E1,2.1487675E1,1.8332787E1,1.1196217E2,4.0862117E0,3.3200283E1,6.71107E1,8.989889E0,6.2127804E1,1.4768136E1,4.81306E1,2.562115E2,1.9398247E0,5.8933903E1,2.306581E0,1.3523891E0,2.5857574E1,1.6089245E1,5.398431E0,1.0589067E2,6.071498E0,2.0431058E0,2.0431058E0,1.61292E1,1.7071083E1,1.1080458E0,7.8818436E0,5.938111E1,2.7466915E0,4.2568447E1,5.5621557E0],"tree_param":{"num_deleted":"0","num_feature":"45","num_nodes":"61","size_leaf_vector":"1"}},{"base_weights":[-1.7794915E-2,-1.2272924E0,4.615164E-1,2.3773165E-1,-1.2865659E0,1.1743363E0,-6.081674E-1,-1.3145621E0,7.76938E-1,1.6817311E0,2.1121098E-1,-8.752736E-1,2.1442285E0,-1.3438886E-1,9.158001E-2,1.6451135E-1,-8.041852E-2,1.9291383E0,9.8110044E-1,1.3913602E0,-4.9135104E-1,3.5253286E-2,-1.2116559E0,2.2541419E-1,1.0514184E0,-1.0569044E-1,1.4244549E-1,-1.04928456E-1,1.9644439E0,-9.5367247E-1,1.619149E0,-1.1873257E-1,1.6404831E0,1.6533577E-1,-1.166861E0,-5.618367E-1,1.5575691E0,-1.3445383E-1,-7.914104E-1,1.9751276E-1,-7.795256E-2,1.9936098E-1,-1.05065346E-1,7.938125E-2,-1.4034927E-1,2.0498906E-1,5.232647E-2,-1.0470127E-1,1.7676793E-1,9.013319E-2,-8.854492E-2,1.326283E-1,-1.3560067E-1,-1.2046898E-2,-1.311181E-1,2.0944421E-1,-1.0738444E-1,8.652776E-2,-1.1075195E-1],"categories":[],"categories_nodes":[],"categories_segments":[],"categories_sizes":[],"default_left":[0,0,0,0,0,0,0,0,0,0,0,0,0,0,0,0,0,0,0,0,0,0,0,0,0,0,0,0,0,0,0,0,0,0,0,0,0,0,0,0,0,0,0,0,0,0,0,0,0,0,0,0,0,0,0,0,0,0,0],"id":2,"left_children":[1,3,5,-1,7,9,11,13,15,17,19,21,23,-1,25,-1,-1,27,29,31,33,35,37,-1,39,-1,-1,-1,41,43,45,-1,47,49,51,53,55,-1,57,-1,-1,-1,-1,-1,-1,-1,-1,-1,-1,-1,-1,-1,-1,-1,-1,-1,-1,-1,-1],"loss_changes":[6.520783E2,7.126529E1,6.149729E2,0E0,1.9202698E1,2.3606049E2,2.3920401E2,1.2942749E1,7.9685183E0,5.3006287E1,1.4003442E2,9.038707E1,1.0947876E0,0E0,1.2660932E1,0E0,0E0,2.6564941E1,1.06087326E2,4.2405777E1,4.7254555E1,7.408828E1,1.0965759E1,0E0,9.167854E0,0E0,0E0,0E0,2.237677E1,1.8117327E1,2.9164062E1,0E0,2.1626205E1,4.3078957E1,2.6517952E1,1.9219616E1,3.4681217E1,0E0,2.9333828E1,0E0,0E0,0E0,0E0,0E0,0E0,0E0,0E0,0E0,0E0,0E0,0E0,0E0,0E0,0E0,0E0,0E0,0E0,0E0,0E0],"parents":[2147483647,0,0,1,1,2,2,4,4,5,5,6,6,7,7,8,8,9,9,10,10,11,11,12,12,14,14,17,17,18,18,19,19,20,20,21,21,22,22,24,24,28,28,29,29,30,30,32,32,33,33,34,34,35,35,36,36,38,38],"right_children":[2,4,6,-1,8,10,12,14,16,18,20,22,24,-1,26,-1,-1,28,30,32,34,36,38,-1,40,-1,-1,-1,42,44,46,-1,48,50,52,54,56,-1,58,-1,-1,-1,-1,-1,-1,-1,-1,-1,-1,-1,-1,-1,-1,-1,-1,-1,-1,-1,-1],"split_conditions":[7.1428575E-2,9.549048E-2,5.7142857E-2,2.3773165E-1,6.108516E-1,2.99703E-4,1.0416667E-3,1.2285012E-3,2.5768768E-2,7.266793E-2,2.490981E-2,8.3333336E-2,3.6075037E-2,-1.3438886E-1,1.7369008E-1,1.6451135E-1,-8.041852E-2,3.973064E-2,2.9895797E-1,4.4117647E-4,2.1428572E-1,2E-1,2.7494457E-1,2.2541419E-1,1.25E-1,-1.0569044E-1,1.4244549E-1,-1.04928456E-1,4.2307693E-1,8.8830486E-2,4.2698547E-4,-1.1873257E-1,1.923077E-1,2.5E-1,1.5684798E-2,1.0651091E-1,1.36E-1,-1.3445383E-1,2.2848308E-2,1.9751276E-1,-7.795256E-2,1.9936098E-1,-1.05065346E-1,7.938125E-2,-1.4034927E-1,2.0498906E-1,5.232647E-2,-1.0470127E-1,1.7676793E-1,9.013319E-2,-8.854492E-2,1.326283E-1,-1.3560067E-1,-1.2046898E-2,-1.311181E-1,2.0944421E-1,-1.0738444E-1,8.652776E-2,-1.1075195E-1],"split_indices":[31,21,3,0,21,16,22,25,0,0,0,3,10,0,24,0,0,20,21,19,27,2,18,0,4,0,0,0,11,15,25,0,11,6,17,0,32,0,0,0,0,0,0,0,0,0,0,0,0,0,0,0,0,0,0,0,0,0,0],"split_type":[0,0,0,0,0,0,0,0,0,0,0,0,0,0,0,0,0,0,0,0,0,0,0,0,0,0,0,0,0,0,0,0,0,0,0,0,0,0,0,0,0,0,0,0,0,0,0,0,0,0,0,0,0,0,0,0,0,0,0],"sum_hessian":[1.1228275E3,3.1823373E2,8.045938E2,4.5156407E0,3.137181E2,4.8277954E2,3.2181427E2,3.0987686E2,3.8412461E0,3.1571048E2,1.6706908E2,2.9396814E2,2.784613E1,3.0358948E2,6.28738E0,2.4535568E0,1.3876895E0,2.3202438E2,8.368608E1,6.1978485E1,1.0509059E2,7.9546135E1,2.14422E2,2.433577E1,3.5103617E0,3.4885156E0,2.7988644E0,2.3816955E0,2.296427E2,2.063111E1,6.3054974E1,5.128373E0,5.6850113E1,5.3670692E1,5.1419903E1,5.758917E1,2.1956966E1,1.6123862E2,5.318338E1,2.2809012E0,1.2294604E0,2.2777812E2,1.8645644E0,4.0669346E0,1.6564175E1,4.4638935E1,1.8416042E1,2.2422678E0,5.4607845E1,3.1646746E1,2.2023945E1,3.2020054E0,4.8217896E1,3.6972775E1,2.0616392E1,1.8405794E1,3.5511725E0,8.243414E0,4.493997E1],"tree_param":{"num_deleted":"0","num_feature":"45","num_nodes":"59","size_leaf_vector":"1"}},{"base_weights":[-3.3090776E-3,-1.1549762E0,4.340652E-1,-1.2085056E0,1.0788313E0,9.980223E-1,-7.337681E-1,-1.2705016E0,8.901227E-1,1.656855E-1,-7.942342E-2,1.3009526E0,-5.5760956E-1,-9.907419E-1,1.7976567E0,-1.3004248E-1,1.3251281E-1,2.1139649E-1,-1.0062172E-1,1.0189364E-1,1.5590651E0,-9.804847E-1,1.4109418E0,-1.0620154E0,1.1854848E0,1.8881644E-1,9.253372E-2,-1.01579905E-1,1.4439206E-1,7.384129E-1,-1.404783E-1,1.8816968E0,9.635072E-1,-1.3363235E-1,1.8628281E-1,1.97408E-1,-1.07580595E-1,-1.1012149E0,1.4296357E-1,2.0786142E-1,-9.1452494E-2,1.0812725E-1,-1.2122269E-1,1.8958883E-1,-7.2665885E-2,1.6145694E-1,-9.4316285E-3,-3.5537194E-2,-1.2522157E-1],"categories":[],"categories_nodes":[],"categories_segments":[],"categories_sizes":[],"default_left":[0,0,0,0,0,0,0,0,0,0,0,0,0,0,0,0,0,0,0,0,0,0,0,0,0,0,0,0,0,0,0,0,0,0,0,0,0,0,0,0,0,0,0,0,0,0,0,0,0],"id":3,"left_children":[1,3,5,7,9,11,13,15,17,-1,-1,19,21,23,25,-1,27,-1,-1,29,31,33,35,37,39,-1,-1,-1,-1,41,-1,43,45,-1,-1,-1,-1,47,-1,-1,-1,-1,-1,-1,-1,-1,-1,-1,-1],"loss_changes":[5.590688E2,3.7833008E1,5.30526E2,4.000879E1,9.628347E0,2.5655682E2,1.725617E2,1.2374756E1,2.3390724E1,0E0,0E0,1.405658E2,7.5625626E1,3.8327118E1,1.9106293E-1,0E0,1.1973558E1,0E0,0E0,7.9304924E1,7.006586E1,7.7364174E1,2.4782703E1,2.4227509E1,1.7001753E1,0E0,0E0,0E0,0E0,4.0120014E1,0E0,1.03203125E1,9.209107E1,0E0,0E0,0E0,0E0,2.53349E1,0E0,0E0,0E0,0E0,0E0,0E0,0E0,0E0,0E0,0E0,0E0],"parents":[2147483647,0,0,1,1,2,2,3,3,4,4,5,5,6,6,7,7,8,8,11,11,12,12,13,13,14,14,16,16,19,19,20,20,21,21,22,22,23,23,24,24,29,29,31,31,32,32,37,37],"right_children":[2,4,6,8,10,12,14,16,18,-1,-1,20,22,24,26,-1,28,-1,-1,30,32,34,36,38,40,-1,-1,-1,-1,42,-1,44,46,-1,-1,-1,-1,48,-1,-1,-1,-1,-1,-1,-1,-1,-1,-1,-1],"split_conditions":[7.1428575E-2,6.108516E-1,7.5E-2,7.058824E-1,2.5768768E-2,1.5017051E-4,1.0416667E-3,1.2285012E-3,1.6666667E-1,1.656855E-1,-7.942342E-2,6.140351E-2,1.3140604E-1,3.75E-1,6.140351E-2,-1.3004248E-1,1.7369008E-1,2.1139649E-1,-1.0062172E-1,3.3613446E-4,4.3177893E-4,1.3774105E-3,3.3333334E-1,5.689903E-1,8.3333336E-2,1.8881644E-1,9.253372E-2,-1.01579905E-1,1.4439206E-1,5.9955332E-2,-1.404783E-1,1.8020959E-1,2.2222223E-2,-1.3363235E-1,1.8628281E-1,1.97408E-1,-1.07580595E-1,2.4566226E-2,1.4296357E-1,2.0786142E-1,-9.1452494E-2,1.0812725E-1,-1.2122269E-1,1.8958883E-1,-7.2665885E-2,1.6145694E-1,-9.4316285E-3,-3.5537194E-2,-1.2522157E-1],"split_indices":[31,21,3,30,0,1,22,25,41,0,0,28,15,37,28,0,24,0,0,25,22,19,8,21,3,0,0,0,0,0,0,0,3,0,0,0,0,0,0,0,0,0,0,0,0,0,0,0,0],"split_type":[0,0,0,0,0,0,0,0,0,0,0,0,0,0,0,0,0,0,0,0,0,0,0,0,0,0,0,0,0,0,0,0,0,0,0,0,0,0,0,0,0,0,0,0,0,0,0,0,0],"sum_hessian":[1.1079078E3,3.044935E2,8.034143E2,2.9781583E2,6.677659E0,5.418807E2,2.615336E2,2.8965372E2,8.162111E0,5.191122E0,1.4865367E0,4.5369565E2,8.818504E1,2.3798367E2,2.3549932E1,2.8367664E2,5.977083E0,4.8909044E0,3.2712066E0,8.0611336E1,3.7308432E2,7.300448E1,1.5180559E1,2.309324E2,7.0512705E0,2.0281124E1,3.2688081E0,3.3068817E0,2.6702018E0,5.7028606E1,2.3582727E1,2.4058992E2,1.324944E2,6.5355316E1,7.649163E0,1.2545679E1,2.6348803E0,2.2790497E2,3.0274389E0,4.9543743E0,2.0968964E0,4.888235E1,8.146257E0,2.395597E2,1.0302272E0,8.169004E1,5.0804363E1,3.893674E1,1.8896823E2],"tree_param":{"num_deleted":"0","num_feature":"45","num_nodes":"49","size_leaf_vector":"1"}},{"base_weights":[7.881134E-4,-1.2616338E-1,3.5808748E-1,1.0827881E0,-4.3858227E-1,1.2919347E0,-5.3012586E-1,3.6099058E-1,-9.720837E-1,-3.2768118E-1,1.4348551E0,5.4536945E-1,-1.272829E-1,-2.3086298E-1,1.2083873E0,1.6858958E-1,-1.0686088E0,1.6627368E-1,-1.2710325E-1,1.4899762E0,-5.040091E-1,-1.160595E-1,1.3010212E0,4.4445357E-1,-1.2603514E-1,2.9637983E-1,1.5937083E0,4.3764347E-1,-1.1341379E0,9.6895665E-2,1.6717575E-1,-1.2386054E-1,1.3651045E-1,1.7160885E-1,-9.0891145E-2,6.917914E-2,-1.287085E-1,-1.17244415E-1,1.01254E-1,1.7357512E-1,3.1178338E-2,-1.0824962E-1,1.4047684E-1,-4.452062E-2,-1.2402793E-1],"categories":[],"categories_nodes":[],"categories_segments":[],"categories_sizes":[],"default_left":[0,0,0,0,0,0,0,0,0,0,0,0,0,0,0,0,0,0,0,0,0,0,0,0,0,0,0,0,0,0,0,0,0,0,0,0,0,0,0,0,0,0,0,0,0],"id":4,"left_children":[1,-1,3,5,7,9,11,13,15,17,19,21,-1,23,25,-1,27,-1,-1,29,31,-1,33,35,-1,37,39,41,43,-1,-1,-1,-1,-1,-1,-1,-1,-1,-1,-1,-1,-1,-1,-1,-1],"loss_changes":[4.8826514E2,0E0,4.8757614E2,1.4981696E2,1.7208954E2,9.1124084E1,4.1794662E1,8.145312E1,6.3825134E1,6.3270462E1,3.923169E1,2.9507397E1,0E0,6.739542E1,2.2973251E1,0E0,2.3582062E1,0E0,0E0,3.1563599E1,1.6383343E1,0E0,1.57984295E1,2.6069588E1,0E0,2.3323935E1,7.957466E0,1.691719E1,1.5858124E1,0E0,0E0,0E0,0E0,0E0,0E0,0E0,0E0,0E0,0E0,0E0,0E0,0E0,0E0,0E0,0E0],"parents":[2147483647,0,0,2,2,3,3,4,4,5,5,6,6,7,7,8,8,9,9,10,10,11,11,13,13,14,14,16,16,19,19,20,20,22,22,23,23,25,25,26,26,27,27,28,28],"right_children":[2,-1,4,6,8,10,12,14,16,18,20,22,-1,24,26,-1,28,-1,-1,30,32,-1,34,36,-1,38,40,42,44,-1,-1,-1,-1,-1,-1,-1,-1,-1,-1,-1,-1,-1,-1,-1,-1],"split_conditions":[2.7777778E-2,-1.2616338E-1,2.9411764E-4,1.6491803E-4,4.799548E-2,1.1666667E-1,1.788726E-4,9.375E-2,1.5E-1,1.7179179E-4,4.2307693E-1,1E-1,-1.272829E-1,1.3964373E-4,5.295208E-4,1.6858958E-1,4.0625628E-6,1.6627368E-1,-1.2710325E-1,2.75003E-1,1.4229397E-1,-1.160595E-1,1.9565217E-1,3.7417654E-2,-1.2603514E-1,1.4974132E-1,4.4795785E-2,1.4285715E-1,3.196931E-4,9.6895665E-2,1.6717575E-1,-1.2386054E-1,1.3651045E-1,1.7160885E-1,-9.0891145E-2,6.917914E-2,-1.287085E-1,-1.17244415E-1,1.01254E-1,1.7357512E-1,3.1178338E-2,-1.0824962E-1,1.4047684E-1,-4.452062E-2,-1.2402793E-1],"split_indices":[38,0,16,1,17,27,16,29,27,0,11,40,0,1,22,0,1,0,0,21,15,0,34,17,0,18,17,40,16,0,0,0,0,0,0,0,0,0,0,0,0,0,0,0,0],"split_type":[0,0,0,0,0,0,0,0,0,0,0,0,0,0,0,0,0,0,0,0,0,0,0,0,0,0,0,0,0,0,0,0,0,0,0,0,0,0,0,0,0,0,0,0,0],"sum_hessian":[1.0804761E3,2.3778725E2,8.426888E2,4.410882E2,4.0160056E2,3.9063373E2,5.04545E1,1.6085149E2,2.4074907E2,3.1570833E1,3.5906287E2,2.0718338E1,2.973616E1,9.513394E1,6.5717545E1,7.859473E0,2.328896E2,9.90637E0,2.1664463E1,3.4936218E2,9.70069E0,6.195485E0,1.4522852E1,5.7792137E1,3.7341805E1,2.004431E1,4.5673233E1,9.472658E0,2.2341695E2,9.2000885E1,2.573613E2,7.2059493E0,2.4947414E0,1.2414618E1,2.1082346E0,5.1094177E1,6.697959E0,6.360985E0,1.3683324E1,4.0798557E1,4.8746767E0,3.6368756E0,5.835782E0,3.051936E1,1.9289758E2],"tree_param":{"num_deleted":"0","num_feature":"45","num_nodes":"45","size_leaf_vector":"1"}},{"base_weights":[-4.774835E-2,5.8017784E-1,-6.8605465E-1,-5.638229E-1,9.898026E-1,9.884928E-1,-9.189879E-1,4.4234267E-1,-9.9764806E-1,1.1317184E0,-9.528036E-1,-1.0931126E-1,1.3027259E0,-1.1540339E0,-1.9005902E-1,-7.7119607E-1,1.0921403E0,-1.0758623E0,1.3676669E-1,1.4506639E0,4.9562588E-1,-1.2273884E-1,7.547542E-2,1.7306888E0,5.596266E-1,-1.1990808E0,1.5662026E-1,-1.2665628E-1,6.256234E-1,-1.3139871E-1,1.2931769E-1,1.4386019E0,-1.0106414E-1,-1.1743618E0,8.871752E-1,1.5014151E0,-1.1028951E-1,2.0060545E-1,1.4304023E0,1.9260529E-1,1.3176267E0,-1.2327526E-1,1.4311665E0,-8.6310416E-1,-1.2256601E0,1.0279704E0,-1.15785696E-1,1.7120723E-1,7.348006E-2,-2.5367944E-2,-1.2567163E-1,2.1078444E-1,-8.15618E-2,-9.094324E-2,1.5255612E-1,4.213267E-2,-1.2357589E-1,1.6640615E-1,-8.7718554E-2,1.551067E-1,-7.867649E-2,-8.335901E-2,1.7259108E-1,8.361612E-2,-1.1882412E-1,-1.2474554E-1,-8.9721955E-2,-1.1984002E-1,1.289004E-1],"categories":[],"categories_nodes":[],"categories_segments":[],"categories_sizes":[],"default_left":[0,0,0,0,0,0,0,0,0,0,0,0,0,0,0,0,0,0,0,0,0,0,0,0,0,0,0,0,0,0,0,0,0,0,0,0,0,0,0,0,0,0,0,0,0,0,0,0,0,0,0,0,0,0,0,0,0,0,0,0,0,0,0,0,0,0,0,0,0],"id":5,"left_children":[1,3,5,7,9,11,13,15,17,19,21,-1,23,25,27,29,31,33,-1,35,37,-1,-1,39,41,43,-1,-1,45,-1,-1,47,-1,49,51,53,-1,55,57,-1,59,-1,61,63,65,67,-1,-1,-1,-1,-1,-1,-1,-1,-1,-1,-1,-1,-1,-1,-1,-1,-1,-1,-1,-1,-1,-1,-1],"loss_changes":[4.0862643E2,2.4141092E2,1.9809778E2,5.9870556E1,1.05514465E2,4.212007E1,7.590729E1,3.3733253E1,1.9127754E1,7.099646E1,1.3273298E1,0E0,1.6367348E1,4.302472E1,9.6974686E1,1.8654678E1,2.154594E1,1.9013329E1,0E0,3.2100433E1,3.2687984E1,0E0,0E0,2.150116E-1,3.5192696E1,1.8969116E0,0E0,0E0,4.6388245E1,0E0,0E0,3.378582E0,0E0,6.424324E0,1.2133716E1,1.482074E1,0E0,2.970364E1,1.6837952E1,0E0,8.156363E0,0E0,1.1358734E1,1.6263325E1,1.0586548E0,3.171991E1,0E0,0E0,0E0,0E0,0E0,0E0,0E0,0E0,0E0,0E0,0E0,0E0,0E0,0E0,0E0,0E0,0E0,0E0,0E0,0E0,0E0,0E0,0E0],"parents":[2147483647,0,0,1,1,2,2,3,3,4,4,5,5,6,6,7,7,8,8,9,9,10,10,12,12,13,13,14,14,15,15,16,16,17,17,19,19,20,20,23,23,24,24,25,25,28,28,31,31,33,33,34,34,35,35,37,37,38,38,40,40,42,42,43,43,44,44,45,45],"right_children":[2,4,6,8,10,12,14,16,18,20,22,-1,24,26,28,30,32,34,-1,36,38,-1,-1,40,42,44,-1,-1,46,-1,-1,48,-1,50,52,54,-1,56,58,-1,60,-1,62,64,66,68,-1,-1,-1,-1,-1,-1,-1,-1,-1,-1,-1,-1,-1,-1,-1,-1,-1,-1,-1,-1,-1,-1,-1],"split_conditions":[1.6666667E-1,7.048474E-2,1.0135716E-2,3.973064E-2,1.8020959E-1,1.6666667E-1,2.7650017E-1,5.299417E-4,8.888889E-1,4E-2,2.0343603E-1,-1.0931126E-1,5.4545455E-2,2.2222222E-1,6.666667E-2,3.8528137E-2,1.25E-1,7.058824E-1,1.3676669E-1,3.75E-1,1.1111111E-1,-1.2273884E-1,7.547542E-2,4E-2,2.9895797E-1,2.6041666E-2,1.5662026E-1,-1.2665628E-1,7.5E-2,-1.3139871E-1,1.2931769E-1,3.992241E-2,-1.0106414E-1,6.4E-2,3E-1,4E-2,-1.1028951E-1,3.846154E-1,2.5E-1,1.9260529E-1,6.693008E-4,-1.2327526E-1,9.7450696E-2,1E-1,2.5134745E-1,1.8470067E-1,-1.15785696E-1,1.7120723E-1,7.348006E-2,-2.5367944E-2,-1.2567163E-1,2.1078444E-1,-8.15618E-2,-9.094324E-2,1.5255612E-1,4.213267E-2,-1.2357589E-1,1.6640615E-1,-8.7718554E-2,1.551067E-1,-7.867649E-2,-8.335901E-2,1.7259108E-1,8.361612E-2,-1.1882412E-1,-1.2474554E-1,-8.9721955E-2,-1.1984002E-1,1.289004E-1],"split_indices":[7,15,0,20,0,13,21,16,12,3,15,0,17,22,28,20,3,30,0,4,7,0,0,3,21,29,0,0,3,0,0,15,0,32,2,32,0,11,2,0,0,0,20,2,21,18,0,0,0,0,0,0,0,0,0,0,0,0,0,0,0,0,0,0,0,0,0,0,0],"split_type":[0,0,0,0,0,0,0,0,0,0,0,0,0,0,0,0,0,0,0,0,0,0,0,0,0,0,0,0,0,0,0,0,0,0,0,0,0,0,0,0,0,0,0,0,0,0,0,0,0,0,0,0,0,0,0,0,0,0,0,0,0,0,0,0,0,0,0,0,0],"sum_hessian":[1.0175105E3,5.1297174E2,5.0453876E2,1.351495E2,3.7782224E2,6.1215984E1,4.4332278E2,4.0710495E1,9.443901E1,3.5248883E2,2.5333405E1,7.703862E0,5.3512123E1,3.3478638E2,1.0853639E2,1.413174E1,2.6578754E1,9.194384E1,2.49517E0,2.3391833E2,1.1857049E2,2.2066236E1,3.2671695E0,3.311287E1,2.0399254E1,3.2988275E2,4.90364E0,4.6549515E1,6.1986877E1,1.147744E1,2.6542995E0,2.3090193E1,3.4885619E0,8.7933365E1,4.010481E0,2.2976389E2,4.154457E0,9.104941E1,2.7521078E1,1.9993689E1,1.3119179E1,6.5383186E0,1.3860936E1,2.6637878E1,3.0324487E2,5.0922543E1,1.1064335E1,1.559713E1,7.4930634E0,7.554784E0,8.037858E1,2.1973836E0,1.8130971E0,1.914829E0,2.2784904E2,7.953432E1,1.1515097E1,2.5243837E1,2.2772398E0,1.204587E1,1.0733097E0,1.3856553E0,1.2475281E1,4.025848E0,2.2612032E1,2.8174994E2,2.1494942E1,4.9670753E0,4.5955467E1],"tree_param":{"num_deleted":"0","num_feature":"45","num_nodes":"69","size_leaf_vector":"1"}},{"base_weights":[-6.415977E-2,4.9846718E-1,-6.914115E-1,-1.19039536E-1,7.5258094E-1,-8.13496E-1,1.6760169E-1,-5.657001E-1,1.0553858E0,-1.1470073E0,2.6951773E-2,3.304001E-1,-1.0719523E0,1.3347948E0,4.6629193E-1,-5.6224924E-1,-1.196873E0,5.26099E-1,-1.19262375E-1,1.0337254E0,-6.74137E-1,2.1525678E-1,-1.2262517E-1,1.3836868E0,-1.0776168E-1,6.702987E-1,-1.1873446E-1,-8.727297E-1,1.5553616E-1,-1.2228242E-1,-9.6780026E-1,9.028014E-1,-8.5405546E-1,1.4358371E-1,-9.473329E-2,-3.736653E-3,-1.17175184E-1,-9.841183E-2,1.5597944E-1,6.488972E-2,1.4536516E-1,8.205584E-2,-1.10603236E-1,7.558924E-2,-1.240167E-1,-1.23449855E-1,1.3395111E-1,-4.5717712E-2,1.1500011E-1,1.3071051E-1,-1.24464E-1],"categories":[],"categories_nodes":[],"categories_segments":[],"categories_sizes":[],"default_left":[0,0,0,0,0,0,0,0,0,0,0,0,0,0,0,0,0,0,0,0,0,0,0,0,0,0,0,0,0,0,0,0,0,0,0,0,0,0,0,0,0,0,0,0,0,0,0,0,0,0,0],"id":6,"left_children":[1,3,5,-1,7,9,-1,11,13,15,17,19,21,23,25,27,29,31,-1,33,35,37,-1,39,-1,41,-1,43,-1,-1,45,47,49,-1,-1,-1,-1,-1,-1,-1,-1,-1,-1,-1,-1,-1,-1,-1,-1,-1,-1],"loss_changes":[3.3968198E2,2.1868115E2,1.3289336E2,0E0,1.7691905E2,1.2152243E2,0E0,3.8079178E1,5.8558838E1,8.375885E0,7.6180504E1,2.244679E1,1.0864792E1,3.0192596E1,4.0336674E1,1.8629097E1,5.111389E-1,4.691896E1,0E0,1.6098883E1,4.16513E0,1.2119833E1,0E0,1.1340759E1,0E0,2.8926846E1,0E0,1.50308075E1,0E0,0E0,2.245388E1,2.4131317E1,1.8125988E1,0E0,0E0,0E0,0E0,0E0,0E0,0E0,0E0,0E0,0E0,0E0,0E0,0E0,0E0,0E0,0E0,0E0,0E0],"parents":[2147483647,0,0,1,1,2,2,4,4,5,5,7,7,8,8,9,9,10,10,11,11,12,12,13,13,14,14,15,15,16,16,17,17,19,19,20,20,21,21,23,23,25,25,27,27,30,30,31,31,32,32],"right_children":[2,4,6,-1,8,10,-1,12,14,16,18,20,22,24,26,28,30,32,-1,34,36,38,-1,40,-1,42,-1,44,-1,-1,46,48,50,-1,-1,-1,-1,-1,-1,-1,-1,-1,-1,-1,-1,-1,-1,-1,-1,-1,-1],"split_conditions":[8.986332E-5,2.7777778E-2,2.2222222E-1,-1.19039536E-1,7.017083E-2,2.921308E-1,1.6760169E-1,4.4444446E-2,4E-2,5.9955332E-2,8.3333336E-2,4.853263E-2,4.0625628E-6,3.75E-1,1.0606061E-1,5.9096374E-2,2.5476104E-1,5.482456E-4,-1.19262375E-1,1.5E-1,3.084964E-5,2.9895797E-1,-1.2262517E-1,7.306397E-2,-1.0776168E-1,4.6153846E-1,-1.1873446E-1,1.5686275E-1,1.5553616E-1,-1.2228242E-1,4.6860357E-4,7.3981605E-2,1.1875902E-1,1.4358371E-1,-9.473329E-2,-3.736653E-3,-1.17175184E-1,-9.841183E-2,1.5597944E-1,6.488972E-2,1.4536516E-1,8.205584E-2,-1.10603236E-1,7.558924E-2,-1.240167E-1,-1.23449855E-1,1.3395111E-1,-4.5717712E-2,1.1500011E-1,1.3071051E-1,-1.24464E-1],"split_indices":[1,38,22,0,15,21,0,23,3,0,3,15,1,4,28,0,21,25,0,3,1,21,0,20,0,11,0,30,0,0,22,15,10,0,0,0,0,0,0,0,0,0,0,0,0,0,0,0,0,0,0],"split_type":[0,0,0,0,0,0,0,0,0,0,0,0,0,0,0,0,0,0,0,0,0,0,0,0,0,0,0,0,0,0,0,0,0,0,0,0,0,0,0,0,0,0,0,0,0,0,0,0,0,0,0],"sum_hessian":[9.6054425E2,5.0646494E2,4.540793E2,6.575656E1,4.4070837E2,4.3243567E2,2.1643642E1,8.215835E1,3.5855002E2,3.0932343E2,1.2311227E2,2.9784735E1,5.237361E1,2.423411E2,1.1620894E2,2.5269648E1,2.8405377E2,8.776179E1,3.535048E1,1.750181E1,1.2282926E1,5.563797E0,4.6809814E1,2.3794511E2,4.3959737E0,1.0397619E2,1.2232743E1,2.2551113E1,2.718535E0,2.5125177E2,3.2801994E1,6.921576E1,1.8546032E1,1.47775135E1,2.7242966E0,5.8596916E0,6.423234E0,3.0823205E0,2.4814768E0,2.1580025E1,2.1636508E2,9.636292E1,7.613268E0,3.9566286E0,1.8594484E1,2.9820103E1,2.9818933E0,1.0515407E1,5.870035E1,2.4795864E0,1.6066444E1],"tree_param":{"num_deleted":"0","num_feature":"45","num_nodes":"51","size_leaf_vector":"1"}},{"base_weights":[-4.691074E-2,4.9937955E-1,-7.0110667E-1,-1.1663424E-1,7.357349E-1,-7.9407185E-1,1.51161E-1,1.1027648E0,-1.8122491E-1,-1.0889132E0,-5.7207506E-2,1.1640077E0,-1.14750564E-1,2.6439986E-1,-8.7240386E-1,-1.1160364E0,1.6650482E-1,4.2791674E-1,-1.1675842E-1,-1.2101547E-1,1.1975622E0,5.100825E-1,-1.1574354E-1,9.3965685E-1,-1.1820549E-1,-1.1658605E0,-7.435921E-1,-9.804859E-2,1.5979685E-1,9.8145676E-1,-4.214279E-1,1.4253476E-1,9.894617E-2,8.305042E-2,-5.7388812E-2,-7.757457E-2,1.408757E-1,-7.913682E-2,-1.2012818E-1,-9.633428E-2,1.20182015E-1,1.3146883E-1,-3.69226E-2,2.4146115E-2,-1.3656317E-1],"categories":[],"categories_nodes":[],"categories_segments":[],"categories_sizes":[],"default_left":[0,0,0,0,0,0,0,0,0,0,0,0,0,0,0,0,0,0,0,0,0,0,0,0,0,0,0,0,0,0,0,0,0,0,0,0,0,0,0,0,0,0,0,0,0],"id":7,"left_children":[1,3,5,-1,7,9,-1,11,13,15,17,19,-1,21,23,25,27,29,-1,-1,31,33,-1,35,-1,37,39,-1,-1,41,43,-1,-1,-1,-1,-1,-1,-1,-1,-1,-1,-1,-1,-1,-1],"loss_changes":[3.287569E2,1.9823926E2,8.730469E1,0E0,1.4816856E2,8.7353424E1,0E0,4.462613E1,3.9204727E1,9.969269E0,6.3007935E1,2.585025E1,0E0,2.773323E1,2.9073273E1,4.3544006E0,1.297185E1,3.8725914E1,0E0,0E0,1.2930389E1,2.3729454E1,0E0,7.393755E0,0E0,2.3179321E0,1.6531002E1,0E0,0E0,2.2826439E1,2.0892769E1,0E0,0E0,0E0,0E0,0E0,0E0,0E0,0E0,0E0,0E0,0E0,0E0,0E0,0E0],"parents":[2147483647,0,0,1,1,2,2,4,4,5,5,7,7,8,8,9,9,10,10,11,11,13,13,14,14,15,15,16,16,17,17,20,20,21,21,23,23,25,25,26,26,29,29,30,30],"right_children":[2,4,6,-1,8,10,-1,12,14,16,18,20,-1,22,24,26,28,30,-1,-1,32,34,-1,36,-1,38,40,-1,-1,42,44,-1,-1,-1,-1,-1,-1,-1,-1,-1,-1,-1,-1,-1,-1],"split_conditions":[8.986332E-5,4.5454547E-2,2.2222222E-1,-1.1663424E-1,5.7142857E-2,2.921308E-1,1.51161E-1,5E-1,3.7901758E-4,3.3333334E-1,8.3333336E-2,4E-2,-1.14750564E-1,2.2222222E-1,9.033189E-2,2.5476104E-1,6.116208E-4,3.7119526E-4,-1.1675842E-1,-1.2101547E-1,2.3435669E-4,1.758658E-1,-1.1574354E-1,8.311688E-2,-1.1820549E-1,2.6041666E-2,4.6860357E-4,-9.804859E-2,1.5979685E-1,3.4051246E-4,3.6076176E-1,1.4253476E-1,9.894617E-2,8.305042E-2,-5.7388812E-2,-7.757457E-2,1.408757E-1,-7.913682E-2,-1.2012818E-1,-9.633428E-2,1.20182015E-1,1.3146883E-1,-3.69226E-2,2.4146115E-2,-1.3656317E-1],"split_indices":[1,31,22,0,3,21,0,4,16,36,3,32,0,31,10,21,22,25,0,0,16,23,0,10,0,29,22,0,0,16,21,0,0,0,0,0,0,0,0,0,0,0,0,0,0],"split_type":[0,0,0,0,0,0,0,0,0,0,0,0,0,0,0,0,0,0,0,0,0,0,0,0,0,0,0,0,0,0,0,0,0,0,0,0,0,0,0,0,0,0,0,0,0],"sum_hessian":[9.1792664E2,5.0034616E2,4.1758047E2,6.168493E1,4.3866122E2,4.013589E2,1.6221584E1,3.131247E2,1.2553652E2,2.863171E2,1.1504177E2,3.052985E2,7.826202E0,7.670188E1,4.8834644E1,2.8037073E2,5.9463644E0,8.049018E1,3.455159E1,3.7660444E0,3.0153244E2,6.594783E1,1.0754049E1,6.8301888E0,4.2004456E1,2.4541045E2,3.49603E1,3.4761066E0,2.4702578E0,4.863678E1,3.1853403E1,1.4116501E2,1.6036743E2,5.1081867E1,1.4865966E1,1.3263416E0,5.503847E0,2.3223263E1,2.2218718E2,3.1865623E1,3.0946784E0,3.9033375E1,9.603408E0,1.9151878E1,1.2701524E1],"tree_param":{"num_deleted":"0","num_feature":"45","num_nodes":"45","size_leaf_vector":"1"}},{"base_weights":[-5.7620678E-2,6.308459E-1,-5.048891E-1,1.0020156E0,-4.1410476E-1,-6.022785E-1,1.4814755E-1,-1.0992139E-1,1.1286904E0,-7.9592025E-1,9.225682E-1,-8.808735E-1,3.924084E-2,1.3681217E0,8.993069E-1,1.2242231E-1,-1.0023143E0,1.2296159E0,-9.1341846E-2,-4.9711987E-1,-1.1619086E0,-1.1446672E-1,5.316752E-1,1.4461349E0,6.723045E-1,1.0473841E0,-6.743979E-1,-1.07272565E-1,1.0422533E0,-1.2179891E-1,-1.9536473E-1,1.4375355E0,-7.075358E-2,-1.9041395E-2,-1.0594467E0,-1.19688414E-1,-4.1561392E-1,7.801907E-1,-1.1153082E-1,6.1369147E-2,1.462103E-1,-5.1289607E-2,1.441514E-1,-1.0041695E-1,1.0980747E-1,1.3589472E-1,-1.3793223E-1,2.152686E-1,-9.897713E-2,-1.0871984E-1,9.465986E-2,8.760971E-2,1.9283275E-1,1.0903887E-1,-4.0265888E-2,-1.18304275E-1,1.706997E-1,-1.025723E-1,8.983642E-2,1.2243735E-1,1.7094141E-3],"categories":[],"categories_nodes":[],"categories_segments":[],"categories_sizes":[],"default_left":[0,0,0,0,0,0,0,0,0,0,0,0,0,0,0,0,0,0,0,0,0,0,0,0,0,0,0,0,0,0,0,0,0,0,0,0,0,0,0,0,0,0,0,0,0,0,0,0,0,0,0,0,0,0,0,0,0,0,0,0,0],"id":8,"left_children":[1,3,5,7,9,11,-1,-1,13,15,17,19,21,23,25,27,29,31,-1,33,35,-1,37,39,41,43,45,-1,47,-1,49,51,-1,53,55,-1,57,59,-1,-1,-1,-1,-1,-1,-1,-1,-1,-1,-1,-1,-1,-1,-1,-1,-1,-1,-1,-1,-1,-1,-1],"loss_changes":[2.7421716E2,1.3644946E2,1.0530716E2,7.02059E1,4.801259E1,9.21192E1,0E0,0E0,1.2217804E1,1.3881718E1,1.2987114E1,3.816925E1,9.211655E1,5.4270935E0,3.0527855E1,1.6741789E1,1.0096371E1,8.450747E0,0E0,4.1280537E1,4.896393E0,0E0,4.6521908E1,5.002289E-1,1.327809E1,1.3307266E1,1.85218E1,0E0,2.139655E1,0E0,1.4996411E1,2.9941368E0,0E0,3.6211437E1,2.6150719E1,0E0,9.565845E0,3.3027473E1,0E0,0E0,0E0,0E0,0E0,0E0,0E0,0E0,0E0,0E0,0E0,0E0,0E0,0E0,0E0,0E0,0E0,0E0,0E0,0E0,0E0,0E0,0E0],"parents":[2147483647,0,0,1,1,2,2,3,3,4,4,5,5,8,8,9,9,10,10,11,11,12,12,13,13,14,14,15,15,16,16,17,17,19,19,20,20,22,22,23,23,24,24,25,25,26,26,28,28,30,30,31,31,33,33,34,34,36,36,37,37],"right_children":[2,4,6,8,10,12,-1,-1,14,16,18,20,22,24,26,28,30,32,-1,34,36,-1,38,40,42,44,46,-1,48,-1,50,52,-1,54,56,-1,58,60,-1,-1,-1,-1,-1,-1,-1,-1,-1,-1,-1,-1,-1,-1,-1,-1,-1,-1,-1,-1,-1,-1,-1],"split_conditions":[5.2305495E-5,5.7142857E-2,2.2222222E-1,1.8917896E-4,6.775068E-4,1.01620674E-1,1.4814755E-1,-1.0992139E-1,3.4E-1,7.077922E-2,6.410257E-2,8.3333336E-2,4.8E-2,4E-2,3.866976E-4,1.5117677E-2,1.08702004E-1,7.423301E-2,-9.1341846E-2,1.4184856E-4,6.422951E-4,-1.1446672E-1,8.3333336E-2,1.942029E-1,4.7080978E-4,1.5684798E-2,1.7179179E-4,-1.07272565E-1,3.5905967E-5,-1.2179891E-1,3.0769232E-1,1.68E-1,-7.075358E-2,3.4188034E-4,5.18847E-1,-1.19688414E-1,2.5E-1,3.7327362E-4,-1.1153082E-1,6.1369147E-2,1.462103E-1,-5.1289607E-2,1.441514E-1,-1.0041695E-1,1.0980747E-1,1.3589472E-1,-1.3793223E-1,2.152686E-1,-9.897713E-2,-1.0871984E-1,9.465986E-2,8.760971E-2,1.9283275E-1,1.0903887E-1,-4.0265888E-2,-1.18304275E-1,1.706997E-1,-1.025723E-1,8.983642E-2,1.2243735E-1,1.7094141E-3],"split_indices":[1,3,22,22,22,15,0,0,33,20,28,43,32,3,25,0,15,17,0,1,16,0,3,24,22,17,0,0,1,0,11,32,0,22,18,0,40,22,0,0,0,0,0,0,0,0,0,0,0,0,0,0,0,0,0,0,0,0,0,0,0],"split_type":[0,0,0,0,0,0,0,0,0,0,0,0,0,0,0,0,0,0,0,0,0,0,0,0,0,0,0,0,0,0,0,0,0,0,0,0,0,0,0,0,0,0,0,0,0,0,0,0,0,0,0,0,0,0,0,0,0,0,0,0,0],"sum_hessian":[8.884854E2,3.497364E2,5.3874896E2,2.5809967E2,9.163672E1,5.1423346E2,2.4515547E1,1.4238575E1,2.4386111E2,7.159145E1,2.0045269E1,3.5827216E2,1.559613E2,1.1688831E2,1.2697279E2,1.3212001E1,5.837945E1,1.7456192E1,2.5890777E0,1.5262773E2,2.0564441E2,4.542537E1,1.10535934E2,1.04134674E2,1.2753637E1,1.1635852E2,1.0614273E1,5.6737742E0,7.538227E0,4.566509E1,1.271436E1,1.5997093E1,1.4590981E0,8.3052284E1,6.957545E1,1.9586147E2,9.782957E0,9.650105E1,1.4034882E1,2.7020814E0,1.01432594E2,5.1506753E0,7.602962E0,2.3521528E0,1.1400637E2,2.4936326E0,8.120641E0,4.836088E0,2.7021387E0,7.1659555E0,5.548405E0,8.760567E0,7.236527E0,2.0865738E1,6.2186546E1,6.714785E1,2.427597E0,6.8306923E0,2.952265E0,6.061426E1,3.5886787E1],"tree_param":{"num_deleted":"0","num_feature":"45","num_nodes":"61","size_leaf_vector":"1"}},{"base_weights":[-6.0608815E-3,-1.1391363E-1,2.4236628E-1,6.3344824E-1,-4.8541322E-1,8.22412E-1,-6.0731137E-1,-6.8781704E-1,1.4093511E-1,4.2174235E-1,1.0789901E0,-8.9092153E-1,1.3713391E-1,-3.1911677E-1,-1.0805317E0,7.7207196E-1,-5.2153593E-1,1.2277602E0,5.266608E-1,-1.196005E-1,1.0427909E-1,-1.2282991E-2,-1.1837485E-1,1.326486E-1,-1.15660444E-1,1.0046265E-1,-9.096341E-3,6.842236E-2,-1.2865226E-1,1.2702362E-1,-1.678139E-2,1.0368209E-1,-9.0090156E-2,3.1100586E-2,-1.1268977E-1],"categories":[],"categories_nodes":[],"categories_segments":[],"categories_sizes":[],"default_left":[0,0,0,0,0,0,0,0,0,0,0,0,0,0,0,0,0,0,0,0,0,0,0,0,0,0,0,0,0,0,0,0,0,0,0],"id":9,"left_children":[1,-1,3,5,7,9,11,13,-1,15,17,19,-1,21,23,25,27,29,31,-1,-1,33,-1,-1,-1,-1,-1,-1,-1,-1,-1,-1,-1,-1,-1],"loss_changes":[2.4368271E2,0E0,2.0240167E2,1.0888806E2,9.636778E1,4.083249E1,3.583198E1,3.2294144E1,0E0,5.2755905E1,1.941861E1,3.342847E1,0E0,3.1206316E1,2.1444412E1,2.3357857E1,4.100531E1,1.1572357E1,3.9946487E1,0E0,0E0,3.201339E1,0E0,0E0,0E0,0E0,0E0,0E0,0E0,0E0,0E0,0E0,0E0,0E0,0E0],"parents":[2147483647,0,0,2,2,3,3,4,4,5,5,6,6,7,7,9,9,10,10,11,11,13,13,14,14,15,15,16,16,17,17,18,18,21,21],"right_children":[2,-1,4,6,8,10,12,14,-1,16,18,20,-1,22,24,26,28,30,32,-1,-1,34,-1,-1,-1,-1,-1,-1,-1,-1,-1,-1,-1,-1,-1],"split_conditions":[2.7777778E-2,-1.1391363E-1,6.666667E-2,1.5017051E-4,1.7857143E-3,2.7847648E-1,1.3774105E-3,1.0958895E-4,1.4093511E-1,3.3333334E-1,2.876456E-4,7.170569E-1,1.3713391E-1,5.387931E-4,6.666667E-2,1.882353E-1,5.352908E-2,1.5186395E-1,4.059644E-2,-1.196005E-1,1.0427909E-1,1.6666667E-1,-1.1837485E-1,1.326486E-1,-1.15660444E-1,1.0046265E-1,-9.096341E-3,6.842236E-2,-1.2865226E-1,1.2702362E-1,-1.678139E-2,1.0368209E-1,-9.0090156E-2,3.1100586E-2,-1.1268977E-1],"split_indices":[38,0,3,1,19,21,19,1,0,8,16,24,0,25,36,30,17,0,26,0,0,3,0,0,0,0,0,0,0,0,0,0,0,0,0],"split_type":[0,0,0,0,0,0,0,0,0,0,0,0,0,0,0,0,0,0,0,0,0,0,0,0,0,0,0,0,0,0,0,0,0,0,0],"sum_hessian":[8.637179E2,1.5467238E2,7.0904553E2,4.6129315E2,2.4775238E2,4.0061755E2,6.0675617E1,2.244166E2,2.3335793E1,1.5742616E2,2.4319138E2,5.354978E1,7.125835E0,1.1668212E2,1.0773447E2,1.14925E2,4.2501167E1,1.9062389E2,5.2567486E1,4.6582E1,6.967782E0,8.686895E1,2.9813173E1,2.7970145E0,1.0493745E2,9.04013E1,2.4523705E1,1.6538704E1,2.5962461E1,1.8508054E2,5.5433483E0,3.892926E1,1.3638223E1,6.7896774E1,1.8972174E1],"tree_param":{"num_deleted":"0","num_feature":"45","num_nodes":"35","size_leaf_vector":"1"}},{"base_weights":[-1.2733323E-3,-1.12235956E-1,2.3067337E-1,5.555738E-1,-7.7302474E-1,7.4009734E-1,-5.289147E-1,-9.790838E-1,1.2194184E0,9.736528E-1,1.10391155E-1,1.1346656E0,-8.1396055E-1,-1.0333953E0,9.9617237E-1,1.2963346E-1,5.6433655E-2,-1.13749385E-1,1.0096136E0,-2.5703022E-1,1.0519372E0,-7.6244645E-2,1.4812718E-1,-1.1664504E-1,1.2452487E0,-5.6319696E-1,-1.1426081E-1,1.6274558E-1,-5.8797278E-2,6.266873E-2,1.17157795E-1,5.7752427E-2,-8.441876E-2,1.141743E-1,-8.59087E-2,1.4227042E-1,4.9176518E-2,-1.1538007E-1,1.27506E-1],"categories":[],"categories_nodes":[],"categories_segments":[],"categories_sizes":[],"default_left":[0,0,0,0,0,0,0,0,0,0,0,0,0,0,0,0,0,0,0,0,0,0,0,0,0,0,0,0,0,0,0,0,0,0,0,0,0,0,0],"id":10,"left_children":[1,-1,3,5,7,9,11,13,15,17,19,21,23,25,27,-1,-1,-1,29,31,33,-1,-1,-1,35,37,-1,-1,-1,-1,-1,-1,-1,-1,-1,-1,-1,-1,-1],"loss_changes":[2.132958E2,0E0,2.2206636E2,1.0325621E2,6.960304E1,6.456044E1,3.6643448E1,1.7288773E1,7.7762604E-2,2.5489014E1,4.1814796E1,8.6495285E0,4.855334E1,6.956314E0,5.5220637E0,0E0,0E0,0E0,1.885025E1,4.320941E1,6.799675E0,0E0,0E0,0E0,6.3317776E-1,3.3897972E1,0E0,0E0,0E0,0E0,0E0,0E0,0E0,0E0,0E0,0E0,0E0,0E0,0E0],"parents":[2147483647,0,0,2,2,3,3,4,4,5,5,6,6,7,7,8,8,9,9,10,10,11,11,12,12,13,13,14,14,18,18,19,19,20,20,24,24,25,25],"right_children":[2,-1,4,6,8,10,12,14,16,18,20,22,24,26,28,-1,-1,-1,30,32,34,-1,-1,-1,36,38,-1,-1,-1,-1,-1,-1,-1,-1,-1,-1,-1,-1,-1],"split_conditions":[4.1666668E-2,-1.12235956E-1,8.3333336E-2,1.5017051E-4,1.0416667E-3,2.1428572E-1,2.7272728E-4,7.058824E-1,6.140351E-2,1.1717172E-1,1.09505035E-1,1.3140604E-1,1.3774105E-3,3.9170925E-5,3E-1,1.2963346E-1,5.6433655E-2,-1.13749385E-1,2.4946101E-1,4.6464648E-2,2.24E-1,-7.6244645E-2,1.4812718E-1,-1.1664504E-1,2.2916667E-1,1.6E-1,-1.1426081E-1,1.6274558E-1,-5.8797278E-2,6.266873E-2,1.17157795E-1,5.7752427E-2,-8.441876E-2,1.141743E-1,-8.59087E-2,1.4227042E-1,4.9176518E-2,-1.1538007E-1,1.27506E-1],"split_indices":[31,0,3,1,22,27,19,30,28,10,15,15,19,1,2,0,0,0,21,20,32,0,0,0,29,5,0,0,0,0,0,0,0,0,0,0,0,0,0],"split_type":[0,0,0,0,0,0,0,0,0,0,0,0,0,0,0,0,0,0,0,0,0,0,0,0,0,0,0,0,0,0,0,0,0,0,0,0,0,0,0],"sum_hessian":[8.1827106E2,1.3961586E2,6.786552E2,5.130316E2,1.6562358E2,4.387045E2,7.432713E1,1.5056111E2,1.5062473E1,3.1961456E2,1.1908994E2,1.0436594E1,6.3890537E1,1.4699614E2,3.5649614E0,1.26037245E1,2.4587488E0,4.840029E0,3.1477454E2,8.618487E1,3.2905075E1,1.4268936E0,9.009701E0,5.492258E1,8.967956E0,2.8867699E1,1.1812845E2,2.5295808E0,1.0353806E0,9.501153E1,2.19763E2,3.5600544E1,5.0584324E1,3.181264E1,1.0924377E0,6.539619E0,2.4283364E0,2.2130007E1,6.737692E0],"tree_param":{"num_deleted":"0","num_feature":"45","num_nodes":"39","size_leaf_vector":"1"}},{"base_weights":[-1.7746057E-3,-1.1088077E-1,2.2746482E-1,5.427552E-1,-5.4065764E-1,-3.0939955E-2,8.258842E-1,-8.464102E-1,1.3009559E-1,6.768465E-1,-4.9843237E-1,3.6268696E-1,1.0180337E0,-9.2758554E-1,8.22929E-2,7.819892E-1,-1.5135585E-1,-6.6691005E-1,1.0866914E0,9.903436E-1,-5.794576E-1,1.269789E0,7.930501E-1,5.515261E-1,-9.766691E-1,1.0316628E0,-9.797656E-2,-1.0690923E-1,9.083152E-2,-6.800407E-3,-1.0215541E-1,2.4202254E-2,1.5082835E-1,1.1773958E-1,7.1856607E-4,-1.205598E-3,-1.3507946E-1,1.2986435E-1,6.0653817E-2,-4.4416007E-2,1.0090058E-1,1.5112267E-1,-7.9562746E-2,-4.1647937E-2,-1.13328E-1,-7.042121E-2,1.4953752E-1],"categories":[],"categories_nodes":[],"categories_segments":[],"categories_sizes":[],"default_left":[0,0,0,0,0,0,0,0,0,0,0,0,0,0,0,0,0,0,0,0,0,0,0,0,0,0,0,0,0,0,0,0,0,0,0,0,0,0,0,0,0,0,0,0,0,0,0],"id":11,"left_children":[1,-1,3,5,7,9,11,13,-1,15,17,19,21,23,25,27,-1,29,31,33,35,37,39,41,43,45,-1,-1,-1,-1,-1,-1,-1,-1,-1,-1,-1,-1,-1,-1,-1,-1,-1,-1,-1,-1,-1],"loss_changes":[1.9601833E2,0E0,1.5526709E2,7.3798325E1,1.0624135E2,5.0315544E1,2.6700073E1,1.2194412E1,0E0,1.5118221E1,2.517093E1,5.4225086E1,1.1137405E1,1.1276474E1,1.4964716E1,1.4625713E1,0E0,1.7636913E1,2.9022074E0,1.0073235E1,1.6136227E1,1.1169434E0,3.1411728E1,8.170357E0,1.2118805E1,7.3271303E0,0E0,0E0,0E0,0E0,0E0,0E0,0E0,0E0,0E0,0E0,0E0,0E0,0E0,0E0,0E0,0E0,0E0,0E0,0E0,0E0,0E0],"parents":[2147483647,0,0,2,2,3,3,4,4,5,5,6,6,7,7,9,9,10,10,11,11,12,12,13,13,14,14,15,15,17,17,18,18,19,19,20,20,21,21,22,22,23,23,24,24,25,25],"right_children":[2,-1,4,6,8,10,12,14,-1,16,18,20,22,24,26,28,-1,30,32,34,36,38,40,42,44,46,-1,-1,-1,-1,-1,-1,-1,-1,-1,-1,-1,-1,-1,-1,-1,-1,-1,-1,-1,-1,-1],"split_conditions":[2.7777778E-2,-1.1088077E-1,7.5E-2,8.570594E-2,1.0416667E-3,2.490981E-2,2.7650017E-1,6.813536E-4,1.3009559E-1,8.322383E-2,1.2386969E-3,2.2222223E-2,3.2468647E-2,2.0951184E-4,7.1870856E-4,4E-2,-1.5135585E-1,6.4E-2,1.5454546E-1,3.3333334E-1,4.0886447E-2,1.3043478E-1,1.01620674E-1,8.3333336E-2,2.4566226E-2,2.1182178E-1,-9.797656E-2,-1.0690923E-1,9.083152E-2,-6.800407E-3,-1.0215541E-1,2.4202254E-2,1.5082835E-1,1.1773958E-1,7.1856607E-4,-1.205598E-3,-1.3507946E-1,1.2986435E-1,6.0653817E-2,-4.4416007E-2,1.0090058E-1,1.5112267E-1,-7.9562746E-2,-4.1647937E-2,-1.13328E-1,-7.042121E-2,1.4953752E-1],"split_indices":[38,0,3,15,22,0,21,16,0,15,19,3,0,22,16,32,0,32,10,8,0,35,15,3,0,21,0,0,0,0,0,0,0,0,0,0,0,0,0,0,0,0,0,0,0,0,0],"split_type":[0,0,0,0,0,0,0,0,0,0,0,0,0,0,0,0,0,0,0,0,0,0,0,0,0,0,0,0,0,0,0,0,0,0,0,0,0,0,0,0,0,0,0,0,0,0,0],"sum_hessian":[7.704141E2,1.315074E2,6.3890674E2,4.531827E2,1.8572401E2,1.5004405E2,3.0313867E2,1.5974316E2,2.5980854E1,5.9505116E1,9.053894E1,8.972772E1,2.1341093E2,1.469039E2,1.28392515E1,5.739315E1,2.1119633E0,8.2364006E1,8.174933E0,5.382101E1,3.590671E1,9.8521774E1,1.1488917E2,4.3895707E0,1.4251434E2,6.7943916E0,6.04486E0,3.1897733E0,5.4203377E1,3.1076035E1,5.128797E1,3.245857E0,4.929077E0,4.5052002E1,8.769007E0,2.1273432E1,1.4633277E1,9.3496254E1,5.0255165E0,1.6916695E1,9.797247E1,2.4922912E0,1.8972795E0,3.1936901E1,1.1057743E2,1.3230407E0,5.471351E0],"tree_param":{"num_deleted":"0","num_feature":"45","num_nodes":"47","size_leaf_vector":"1"}},{"base_weights":[-5.02738E-3,5.8856684E-1,-4.358201E-1,-1.0576432E-1,7.138553E-1,1.284988E-2,-8.3686E-1,8.5051227E-1,-1.2739359E-1,3.9023435E-1,-6.3266736E-1,-8.8760203E-1,1.10285655E-1,9.25526E-1,-2.1178566E-1,8.5863894E-1,-1.1032778E-1,6.1722803E-1,-8.364153E-1,-8.643255E-1,1.0569726E0,-9.378728E-1,7.930575E-1,9.8909205E-1,-1.1968729E-1,1.1077967E0,-1.2222451E-1,-7.908698E-2,1.0212321E0,7.67212E-1,-1.2468113E-1,7.5071186E-1,-1.4126632E-1,-5.231064E-2,-1.14036076E-1,4.3817643E-2,1.2016951E-1,-1.1154425E-1,-6.564404E-1,1.4202598E-1,-7.69951E-2,1.01023115E-1,-9.2820644E-2,-8.134513E-2,8.890613E-2,1.3155021E-1,4.5339447E-2,1.1858716E-1,3.154657E-2,-1.1072487E-1,8.81014E-2,3.0539883E-2,9.559379E-2,-6.373664E-2,9.5358595E-2,1.9859899E-2,-9.598886E-2],"categories":[],"categories_nodes":[],"categories_segments":[],"categories_sizes":[],"default_left":[0,0,0,0,0,0,0,0,0,0,0,0,0,0,0,0,0,0,0,0,0,0,0,0,0,0,0,0,0,0,0,0,0,0,0,0,0,0,0,0,0,0,0,0,0,0,0,0,0,0,0,0,0,0,0,0,0],"id":12,"left_children":[1,3,5,-1,7,9,11,13,15,17,19,21,-1,23,25,27,-1,29,31,33,35,37,39,41,43,45,-1,-1,47,49,-1,51,-1,53,-1,-1,-1,-1,55,-1,-1,-1,-1,-1,-1,-1,-1,-1,-1,-1,-1,-1,-1,-1,-1,-1,-1],"loss_changes":[1.8969456E2,6.509823E1,7.735541E1,0E0,3.3504807E1,4.9909294E1,2.3320145E1,2.0120407E1,4.0847458E1,3.6510002E1,3.0502213E1,1.94794E1,0E0,1.5647293E1,2.4428558E1,6.4901934E0,0E0,3.1614307E1,1.9910458E1,1.49645195E1,3.2997608E-1,1.0050766E1,7.9383087E0,9.871994E0,1.0724966E1,4.9491882E-1,0E0,0E0,1.9176636E0,2.2757523E1,0E0,2.6945806E-1,0E0,1.1232141E1,0E0,0E0,0E0,0E0,2.2479282E1,0E0,0E0,0E0,0E0,0E0,0E0,0E0,0E0,0E0,0E0,0E0,0E0,0E0,0E0,0E0,0E0,0E0,0E0],"parents":[2147483647,0,0,1,1,2,2,4,4,5,5,6,6,7,7,8,8,9,9,10,10,11,11,13,13,14,14,15,15,17,17,18,18,19,19,20,20,21,21,22,22,23,23,24,24,25,25,28,28,29,29,31,31,33,33,38,38],"right_children":[2,4,6,-1,8,10,12,14,16,18,20,22,-1,24,26,28,-1,30,32,34,36,38,40,42,44,46,-1,-1,48,50,-1,52,-1,54,-1,-1,-1,-1,56,-1,-1,-1,-1,-1,-1,-1,-1,-1,-1,-1,-1,-1,-1,-1,-1,-1,-1],"split_conditions":[5.2305495E-5,4.5454547E-2,1.6666667E-1,-1.0576432E-1,3.7901758E-4,3.335928E-4,2.2222222E-1,2.24E-1,3.1338226E-2,5.467468E-4,1.3774105E-3,4.7694013E-1,1.10285655E-1,2.2222222E-1,2.0465443E-4,4E-2,-1.1032778E-1,1.3043478E-1,2.1287164E-4,3.973064E-2,2.0454904E-1,1E-1,5E-1,6.25E-1,2.7494457E-1,3.823954E-1,-1.2222451E-1,-7.908698E-2,2.4523282E-1,3.1338226E-2,-1.2468113E-1,4.55863E-2,-1.4126632E-1,6.355483E-4,-1.14036076E-1,4.3817643E-2,1.2016951E-1,-1.1154425E-1,3.9169606E-4,1.4202598E-1,-7.69951E-2,1.01023115E-1,-9.2820644E-2,-8.134513E-2,8.890613E-2,1.3155021E-1,4.5339447E-2,1.1858716E-1,3.154657E-2,-1.1072487E-1,8.81014E-2,3.0539883E-2,9.559379E-2,-6.373664E-2,9.5358595E-2,1.9859899E-2,-9.598886E-2],"split_indices":[1,31,7,0,16,16,22,32,17,25,19,18,0,31,16,32,0,35,16,20,0,31,9,4,18,23,0,0,18,17,0,17,0,16,0,0,0,0,22,0,0,0,0,0,0,0,0,0,0,0,0,0,0,0,0,0,0],"split_type":[0,0,0,0,0,0,0,0,0,0,0,0,0,0,0,0,0,0,0,0,0,0,0,0,0,0,0,0,0,0,0,0,0,0,0,0,0,0,0,0,0,0,0,0,0,0,0,0,0,0,0,0,0,0,0,0,0],"sum_hessian":[7.398141E2,3.1096527E2,4.2884885E2,2.1466587E1,2.894987E2,2.0286182E2,2.2598703E2,2.4903339E2,4.0465305E1,1.2826851E2,7.45933E1,2.207546E2,5.2324247E0,2.3272812E2,1.6305256E1,2.0187757E1,2.027755E1,1.0865798E2,1.9610535E1,6.602887E1,8.564436E0,2.1477243E2,5.9821706E0,2.194365E2,1.3291626E1,7.0292573E0,9.275999E0,1.4646609E0,1.8723097E1,1.0111083E2,7.5471444E0,5.14292E0,1.4467614E1,1.7053112E1,4.8975758E1,2.3867984E0,6.177637E0,1.2986848E2,8.490394E1,4.334255E0,1.6479154E0,2.1751143E2,1.9250731E0,7.9900765E0,5.301549E0,4.5688753E0,2.4603822E0,1.4629988E1,4.093109E0,5.2876153E0,9.582322E1,2.4073665E0,2.7355537E0,1.1013653E1,6.0394588E0,2.2329802E1,6.257414E1],"tree_param":{"num_deleted":"0","num_feature":"45","num_nodes":"57","size_leaf_vector":"1"}},{"base_weights":[-1.1398358E-2,-1.0845705E-1,1.9598778E-1,5.691792E-1,-2.5816736E-1,8.2022655E-1,-6.500238E-4,-4.0288943E-1,1.1705463E0,-9.891518E-2,8.473375E-1,-7.2979206E-1,7.0307446E-1,-7.858255E-1,5.4299127E-2,1.2376145E-1,5.102658E-2,8.7444717E-1,-8.9796655E-2,-9.5050335E-1,8.0734044E-1,9.161874E-1,-1.0944574E-1,-1.0416468E0,-2.8168467E-1,-1.11000896E-1,3.1275097E-1,9.983171E-2,5.9033718E-2,-1.2709098E-1,3.032484E-2,1.2964462E-1,-8.47345E-2,1.03402674E-1,-9.457905E-2,4.0699907E-2,-1.1202601E-1,2.3948519E-2,-1.0468221E-1,1.09152816E-1,-2.3194836E-3],"categories":[],"categories_nodes":[],"categories_segments":[],"categories_sizes":[],"default_left":[0,0,0,0,0,0,0,0,0,0,0,0,0,0,0,0,0,0,0,0,0,0,0,0,0,0,0,0,0,0,0,0,0,0,0,0,0,0,0,0,0],"id":13,"left_children":[1,-1,3,5,7,9,11,13,15,-1,17,19,21,23,25,-1,-1,27,-1,29,31,33,-1,35,37,-1,39,-1,-1,-1,-1,-1,-1,-1,-1,-1,-1,-1,-1,-1,-1],"loss_changes":[1.5475023E2,0E0,9.891641E1,4.580709E1,5.4965294E1,1.174173E1,5.127393E1,4.2070023E1,4.5331192E-1,0E0,1.1172424E1,1.7417246E1,2.0482258E1,1.6563004E1,3.3554745E1,0E0,0E0,7.036331E0,0E0,1.7809158E1,6.523128E0,1.1072075E1,0E0,1.0287773E1,1.8341745E1,0E0,2.3856428E1,0E0,0E0,0E0,0E0,0E0,0E0,0E0,0E0,0E0,0E0,0E0,0E0,0E0,0E0],"parents":[2147483647,0,0,2,2,3,3,4,4,5,5,6,6,7,7,8,8,10,10,11,11,12,12,13,13,14,14,17,17,19,19,20,20,21,21,23,23,24,24,26,26],"right_children":[2,-1,4,6,8,10,12,14,16,-1,18,20,22,24,26,-1,-1,28,-1,30,32,34,-1,36,38,-1,40,-1,-1,-1,-1,-1,-1,-1,-1,-1,-1,-1,-1,-1,-1],"split_conditions":[2.7777778E-2,-1.0845705E-1,1E-1,7.511447E-5,1.0416667E-3,1.5684798E-2,3.0973768E-1,8.212878E-2,3.6075037E-2,-9.891518E-2,4.4E-1,1.2941505E-1,5.527916E-4,3.1944445E-1,5.80463E-2,1.2376145E-1,5.102658E-2,2.5E-1,-8.9796655E-2,7.806401E-4,5E-2,2.0201589E-4,-1.0944574E-1,8.833703E-2,7.6447345E-2,-1.11000896E-1,1.2150072E-1,9.983171E-2,5.9033718E-2,-1.2709098E-1,3.032484E-2,1.2964462E-1,-8.47345E-2,1.03402674E-1,-9.457905E-2,4.0699907E-2,-1.1202601E-1,2.3948519E-2,-1.0468221E-1,1.09152816E-1,-2.3194836E-3],"split_indices":[38,0,2,1,22,17,21,15,10,0,33,15,25,27,17,0,0,6,0,22,2,1,0,18,0,0,23,0,0,0,0,0,0,0,0,0,0,0,0,0,0],"split_type":[0,0,0,0,0,0,0,0,0,0,0,0,0,0,0,0,0,0,0,0,0,0,0,0,0,0,0,0,0,0,0,0,0,0,0,0,0,0,0,0,0],"sum_hessian":[6.9336084E2,1.11604645E2,5.817562E2,3.1920428E2,2.6255194E2,2.212775E2,9.792679E1,2.3905481E2,2.3497139E1,2.7427301E0,2.1853476E2,4.807664E1,4.9850143E1,1.2970038E2,1.0935442E2,2.0536737E1,2.9604013E0,2.1568353E2,2.8512235E0,4.237396E1,5.702685E0,4.5004753E1,4.845394E0,8.533287E1,4.436751E1,1.9266283E1,9.008814E1,1.4844762E2,6.723592E1,3.37382E1,8.6357565E0,4.5687237E0,1.1339614E0,4.274425E1,2.2605019E0,4.1773586E0,8.115551E1,2.6799892E1,1.756762E1,2.6472183E1,6.361596E1],"tree_param":{"num_deleted":"0","num_feature":"45","num_nodes":"41","size_leaf_vector":"1"}},{"base_weights":[1.5301577E-2,4.3878904E-1,-5.474511E-1,6.535642E-1,-2.923432E-1,7.824793E-1,-7.1174943E-1,-4.018137E-1,8.2269263E-1,-5.544109E-1,1.1264899E-1,-7.967259E-2,9.5780754E-1,-2.02499E-1,-9.9023116E-1,9.5011973E-1,-8.210973E-1,9.740171E-1,1.586012E-1,-8.217064E-1,1.0988396E0,1.119289E0,-9.680625E-2,-1.0709691E-1,3.025823E-1,-1.0142787E0,5.621021E-2,1.5511204E-1,-7.991051E-2,-1.0156299E0,1.14726745E-1,1.0068914E0,-1.3044998E-1,-1.178143E0,8.421759E-1,-1.0278963E0,1.2914442E-1,1.402972E-1,-6.748016E-2,1.1780512E0,5.376059E-1,6.7683744E-1,-1.23130456E-1,-7.4079055E-1,-1.12694405E-1,1.15536405E-2,-1.18545376E-1,-8.7350376E-2,1.0348618E-1,1.2713616E-2,-1.5353516E-1,1.05379164E-1,-9.267568E-2,-1.1439446E-1,4.2766023E-2,7.569258E-2,-1.0369605E-1,4.524233E-2,1.23775E-1,1.1404985E-1,-7.422542E-2,-3.0252462E-2,9.97078E-2,-1.10771574E-1,-6.012223E-3],"categories":[],"categories_nodes":[],"categories_segments":[],"categories_sizes":[],"default_left":[0,0,0,0,0,0,0,0,0,0,0,0,0,0,0,0,0,0,0,0,0,0,0,0,0,0,0,0,0,0,0,0,0,0,0,0,0,0,0,0,0,0,0,0,0,0,0,0,0,0,0,0,0,0,0,0,0,0,0,0,0,0,0,0,0],"id":14,"left_children":[1,3,5,7,9,11,13,15,17,19,-1,-1,21,23,25,27,29,31,33,35,37,39,-1,-1,41,43,-1,-1,-1,45,-1,47,-1,49,51,53,55,-1,-1,57,59,61,-1,63,-1,-1,-1,-1,-1,-1,-1,-1,-1,-1,-1,-1,-1,-1,-1,-1,-1,-1,-1,-1,-1],"loss_changes":[1.5986536E2,6.029299E1,6.3498062E1,5.319137E1,3.3195297E1,9.664581E0,3.6232773E1,2.4347084E1,2.5528854E1,3.38731E1,0E0,0E0,1.0223843E1,4.0714127E1,6.7603455E0,1.2073439E1,1.352187E1,1.6889847E1,4.5422657E1,1.2836632E1,6.7787876E0,3.094139E-1,0E0,0E0,3.4702766E1,4.2077484E0,0E0,0E0,0E0,5.8804054E0,0E0,1.1715225E1,0E0,8.060305E0,1.3237883E1,9.502815E0,9.888458E0,0E0,0E0,4.8879623E-1,4.218527E0,1.5378721E1,0E0,1.2587469E1,0E0,0E0,0E0,0E0,0E0,0E0,0E0,0E0,0E0,0E0,0E0,0E0,0E0,0E0,0E0,0E0,0E0,0E0,0E0,0E0,0E0],"parents":[2147483647,0,0,1,1,2,2,3,3,4,4,5,5,6,6,7,7,8,8,9,9,12,12,13,13,14,14,15,15,16,16,17,17,18,18,19,19,20,20,21,21,24,24,25,25,29,29,31,31,33,33,34,34,35,35,36,36,39,39,40,40,41,41,43,43],"right_children":[2,4,6,8,10,12,14,16,18,20,-1,-1,22,24,26,28,30,32,34,36,38,40,-1,-1,42,44,-1,-1,-1,46,-1,48,-1,50,52,54,56,-1,-1,58,60,62,-1,64,-1,-1,-1,-1,-1,-1,-1,-1,-1,-1,-1,-1,-1,-1,-1,-1,-1,-1,-1,-1,-1],"split_conditions":[1.6666667E-1,1.1551356E-4,9.2714645E-6,6.935319E-2,1.3774105E-3,1.6666667E-1,1.875E-1,3.742639E-2,3.3333334E-1,3.9600888E-1,1.1264899E-1,-7.967259E-2,1.758658E-1,8.3333336E-2,1.7857143E-3,1.5E-1,7.777778E-1,1.3708985E-1,2.6877472E-1,3.582465E-1,1.7685194E-4,3.7254903E-1,-9.680625E-2,-1.0709691E-1,9.52381E-2,2.1428572E-1,5.621021E-2,1.5511204E-1,-7.991051E-2,2.2332931E-3,1.14726745E-1,3.6458332E-2,-1.3044998E-1,3.1393534E-1,7.5E-2,4.9019608E-1,9.62001E-5,1.402972E-1,-6.748016E-2,6.595854E-2,1.7179179E-4,8.840707E-2,-1.23130456E-1,2.6961312E-1,-1.12694405E-1,1.15536405E-2,-1.18545376E-1,-8.7350376E-2,1.0348618E-1,1.2713616E-2,-1.5353516E-1,1.05379164E-1,-9.267568E-2,-1.1439446E-1,4.2766023E-2,7.569258E-2,-1.0369605E-1,4.524233E-2,1.23775E-1,1.1404985E-1,-7.422542E-2,-3.0252462E-2,9.97078E-2,-1.10771574E-1,-6.012223E-3],"split_indices":[7,1,1,15,19,13,27,15,8,18,0,0,23,38,19,3,12,0,21,21,1,30,0,0,28,27,0,0,0,0,0,29,0,24,3,30,26,0,0,15,0,15,0,21,0,0,0,0,0,0,0,0,0,0,0,0,0,0,0,0,0,0,0,0,0],"split_type":[0,0,0,0,0,0,0,0,0,0,0,0,0,0,0,0,0,0,0,0,0,0,0,0,0,0,0,0,0,0,0,0,0,0,0,0,0,0,0,0,0,0,0,0,0,0,0,0,0,0,0,0,0,0,0,0,0,0,0,0,0,0,0,0,0],"sum_hessian":[6.68797E2,3.81744E2,2.87053E2,2.9514825E2,8.6595764E1,3.1149284E1,2.5590372E2,4.0575745E1,2.545725E2,7.3608955E1,1.2986803E1,2.7585406E0,2.8390743E1,9.107853E1,1.6482518E2,9.305415E0,3.127033E1,2.0694897E2,4.762352E1,6.3797268E1,9.811688E0,2.6580793E1,1.8099493E0,3.307934E1,5.799919E1,1.6265211E2,2.1730728E0,7.0101223E0,2.295293E0,2.8898344E1,2.3719869E0,2.0455574E2,2.3932257E0,1.5868616E1,3.1754906E1,5.2361717E1,1.1435552E1,8.553908E0,1.2577802E0,2.3210773E1,3.3700197E0,4.7072624E1,1.0926569E1,4.9666046E1,1.1298606E2,3.8139532E0,2.508439E1,2.5550497E0,2.020007E2,3.5479815E0,1.2320635E1,2.872307E1,3.0318348E0,4.869357E1,3.6681485E0,7.6617074E0,3.773844E0,2.41654E0,2.0794235E1,2.3648963E0,1.0051233E0,1.1612994E1,3.545963E1,3.1862604E1,1.7803444E1],"tree_param":{"num_deleted":"0","num_feature":"45","num_nodes":"65","size_leaf_vector":"1"}},{"base_weights":[4.5888177E-3,-1.0645554E-1,1.9339374E-1,3.9358205E-1,-4.4974506E-1,5.02742E-1,-4.8142833E-1,-7.2580945E-1,1.1331483E0,6.9230366E-1,5.251227E-2,9.543264E-1,-7.997828E-1,-3.1647456E-1,-1.0718533E-1,1.1907154E-1,5.2746873E-2,7.773281E-1,-2.7310044E-1,3.785847E-1,-7.393139E-1,1.13130264E-1,3.408931E-2,-1.1120005E-1,8.355998E-1,-4.857909E-1,2.9036334E-1,-6.8781385E-3,8.817833E-2,-9.924802E-2,9.7940475E-2,-8.507305E-2,7.082871E-2,1.08366005E-1,-9.1485895E-2,1.016339E-1,3.268768E-2,-8.528702E-2,2.1577235E-2],"categories":[],"categories_nodes":[],"categories_segments":[],"categories_sizes":[],"default_left":[0,0,0,0,0,0,0,0,0,0,0,0,0,0,0,0,0,0,0,0,0,0,0,0,0,0,0,0,0,0,0,0,0,0,0,0,0,0,0],"id":15,"left_children":[1,-1,3,5,7,9,11,13,15,17,19,21,23,25,-1,-1,-1,27,29,31,33,-1,-1,-1,35,37,-1,-1,-1,-1,-1,-1,-1,-1,-1,-1,-1,-1,-1],"loss_changes":[1.2798506E2,0E0,6.955307E1,3.9544037E1,5.692113E1,3.1227753E1,2.1857136E1,1.5231113E1,5.028534E-2,2.136531E1,2.8582468E1,5.731354E-1,2.0494024E1,2.9639324E1,0E0,0E0,0E0,2.101596E1,2.0433453E1,3.234046E1,1.133182E1,0E0,0E0,0E0,2.850747E-1,1.3072227E1,0E0,0E0,0E0,0E0,0E0,0E0,0E0,0E0,0E0,0E0,0E0,0E0,0E0],"parents":[2147483647,0,0,2,2,3,3,4,4,5,5,6,6,7,7,8,8,9,9,10,10,11,11,12,12,13,13,17,17,18,18,19,19,20,20,24,24,25,25],"right_children":[2,-1,4,6,8,10,12,14,16,18,20,22,24,26,-1,-1,-1,28,30,32,34,-1,-1,-1,36,38,-1,-1,-1,-1,-1,-1,-1,-1,-1,-1,-1,-1,-1],"split_conditions":[2.7777778E-2,-1.0645554E-1,8.3333336E-2,1.6491803E-4,1.0416667E-3,3.3333334E-1,8.833703E-2,8.986332E-5,2.5E-1,1.3043478E-1,4.1631973E-4,2.0975778E-1,1.8642952E-1,8.919997E-5,-1.0718533E-1,1.1907154E-1,5.2746873E-2,6.8331145E-2,4.064935E-1,2.2098455E-1,1.7179179E-4,1.13130264E-1,3.408931E-2,-1.1120005E-1,2.56E-1,3.1944445E-1,2.9036334E-1,-6.8781385E-3,8.817833E-2,-9.924802E-2,9.7940475E-2,-8.507305E-2,7.082871E-2,1.08366005E-1,-9.1485895E-2,1.016339E-1,3.268768E-2,-8.528702E-2,2.1577235E-2],"split_indices":[38,0,3,1,22,8,18,1,4,35,25,0,17,1,0,0,0,15,10,21,0,0,0,0,32,27,0,0,0,0,0,0,0,0,0,0,0,0,0],"split_type":[0,0,0,0,0,0,0,0,0,0,0,0,0,0,0,0,0,0,0,0,0,0,0,0,0,0,0,0,0,0,0,0,0,0,0,0,0,0,0],"sum_hessian":[6.320099E2,9.416186E1,5.37848E2,4.1047003E2,1.27378006E2,3.653207E2,4.514931E1,1.089228E2,1.8455208E1,2.567027E2,1.0861803E2,7.831619E0,3.731769E1,5.0775295E1,5.81475E1,1.597129E1,2.4839172E0,2.3610353E2,2.0599146E1,7.730561E1,3.1312414E1,5.4228935E0,2.4087253E0,3.1604065E1,5.7136264E0,4.904557E1,1.7297248E0,2.5982353E1,2.1012119E2,1.3216066E1,7.38308E0,1.6014456E1,6.1291157E1,2.296012E0,2.9016401E1,3.479578E0,2.2340484E0,3.2056805E1,1.6988768E1],"tree_param":{"num_deleted":"0","num_feature":"45","num_nodes":"39","size_leaf_vector":"1"}},{"base_weights":[5.6786958E-2,-1.0559813E-1,2.3303822E-1,4.6897563E-1,-4.5021176E-1,6.1164075E-1,-3.2352227E-1,-6.468048E-1,1.0113571E0,3.423421E-1,8.703432E-1,-4.514403E-1,1.8345027E-1,-8.6511445E-1,1.1345043E-1,1.3153573E0,-7.7785924E-2,9.588681E-1,3.6353633E-2,-3.3621755E-1,9.6562475E-1,1.7509905E-1,-7.946615E-1,-1.1246079E-1,3.268506E-2,7.3268466E-2,1.4588986E-1,1.0117745E-1,-9.180849E-2,4.079002E-2,-7.437545E-2,9.729504E-2,-1.0341608E-1,-9.095533E-2,9.867007E-2,-1.0092527E-1,6.419115E-2,-1.0085817E-1,1.1952479E-1,-1.08347274E-1,6.76417E-2],"categories":[],"categories_nodes":[],"categories_segments":[],"categories_sizes":[],"default_left":[0,0,0,0,0,0,0,0,0,0,0,0,0,0,0,0,0,0,0,0,0,0,0,0,0,0,0,0,0,0,0,0,0,0,0,0,0,0,0,0,0],"id":16,"left_children":[1,-1,3,5,7,9,11,13,15,17,19,21,-1,23,-1,25,-1,27,29,31,33,35,37,-1,39,-1,-1,-1,-1,-1,-1,-1,-1,-1,-1,-1,-1,-1,-1,-1,-1],"loss_changes":[1.2315812E2,0E0,8.755577E1,4.578888E1,4.0762085E1,2.3533363E1,1.7990448E1,4.906487E1,1.0236958E1,3.18942E1,2.0307343E1,1.2932905E1,0E0,2.5830353E1,0E0,1.7318916E-1,0E0,6.499695E0,3.33897E1,1.330809E1,7.274414E0,1.2742381E1,1.7644667E1,0E0,1.9268019E1,0E0,0E0,0E0,0E0,0E0,0E0,0E0,0E0,0E0,0E0,0E0,0E0,0E0,0E0,0E0,0E0],"parents":[2147483647,0,0,2,2,3,3,4,4,5,5,6,6,7,7,8,8,9,9,10,10,11,11,13,13,15,15,17,17,18,18,19,19,20,20,21,21,22,22,24,24],"right_children":[2,-1,4,6,8,10,12,14,16,18,20,22,-1,24,-1,26,-1,28,30,32,34,36,38,-1,40,-1,-1,-1,-1,-1,-1,-1,-1,-1,-1,-1,-1,-1,-1,-1,-1],"split_conditions":[2.7777778E-2,-1.0559813E-1,1.16588024E-4,8.3333336E-2,3.9600888E-1,7.4074075E-2,6.666667E-1,1.7857143E-3,2.0201589E-4,2.3435669E-4,1.2941177E-1,4.347826E-2,1.8345027E-1,3.582465E-1,1.1345043E-1,4.7694013E-1,-7.7785924E-2,2.777778E-1,3.1266104E-2,4.1230028E-3,1.2115325E-1,3.6231883E-2,4E-1,-1.1246079E-1,6.8627454E-2,7.3268466E-2,1.4588986E-1,1.0117745E-1,-9.180849E-2,4.079002E-2,-7.437545E-2,9.729504E-2,-1.0341608E-1,-9.095533E-2,9.867007E-2,-1.0092527E-1,6.419115E-2,-1.0085817E-1,1.1952479E-1,-1.08347274E-1,6.76417E-2],"split_indices":[38,0,1,3,18,28,42,19,1,16,30,28,0,21,0,18,0,38,0,0,10,28,5,0,28,0,0,0,0,0,0,0,0,0,0,0,0,0,0,0,0],"split_type":[0,0,0,0,0,0,0,0,0,0,0,0,0,0,0,0,0,0,0,0,0,0,0,0,0,0,0,0,0,0,0,0,0,0,0,0,0,0,0,0,0],"sum_hessian":[6.256968E2,8.48708E1,5.408259E2,4.0223962E2,1.3858633E2,3.410688E2,6.1170826E1,1.2264679E2,1.5939544E1,1.6825038E2,1.7281842E2,5.8494354E1,2.6764743E0,1.09714935E2,1.2931855E1,1.3851004E1,2.0885398E0,5.5099186E1,1.1315119E2,1.2463468E1,1.6035495E2,2.08759E1,3.761845E1,8.491817E1,2.4796764E1,3.9443166E0,9.906688E0,5.4036976E1,1.0622106E0,7.6969574E1,3.6181618E1,4.1969695E0,8.266498E0,1.3137276E0,1.5904121E2,5.573455E0,1.5302446E1,3.441221E1,3.2062435E0,8.820285E0,1.597648E1],"tree_param":{"num_deleted":"0","num_feature":"45","num_nodes":"41","size_leaf_vector":"1"}},{"base_weights":[-1.3399817E-2,3.2892188E-1,-5.164929E-1,4.9900028E-1,-3.3475226E-1,8.000456E-1,-6.91634E-1,6.5578115E-1,-7.249488E-2,7.7955216E-2,-1.07542634E-1,1.0567586E0,-9.300127E-2,-2.3316845E-1,-9.8737633E-1,9.89306E-1,4.070589E-1,-9.747739E-1,6.3179445E-1,-4.5795497E-1,6.3173085E-1,1.1430535E0,1.745794E-2,-5.023777E-1,6.864402E-1,7.2395824E-2,-1.0137715E0,1.0195358E0,1.4295762E-2,-7.733332E-1,5.147116E-1,7.4036413E-1,-1.3383281E-1,7.98093E-1,-1.0224327E-1,-7.189671E-1,7.858591E-1,1.0597596E0,-9.895599E-2,2.3883646E-2,1.22136906E-1,1.1229708E0,-7.136715E-1,-8.078336E-2,8.875002E-1,-1.0386825E0,-2.6371473E-1,7.4290715E-2,1.1216203E-1,7.2159454E-2,-7.604536E-2,-1.5065436E-1,1.1418513E-1,5.74058E-2,-8.6347245E-2,9.257757E-2,3.3975065E-2,-8.620929E-2,9.1257595E-2,-1.0641482E-1,7.737011E-2,1.409242E-1,-6.156088E-2,1.410214E-2,1.17134154E-1,3.0968487E-2,2.19665E-1,1.1329307E-2,-9.5958896E-2,1.0276597E-1,1.5076791E-2,-1.0917258E-1,-7.4862644E-2,7.88693E-2,-9.623366E-2],"categories":[],"categories_nodes":[],"categories_segments":[],"categories_sizes":[],"default_left":[0,0,0,0,0,0,0,0,0,0,0,0,0,0,0,0,0,0,0,0,0,0,0,0,0,0,0,0,0,0,0,0,0,0,0,0,0,0,0,0,0,0,0,0,0,0,0,0,0,0,0,0,0,0,0,0,0,0,0,0,0,0,0,0,0,0,0,0,0,0,0,0,0,0,0],"id":17,"left_children":[1,3,5,7,9,11,13,15,17,19,-1,21,-1,23,25,27,29,31,33,35,37,39,-1,41,43,-1,45,47,49,51,53,55,-1,57,-1,59,61,63,-1,-1,-1,65,67,-1,69,71,73,-1,-1,-1,-1,-1,-1,-1,-1,-1,-1,-1,-1,-1,-1,-1,-1,-1,-1,-1,-1,-1,-1,-1,-1,-1,-1,-1,-1],"loss_changes":[9.830211E1,3.8510674E1,5.3843475E1,2.4311226E1,2.1448963E1,1.3240368E1,2.7499382E1,1.7233856E1,3.8233967E1,1.3886384E1,0E0,1.665657E0,0E0,2.0522543E1,6.3356094E0,2.6416702E0,1.608941E1,1.7417803E1,1.0128892E1,8.31229E0,1.697701E1,1.275959E0,0E0,2.2651808E1,6.3890085E0,0E0,2.0157547E0,1.634758E0,2.5896008E0,1.6773872E1,9.800415E0,7.552934E-2,0E0,6.739975E0,0E0,1.125519E1,4.901094E0,1.7458591E0,0E0,0E0,0E0,6.050579E0,1.1683538E1,0E0,1.6125355E0,1.0022583E0,4.64056E0,0E0,0E0,0E0,0E0,0E0,0E0,0E0,0E0,0E0,0E0,0E0,0E0,0E0,0E0,0E0,0E0,0E0,0E0,0E0,0E0,0E0,0E0,0E0,0E0,0E0,0E0,0E0,0E0],"parents":[2147483647,0,0,1,1,2,2,3,3,4,4,5,5,6,6,7,7,8,8,9,9,11,11,13,13,14,14,15,15,16,16,17,17,18,18,19,19,20,20,21,21,23,23,24,24,26,26,27,27,28,28,29,29,30,30,31,31,33,33,35,35,36,36,37,37,41,41,42,42,44,44,45,45,46,46],"right_children":[2,4,6,8,10,12,14,16,18,20,-1,22,-1,24,26,28,30,32,34,36,38,40,-1,42,44,-1,46,48,50,52,54,56,-1,58,-1,60,62,64,-1,-1,-1,66,68,-1,70,72,74,-1,-1,-1,-1,-1,-1,-1,-1,-1,-1,-1,-1,-1,-1,-1,-1,-1,-1,-1,-1,-1,-1,-1,-1,-1,-1,-1,-1],"split_conditions":[1.6666667E-1,1.5E-1,5.153754E-3,3.3333334E-1,2.8330928E-2,1.2294372E-1,2.5E-1,2.3815194E-4,2.826087E-1,1.9444445E-1,-1.07542634E-1,8.5906684E-2,-9.300127E-2,3.368068E-1,9.549048E-2,1.8020959E-1,4.1666668E-4,1.1286031E-1,2.638889E-1,1.6E-1,1E-1,2.9761906E-4,1.745794E-2,1.5199616E-2,2.3076923E-1,7.2395824E-2,5.0065875E-1,1.04E-1,5E-2,3.125E-1,2.0975778E-1,1.7179179E-4,-1.3383281E-1,7.4074075E-2,-1.0224327E-1,1.0416667E-3,2.5E-1,9.6E-2,-9.895599E-2,2.3883646E-2,1.22136906E-1,2.7605322E-1,5E-2,-8.078336E-2,7.5E-2,1E-1,2.6923078E-1,7.4290715E-2,1.1216203E-1,7.2159454E-2,-7.604536E-2,-1.5065436E-1,1.1418513E-1,5.74058E-2,-8.6347245E-2,9.257757E-2,3.3975065E-2,-8.620929E-2,9.1257595E-2,-1.0641482E-1,7.737011E-2,1.409242E-1,-6.156088E-2,1.410214E-2,1.17134154E-1,3.0968487E-2,2.19665E-1,1.1329307E-2,-9.5958896E-2,1.0276597E-1,1.5076791E-2,-1.0917258E-1,-7.4862644E-2,7.88693E-2,-9.623366E-2],"split_indices":[7,2,0,8,26,20,30,16,21,36,0,20,0,21,21,0,19,18,27,5,5,22,0,20,11,0,21,32,2,37,0,0,0,20,0,22,4,32,0,0,0,18,2,0,5,31,11,0,0,0,0,0,0,0,0,0,0,0,0,0,0,0,0,0,0,0,0,0,0,0,0,0,0,0,0],"split_type":[0,0,0,0,0,0,0,0,0,0,0,0,0,0,0,0,0,0,0,0,0,0,0,0,0,0,0,0,0,0,0,0,0,0,0,0,0,0,0,0,0,0,0,0,0,0,0,0,0,0,0,0,0,0,0,0,0,0,0,0,0,0,0,0,0,0,0,0,0,0,0,0,0,0,0],"sum_hessian":[5.688084E2,3.3869498E2,2.301134E2,2.698016E2,6.889338E1,2.6599152E1,2.0351425E2,2.1160387E2,5.8197727E1,4.4816273E1,2.407711E1,2.3501135E1,3.098016E0,8.050392E1,1.2301034E2,8.9120255E1,1.2248362E2,2.5344427E1,3.2853302E1,2.2863453E1,2.1952818E1,2.1137724E1,2.363412E0,6.2624676E1,1.7879244E1,1.4670442E0,1.215433E2,8.639591E1,2.724341E0,9.720174E0,1.1276344E2,4.251357E0,2.1093071E1,3.0322535E1,2.5307653E0,1.9246563E1,3.6168907E0,1.7641678E1,4.311141E0,2.0076306E0,1.9130093E1,6.7081823E0,5.5916492E1,1.7625009E0,1.6116743E1,1.1726393E2,4.279363E0,2.5519775E1,6.0876137E1,1.460031E0,1.26431E0,7.183433E0,2.5367405E0,1.0866755E2,4.095895E0,2.0101342E0,2.241223E0,1.5348217E0,2.8787714E1,1.5864877E1,3.3816857E0,2.4995332E0,1.1173574E0,2.1557348E0,1.5485943E1,4.550058E0,2.1581247E0,1.2940346E1,4.2976147E1,1.3208926E1,2.9078176E0,9.679828E1,2.0465652E1,1.6559317E0,2.6234314E0],"tree_param":{"num_deleted":"0","num_feature":"45","num_nodes":"75","size_leaf_vector":"1"}},{"base_weights":[2.7469732E-2,-1.0403804E-1,1.8927437E-1,3.753479E-1,-5.1243436E-1,5.998308E-1,-1.5064931E-1,5.321111E-1,-9.549084E-1,6.5913767E-1,-6.7470986E-1,2.5557426E-1,-7.346764E-1,8.200309E-1,-9.1150485E-2,-1.0343304E0,1.0204569E-1,6.873963E-1,-9.858562E-2,-1.018688E-1,4.5254458E-2,5.200337E-1,-6.765339E-1,1.362001E-1,-9.514246E-1,9.774715E-1,-1.4130183E-1,2.2455329E-1,-1.1069055E-1,7.176172E-2,-8.8096544E-2,-1.3018954E-1,6.2214535E-2,-1.1806196E-1,5.8267023E-2,-1.0290133E-1,7.208909E-2,-1.8381117E-2,-1.1445601E-1,3.1530734E-2,1.2167497E-1,7.131534E-2,-7.800451E-2,9.005937E-2,-7.345718E-2],"categories":[],"categories_nodes":[],"categories_segments":[],"categories_sizes":[],"default_left":[0,0,0,0,0,0,0,0,0,0,0,0,0,0,0,0,0,0,0,0,0,0,0,0,0,0,0,0,0,0,0,0,0,0,0,0,0,0,0,0,0,0,0,0,0],"id":18,"left_children":[1,-1,3,5,7,9,11,13,15,17,19,21,23,25,-1,27,-1,29,-1,-1,-1,31,33,35,37,39,41,43,-1,-1,-1,-1,-1,-1,-1,-1,-1,-1,-1,-1,-1,-1,-1,-1,-1],"loss_changes":[9.337969E1,0E0,6.145372E1,4.394725E1,4.6154015E1,2.0137596E1,2.6735435E1,1.3229023E1,1.199556E1,1.2273308E1,5.1442213E0,1.6802982E1,8.843142E0,4.0070686E0,0E0,6.41864E0,0E0,1.22836E1,0E0,0E0,0E0,1.0586945E1,1.0326313E1,7.6052375E0,5.2879906E0,3.1165504E0,2.996466E0,3.5874577E0,0E0,0E0,0E0,0E0,0E0,0E0,0E0,0E0,0E0,0E0,0E0,0E0,0E0,0E0,0E0,0E0,0E0],"parents":[2147483647,0,0,2,2,3,3,4,4,5,5,6,6,7,7,8,8,9,9,10,10,11,11,12,12,13,13,15,15,17,17,21,21,22,22,23,23,24,24,25,25,26,26,27,27],"right_children":[2,-1,4,6,8,10,12,14,16,18,20,22,24,26,-1,28,-1,30,-1,-1,-1,32,34,36,38,40,42,44,-1,-1,-1,-1,-1,-1,-1,-1,-1,-1,-1,-1,-1,-1,-1,-1,-1],"split_conditions":[2.7777778E-2,-1.0403804E-1,3.7901758E-4,3.3333334E-1,3.992241E-2,2.0201589E-4,5E-2,4.4444446E-2,8.888889E-1,1.5E-1,2.057971E-1,8.7452994E-5,1.443051E-2,1.5555556E-1,-9.1150485E-2,1.2530062E-2,1.0204569E-1,1.884058E-1,-9.858562E-2,-1.018688E-1,4.5254458E-2,1.2941177E-1,3.753144E-1,1.5555556E-1,1.788726E-4,7.2E-2,1.7179179E-4,4.509031E-2,-1.1069055E-1,7.176172E-2,-8.8096544E-2,-1.3018954E-1,6.2214535E-2,-1.1806196E-1,5.8267023E-2,-1.0290133E-1,7.208909E-2,-1.8381117E-2,-1.1445601E-1,3.1530734E-2,1.2167497E-1,7.131534E-2,-7.800451E-2,9.005937E-2,-7.345718E-2],"split_indices":[38,0,16,8,15,1,3,23,12,28,17,1,0,3,0,20,0,35,0,0,0,30,21,36,16,32,0,15,0,0,0,0,0,0,0,0,0,0,0,0,0,0,0,0,0],"split_type":[0,0,0,0,0,0,0,0,0,0,0,0,0,0,0,0,0,0,0,0,0,0,0,0,0,0,0,0,0,0,0,0,0,0,0,0,0,0,0,0,0,0,0,0,0],"sum_hessian":[5.383049E2,7.011858E1,4.6818625E2,3.70425E2,9.776127E1,2.5952545E2,1.1089954E2,2.9029333E1,6.873193E1,2.4844754E2,1.1077908E1,6.573769E1,4.5161854E1,2.456247E1,4.4668636E0,6.6533264E1,2.1986651E0,2.4482394E2,3.6235933E0,8.561656E0,2.5162513E0,5.155305E1,1.418464E1,9.074177E0,3.6087677E1,2.1091465E1,3.4710047E0,3.5124516E0,6.3020817E1,2.4072778E2,4.096165E0,2.1124196E0,4.944063E1,1.017413E1,4.0105095E0,2.7780178E0,6.296159E0,7.646907E0,2.8440771E1,6.213723E0,1.4877742E1,1.4349538E0,2.036051E0,2.0960643E0,1.4163874E0],"tree_param":{"num_deleted":"0","num_feature":"45","num_nodes":"45","size_leaf_vector":"1"}},{"base_weights":[3.5956854E-3,-1.0336434E-1,1.5170372E-1,3.343398E-1,-5.095019E-1,5.6909716E-1,-2.2870436E-2,-8.207742E-1,1.0218897E0,6.477629E-1,-3.6331776E-1,-2.659142E-1,7.909608E-1,-1.06578626E-1,-2.9922208E-1,1.1087119E-1,3.2236632E-2,7.2360116E-1,-2.744682E-1,-9.206746E-1,7.267386E-1,2.655223E-1,-7.5925225E-1,8.9031816E-1,-9.340383E-2,-1.0186192E-1,2.344648E-1,-8.879106E-2,7.5411506E-2,-8.279883E-2,9.990266E-2,9.320227E-2,-1.3875335E-1,2.4749016E-2,9.4629616E-2,4.814169E-2,-8.173884E-2,6.914139E-3,-1.1238146E-1,3.6105152E-2,1.05711795E-1,9.370391E-2,-9.119998E-2],"categories":[],"categories_nodes":[],"categories_segments":[],"categories_sizes":[],"default_left":[0,0,0,0,0,0,0,0,0,0,0,0,0,0,0,0,0,0,0,0,0,0,0,0,0,0,0,0,0,0,0,0,0,0,0,0,0,0,0,0,0,0,0],"id":19,"left_children":[1,-1,3,5,7,9,11,13,15,17,19,21,23,-1,25,-1,-1,27,29,31,33,35,37,39,-1,-1,41,-1,-1,-1,-1,-1,-1,-1,-1,-1,-1,-1,-1,-1,-1,-1,-1],"loss_changes":[8.054634E1,0E0,5.5572258E1,3.0208996E1,4.8359512E1,1.6175919E1,2.864578E1,1.0339172E1,6.924248E-1,1.4240921E1,1.1331183E1,2.9421194E1,6.540901E0,0E0,1.1007639E1,0E0,0E0,9.80574E0,1.2092208E1,1.1718543E1,4.4934678E-1,1.3110517E1,1.7610542E1,2.4441624E0,0E0,0E0,1.4479757E1,0E0,0E0,0E0,0E0,0E0,0E0,0E0,0E0,0E0,0E0,0E0,0E0,0E0,0E0,0E0,0E0],"parents":[2147483647,0,0,2,2,3,3,4,4,5,5,6,6,7,7,8,8,9,9,10,10,11,11,12,12,14,14,17,17,18,18,19,19,20,20,21,21,22,22,23,23,26,26],"right_children":[2,-1,4,6,8,10,12,14,16,18,20,22,24,-1,26,-1,-1,28,30,32,34,36,38,40,-1,-1,42,-1,-1,-1,-1,-1,-1,-1,-1,-1,-1,-1,-1,-1,-1,-1,-1],"split_conditions":[2.7777778E-2,-1.0336434E-1,8.3333336E-2,2E-1,1.0416667E-3,2.2727273E-1,1.09505035E-1,3.3333334E-1,7.5E-2,1.5444082E-1,8.695652E-2,3.0235354E-2,2.24E-1,-1.06578626E-1,2.6302552E-1,1.1087119E-1,3.2236632E-2,3.134921E-2,8.571429E-2,1.7179179E-4,2.9534367E-1,5.4064453E-2,4.160654E-2,3.3503327E-1,-9.340383E-2,-1.0186192E-1,4.707095E-2,-8.879106E-2,7.5411506E-2,-8.279883E-2,9.990266E-2,9.320227E-2,-1.3875335E-1,2.4749016E-2,9.4629616E-2,4.814169E-2,-8.173884E-2,6.914139E-3,-1.1238146E-1,3.6105152E-2,1.05711795E-1,9.370391E-2,-9.119998E-2],"split_indices":[38,0,3,27,22,31,15,27,5,0,35,0,32,0,21,0,0,23,5,0,18,26,20,18,0,0,0,0,0,0,0,0,0,0,0,0,0,0,0,0,0,0,0],"split_type":[0,0,0,0,0,0,0,0,0,0,0,0,0,0,0,0,0,0,0,0,0,0,0,0,0,0,0,0,0,0,0,0,0,0,0,0,0,0,0,0,0,0,0],"sum_hessian":[5.2228955E2,6.4512535E1,4.57777E2,3.5908582E2,9.8691185E1,2.1632475E2,1.4276106E2,8.24054E1,1.6285776E1,1.9977544E2,1.6549316E1,1.1044952E2,3.231155E1,5.5356724E1,2.7048681E1,1.3967261E1,2.318515E0,1.8479453E2,1.4980914E1,1.1053127E1,5.4961886E0,5.339395E1,5.7055565E1,3.1009335E1,1.3022175E0,1.1133009E1,1.5915673E1,2.911889E0,1.8188263E2,1.0686078E1,4.2948365E0,2.0241318E0,9.0289955E0,2.3951964E0,3.1009922E0,4.498163E1,8.412326E0,1.768358E1,3.9371986E1,8.189163E0,2.2820171E1,9.9815E0,5.9341736E0],"tree_param":{"num_deleted":"0","num_feature":"45","num_nodes":"43","size_leaf_vector":"1"}},{"base_weights":[-1.5095199E-2,-1.02688335E-1,1.20176144E-1,3.0930626E-1,-6.492593E-1,7.009197E-2,6.849584E-1,8.541952E-1,-8.8554806E-1,6.121799E-1,-2.4024972E-1,-6.9340634E-1,7.4648654E-1,1.04597956E-1,1.0564417E-1,-9.6729815E-1,6.7195795E-2,-7.7319825E-1,7.6561683E-1,4.6556637E-1,-6.7856705E-1,5.9954733E-2,-1.0822351E-1,-5.5380706E-2,8.0505705E-1,6.998638E-2,-6.470912E-2,3.418618E-1,-1.06302276E-1,6.7967236E-2,-1.23346426E-1,-9.91134E-2,8.405696E-2,9.8515205E-2,1.17062405E-2,-1.1078179E-1,-2.8855776E-2,8.3546065E-2,-1.2908268E-1,9.0612E-2,3.62472E-2,-7.71819E-2,1.1254332E-1],"categories":[],"categories_nodes":[],"categories_segments":[],"categories_sizes":[],"default_left":[0,0,0,0,0,0,0,0,0,0,0,0,0,0,0,0,0,0,0,0,0,0,0,0,0,0,0,0,0,0,0,0,0,0,0,0,0,0,0,0,0,0,0],"id":20,"left_children":[1,-1,3,5,7,9,11,13,15,17,19,21,23,25,-1,27,-1,29,31,33,35,-1,-1,37,39,-1,-1,41,-1,-1,-1,-1,-1,-1,-1,-1,-1,-1,-1,-1,-1,-1,-1],"loss_changes":[6.7180984E1,0E0,6.322217E1,3.1250484E1,3.1225838E1,3.613304E1,1.1999947E1,1.7326927E0,1.0149914E1,1.7205894E1,4.2621872E1,3.8180368E0,6.1542435E0,2.105419E0,0E0,9.298653E0,0E0,6.3824444E0,1.0164452E1,9.478396E0,1.3871304E1,0E0,0E0,1.1854028E1,5.097046E0,0E0,0E0,5.7684097E0,0E0,0E0,0E0,0E0,0E0,0E0,0E0,0E0,0E0,0E0,0E0,0E0,0E0,0E0,0E0],"parents":[2147483647,0,0,2,2,3,3,4,4,5,5,6,6,7,7,8,8,9,9,10,10,11,11,12,12,13,13,15,15,17,17,18,18,19,19,20,20,23,23,24,24,27,27],"right_children":[2,-1,4,6,8,10,12,14,16,18,20,22,24,26,-1,28,-1,30,32,34,36,-1,-1,38,40,-1,-1,42,-1,-1,-1,-1,-1,-1,-1,-1,-1,-1,-1,-1,-1,-1,-1],"split_conditions":[2.7777778E-2,-1.02688335E-1,8.3333336E-2,1.09505035E-1,1.2073302E-1,1.7857143E-1,1.3095239E-1,1.2386969E-3,7.058824E-1,1.5021645E-1,4.5743145E-2,1.7179179E-4,2.2817104E-1,2.5E-1,1.0564417E-1,4.0625628E-6,6.7195795E-2,5.662514E-4,1.5555556E-1,3.1632055E-5,8.570594E-2,5.9954733E-2,-1.0822351E-1,2.2828282E-1,1.1011854E-1,6.998638E-2,-6.470912E-2,2.2332931E-3,-1.06302276E-1,6.7967236E-2,-1.23346426E-1,-9.91134E-2,8.405696E-2,9.8515205E-2,1.17062405E-2,-1.1078179E-1,-2.8855776E-2,8.3546065E-2,-1.2908268E-1,9.0612E-2,3.62472E-2,-7.71819E-2,1.1254332E-1],"split_indices":[38,0,3,15,21,27,27,19,30,10,20,0,21,6,0,1,0,19,36,1,15,0,0,10,0,0,0,0,0,0,0,0,0,0,0,0,0,0,0,0,0,0,0],"split_type":[0,0,0,0,0,0,0,0,0,0,0,0,0,0,0,0,0,0,0,0,0,0,0,0,0,0,0,0,0,0,0,0,0,0,0,0,0,0,0,0,0,0,0],"sum_hessian":[4.889508E2,5.6884075E1,4.3206674E2,3.4729767E2,8.476906E1,2.1290617E2,1.3439151E2,1.1158008E1,7.361105E1,7.715807E1,1.357481E2,5.303856E0,1.2908765E2,2.6932068E0,8.464801E0,7.03001E1,3.3109539E0,7.2907653E0,6.986731E1,5.198126E1,8.376684E1,1.1009591E0,4.202897E0,8.790773E0,1.20296875E2,1.5414618E0,1.151745E0,4.614837E0,6.5685265E1,1.6393418E0,5.6514235E0,2.3587692E0,6.750854E1,2.0135048E1,3.184621E1,3.9001087E1,4.4765747E1,5.2958555E0,3.4949174E0,9.7081314E1,2.321556E1,1.9121373E0,2.7026997E0],"tree_param":{"num_deleted":"0","num_feature":"45","num_nodes":"43","size_leaf_vector":"1"}},{"base_weights":[5.169325E-2,-1.0211513E-1,1.8790175E-1,3.34938E-1,-4.2569128E-1,4.2587042E-1,-3.6389974E-1,-6.216789E-1,9.2378706E-1,5.6999844E-1,4.0277336E-2,-6.361424E-1,1.03295565E-1,-8.372336E-1,4.8535195E-1,1.0248705E-1,3.210948E-2,-1.10453226E-1,5.9880906E-1,-5.6052077E-1,4.0568778E-1,5.520568E-1,-1.05221294E-1,-9.315453E-1,6.1202537E-2,-9.35059E-2,2.2274516E0,9.3905017E-4,6.6236824E-2,8.525327E-2,-9.6425846E-2,8.0301866E-2,-9.119072E-2,-9.481698E-2,9.838756E-2,-1.0502535E-1,-1.3654614E-2,2.974606E-1,1.2334674E-1],"categories":[],"categories_nodes":[],"categories_segments":[],"categories_sizes":[],"default_left":[0,0,0,0,0,0,0,0,0,0,0,0,0,0,0,0,0,0,0,0,0,0,0,0,0,0,0,0,0,0,0,0,0,0,0,0,0,0,0],"id":21,"left_children":[1,-1,3,5,7,9,11,13,15,17,19,21,-1,23,25,-1,-1,-1,27,29,31,33,-1,35,-1,-1,37,-1,-1,-1,-1,-1,-1,-1,-1,-1,-1,-1,-1],"loss_changes":[6.993615E1,0E0,3.8427612E1,2.194392E1,2.238628E1,1.686407E1,1.5875141E1,1.7732994E1,3.3258247E-1,1.1328705E1,1.8614035E1,1.7443653E1,0E0,8.9272995E0,3.2932377E1,0E0,0E0,0E0,8.1614E0,1.913171E1,2.8299675E1,7.088651E0,0E0,5.3117065E0,0E0,0E0,7.0897675E-1,0E0,0E0,0E0,0E0,0E0,0E0,0E0,0E0,0E0,0E0,0E0,0E0],"parents":[2147483647,0,0,2,2,3,3,4,4,5,5,6,6,7,7,8,8,9,9,10,10,11,11,13,13,14,14,18,18,19,19,20,20,21,21,23,23,26,26],"right_children":[2,-1,4,6,8,10,12,14,16,18,20,22,-1,24,26,-1,-1,-1,28,30,32,34,-1,36,-1,-1,38,-1,-1,-1,-1,-1,-1,-1,-1,-1,-1,-1,-1],"split_conditions":[2.7777778E-2,-1.0211513E-1,8.3333336E-2,1.5017051E-4,1.0416667E-3,3.3333334E-1,1.3774105E-3,1.7857143E-1,3.6075037E-2,1.4781354E-2,2.6877472E-1,1.9349845E-4,1.03295565E-1,7.058824E-1,2.1428572E-1,1.0248705E-1,3.210948E-2,-1.10453226E-1,1.72949E-1,1.3747229E-1,4.2900044E-4,1.4285715E-1,-1.05221294E-1,3.2357723E-1,6.1202537E-2,-9.35059E-2,5E-1,9.3905017E-4,6.6236824E-2,8.525327E-2,-9.6425846E-2,8.0301866E-2,-9.119072E-2,-9.481698E-2,9.838756E-2,-1.0502535E-1,-1.3654614E-2,2.974606E-1,1.2334674E-1],"split_indices":[38,0,3,1,22,8,19,31,10,17,21,16,0,30,27,0,0,0,18,18,25,27,0,18,0,0,9,0,0,0,0,0,0,0,0,0,0,0,0],"split_type":[0,0,0,0,0,0,0,0,0,0,0,0,0,0,0,0,0,0,0,0,0,0,0,0,0,0,0,0,0,0,0,0,0,0,0,0,0,0,0],"sum_hessian":[4.7627374E2,5.2923725E1,4.2335E2,3.4187915E2,8.147088E1,3.0286154E2,3.9017597E1,7.1610115E1,9.860769E0,2.2011E2,8.275154E1,3.310929E1,5.908305E0,6.0143105E1,1.1467009E1,7.8445883E0,2.0161812E0,3.0914485E0,2.1701855E2,3.1093874E1,5.1657665E1,8.502196E0,2.4607096E1,5.6803776E1,3.3393264E0,6.5719028E0,4.895106E0,2.1235748E1,1.957828E2,6.6628323E0,2.4431042E1,3.9989166E1,1.1668497E1,1.633014E0,6.8691816E0,4.914451E1,7.659268E0,1.6569827E0,3.2381234E0],"tree_param":{"num_deleted":"0","num_feature":"45","num_nodes":"39","size_leaf_vector":"1"}},{"base_weights":[-2.1709166E-3,-1.0151853E-1,1.20210156E-1,4.746807E-1,-1.2149063E-1,5.7670224E-1,-9.16687E-1,3.6951447E-1,-4.641809E-1,7.055949E-1,1.1205518E-2,5.8205735E-2,-1.1234658E-1,9.8552364E-1,4.3717034E-2,-1.5626512E-1,-1.1111507E0,-4.2383727E-2,8.050263E-1,-5.804101E-1,8.297574E-1,1.068995E0,2.0814194E-1,3.323051E-1,-9.598049E-1,-6.4283943E-1,1.7320389E-1,-1.487125E-1,-1.1780615E-1,-1.4252235E-1,6.4014144E-2,7.575937E-2,2.118444E-1,5.5120587E-2,-1.2226436E-1,1.0916221E-1,-7.74021E-2,4.6878982E-2,1.1078638E-1,6.593486E-2,-1.6899668E-2,-4.3533756E-3,8.162258E-2,8.285416E-2,-1.2632035E-1,-8.189088E-2,1.3499285E-1,3.229615E-2,-7.360727E-2,7.7055745E-2,-1.051173E-1],"categories":[],"categories_nodes":[],"categories_segments":[],"categories_sizes":[],"default_left":[0,0,0,0,0,0,0,0,0,0,0,0,0,0,0,0,0,0,0,0,0,0,0,0,0,0,0,0,0,0,0,0,0,0,0,0,0,0,0,0,0,0,0,0,0,0,0,0,0,0,0],"id":22,"left_children":[1,-1,3,5,7,9,11,13,15,17,19,-1,-1,21,23,25,27,29,31,33,35,37,39,41,43,45,47,49,-1,-1,-1,-1,-1,-1,-1,-1,-1,-1,-1,-1,-1,-1,-1,-1,-1,-1,-1,-1,-1,-1,-1],"loss_changes":[5.562369E1,0E0,3.4356068E1,2.3596199E1,4.035641E1,1.1072403E1,4.2140856E0,1.9770386E1,2.7934752E1,9.240238E0,1.4638527E1,0E0,0E0,1.9905548E0,1.9322628E1,1.5623453E1,2.7442856E0,1.5517292E1,5.204933E0,1.3434051E1,6.16858E0,1.9350433E-1,8.854767E-1,9.439693E0,9.138165E0,1.4887148E1,8.201472E0,4.204232E0,0E0,0E0,0E0,0E0,0E0,0E0,0E0,0E0,0E0,0E0,0E0,0E0,0E0,0E0,0E0,0E0,0E0,0E0,0E0,0E0,0E0,0E0,0E0],"parents":[2147483647,0,0,2,2,3,3,4,4,5,5,6,6,7,7,8,8,9,9,10,10,13,13,14,14,15,15,16,16,17,17,18,18,19,19,20,20,21,21,22,22,23,23,24,24,25,25,26,26,27,27],"right_children":[2,-1,4,6,8,10,12,14,16,18,20,-1,-1,22,24,26,28,30,32,34,36,38,40,42,44,46,48,50,-1,-1,-1,-1,-1,-1,-1,-1,-1,-1,-1,-1,-1,-1,-1,-1,-1,-1,-1,-1,-1,-1,-1],"split_conditions":[2.7777778E-2,-1.0151853E-1,2.540973E-4,1.0606061E-1,4.341416E-5,1.1011854E-1,1.7179179E-4,1.7857143E-1,4.059644E-2,2.3104563E-1,3.7694013E-1,5.8205735E-2,-1.1234658E-1,7.5E-2,3.3333334E-1,6.25E-2,4.7524685E-5,6.36436E-4,6.666667E-1,1.6666667E-1,1.9349845E-4,1.6176471E-1,2.768166E-4,2.7817952E-5,1.7179179E-4,4.1666666E-1,1.14285715E-1,2.8571429E-2,-1.1780615E-1,-1.4252235E-1,6.4014144E-2,7.575937E-2,2.118444E-1,5.5120587E-2,-1.2226436E-1,1.0916221E-1,-7.74021E-2,4.6878982E-2,1.1078638E-1,6.593486E-2,-1.6899668E-2,-4.3533756E-3,8.162258E-2,8.285416E-2,-1.2632035E-1,-8.189088E-2,1.3499285E-1,3.229615E-2,-7.360727E-2,7.7055745E-2,-1.051173E-1],"split_indices":[38,0,16,28,1,0,0,27,26,21,18,0,0,5,8,28,1,22,42,37,16,30,16,1,0,37,5,3,0,0,0,0,0,0,0,0,0,0,0,0,0,0,0,0,0,0,0,0,0,0,0],"split_type":[0,0,0,0,0,0,0,0,0,0,0,0,0,0,0,0,0,0,0,0,0,0,0,0,0,0,0,0,0,0,0,0,0,0,0,0,0,0,0,0,0,0,0,0,0,0,0,0,0,0,0],"sum_hessian":[4.466887E2,4.736098E1,3.993277E2,1.6150533E2,2.3782239E2,1.5101753E2,1.0487792E1,9.7724655E1,1.4009773E2,1.22783875E2,2.8233656E1,1.0515096E0,9.436282E0,3.310522E1,6.461943E1,9.576251E1,4.4335224E1,1.4474245E1,1.0830963E2,1.6557503E1,1.1676152E1,2.9556473E1,3.548748E0,5.070639E1,1.3913042E1,3.8279106E1,5.7483402E1,3.0913978E0,4.1243824E1,4.423595E0,1.005065E1,1.0605634E2,2.253289E0,6.0460663E0,1.0511437E1,1.0311789E1,1.364364E0,2.5920043E0,2.6964468E1,1.2750237E0,2.2737243E0,2.9052608E1,2.1653782E1,1.7669723E0,1.214607E1,3.571279E1,2.5663152E0,4.990833E1,7.5750732E0,1.6038418E0,1.4875559E0],"tree_param":{"num_deleted":"0","num_feature":"45","num_nodes":"51","size_leaf_vector":"1"}},{"base_weights":[4.443482E-2,-1.0096556E-1,1.6307922E-1,2.581431E-1,-4.2597556E-1,-2.6285586E-1,3.677212E-1,-8.6637616E-1,1.0363362E-1,9.173342E-2,-9.223941E-1,4.0117455E-1,-1.02078915E-1,-1.0394794E-1,4.655964E-1,3.075915E-1,-9.1676556E-2,5.970052E-2,-1.0363859E-1,4.2540786E-1,-9.5453136E-2,-1.718056E-4,6.778394E-2,-1.13477886E-1,4.668153E-2,4.4676527E-2,-9.6074246E-2],"categories":[],"categories_nodes":[],"categories_segments":[],"categories_sizes":[],"default_left":[0,0,0,0,0,0,0,0,0,0,0,0,0,0,0,0,0,0,0,0,0,0,0,0,0,0,0],"id":23,"left_children":[1,-1,3,5,7,9,11,13,-1,15,17,19,-1,-1,21,23,-1,-1,-1,25,-1,-1,-1,-1,-1,-1,-1],"loss_changes":[5.4770016E1,0E0,2.2134716E1,1.9466345E1,3.6338364E1,1.4009372E1,1.3450031E1,1.036124E1,0E0,8.909713E0,4.2401886E0,9.435913E0,0E0,0E0,5.5834687E-1,8.198988E0,0E0,0E0,0E0,8.443748E0,0E0,0E0,0E0,0E0,0E0,0E0,0E0],"parents":[2147483647,0,0,2,2,3,3,4,4,5,5,6,6,7,7,9,9,10,10,11,11,14,14,15,15,19,19],"right_children":[2,-1,4,6,8,10,12,14,-1,16,18,20,-1,-1,22,24,-1,-1,-1,26,-1,-1,-1,-1,-1,-1,-1],"split_conditions":[2.7777778E-2,-1.0096556E-1,1.6340648E-4,6.772626E-2,1.3774105E-3,8.3333336E-2,2.777778E-1,7.170569E-1,1.0363362E-1,1.5E-1,3.6075037E-2,6.25E-1,-1.02078915E-1,-1.0394794E-1,2.08E-1,7.936508E-2,-9.1676556E-2,5.970052E-2,-1.0363859E-1,1.8020959E-1,-9.5453136E-2,-1.718056E-4,6.778394E-2,-1.13477886E-1,4.668153E-2,4.4676527E-2,-9.6074246E-2],"split_indices":[38,0,1,15,19,7,31,24,0,3,10,4,0,0,32,10,0,0,0,0,0,0,0,0,0,0,0],"split_type":[0,0,0,0,0,0,0,0,0,0,0,0,0,0,0,0,0,0,0,0,0,0,0,0,0,0,0],"sum_hessian":[4.3562662E2,4.3312138E1,3.9231448E2,3.382829E2,5.403159E1,5.8541817E1,2.797411E2,4.1838676E1,1.2192915E1,3.863259E1,1.9909227E1,2.738542E2,5.886888E0,3.7221024E1,4.617652E0,3.239401E1,6.23858E0,1.0937223E0,1.8815506E1,2.6971915E2,4.1350336E0,1.7520065E0,2.8656454E0,2.6113615E0,2.9782648E1,2.6629388E2,3.4252856E0],"tree_param":{"num_deleted":"0","num_feature":"45","num_nodes":"27","size_leaf_vector":"1"}},{"base_weights":[8.5836705E-3,-1.00452654E-1,1.1777824E-1,4.3179765E-1,-1.3578208E-1,7.053706E-1,2.3776375E-1,6.5238014E-2,-1.0849886E0,7.821888E-1,-8.975882E-2,5.790614E-1,-2.4752592E-1,2.951223E-1,-5.2016157E-1,7.164298E-2,-1.1990141E0,1.9392459E-1,8.817385E-1,-9.423268E-2,6.5942645E-1,8.5113466E-2,-8.979383E-1,-8.109852E-1,3.9134267E-1,-8.795115E-1,1.0157894E0,3.9833557E-2,-1.2904986E0,9.482836E-2,-6.0377207E-2,9.368516E-2,-8.431026E-2,7.509706E-2,-4.0991344E-2,-7.513673E-2,4.2479437E-2,2.170114E-2,-1.2556508E-1,-1.10197164E-1,6.4649075E-2,2.5010426E-2,9.729214E-2,-9.897723E-2,7.851534E-2,1.24814056E-1,-4.1868556E-3,-1.5483518E-1,-1.05779566E-1],"categories":[],"categories_nodes":[],"categories_segments":[],"categories_sizes":[],"default_left":[0,0,0,0,0,0,0,0,0,0,0,0,0,0,0,0,0,0,0,0,0,0,0,0,0,0,0,0,0,0,0,0,0,0,0,0,0,0,0,0,0,0,0,0,0,0,0,0,0],"id":24,"left_children":[1,-1,3,5,7,9,11,13,15,17,-1,19,21,23,25,-1,27,29,31,-1,33,35,37,39,41,43,45,-1,47,-1,-1,-1,-1,-1,-1,-1,-1,-1,-1,-1,-1,-1,-1,-1,-1,-1,-1,-1,-1],"loss_changes":[4.613764E1,0E0,3.0029556E1,8.771208E0,3.9952682E1,9.243805E0,1.6710949E1,2.3492565E1,8.373886E0,3.736824E0,0E0,7.838358E0,9.163776E0,1.3638737E1,2.808406E1,0E0,5.5967484E0,7.155698E0,6.188404E0,0E0,5.8537235E0,8.474842E0,5.9754353E0,5.0986323E0,9.270531E0,8.203262E0,2.4616756E0,0E0,3.5024643E-1,0E0,0E0,0E0,0E0,0E0,0E0,0E0,0E0,0E0,0E0,0E0,0E0,0E0,0E0,0E0,0E0,0E0,0E0,0E0,0E0],"parents":[2147483647,0,0,2,2,3,3,4,4,5,5,6,6,7,7,8,8,9,9,11,11,12,12,13,13,14,14,16,16,17,17,18,18,20,20,21,21,22,22,23,23,24,24,25,25,26,26,28,28],"right_children":[2,-1,4,6,8,10,12,14,16,18,-1,20,22,24,26,-1,28,30,32,-1,34,36,38,40,42,44,46,-1,48,-1,-1,-1,-1,-1,-1,-1,-1,-1,-1,-1,-1,-1,-1,-1,-1,-1,-1,-1,-1],"split_conditions":[2.7777778E-2,-1.00452654E-1,3.0235354E-2,2.6419273E-4,5.482456E-4,1.1666667E-1,2.1388789E-1,2.3333333E-1,3.6075037E-2,2.240987E-1,-8.975882E-2,2.6041666E-2,3.3333334E-1,1.3235295E-1,4.7694013E-1,7.164298E-2,3.2468647E-2,3.5183945E-1,7.5E-2,-9.423268E-2,1.25E-1,2.6302552E-1,5E-2,1.0144927E-1,3.6637807E-1,1.1459129E-3,3.0769232E-1,3.9833557E-2,1.0053151E-4,9.482836E-2,-6.0377207E-2,9.368516E-2,-8.431026E-2,7.509706E-2,-4.0991344E-2,-7.513673E-2,4.2479437E-2,2.170114E-2,-1.2556508E-1,-1.10197164E-1,6.4649075E-2,2.5010426E-2,9.729214E-2,-9.897723E-2,7.851534E-2,1.24814056E-1,-4.1868556E-3,-1.5483518E-1,-1.05779566E-1],"split_indices":[38,0,0,16,25,28,21,27,10,21,0,29,8,30,18,0,0,24,3,0,3,21,2,35,10,16,11,0,1,0,0,0,0,0,0,0,0,0,0,0,0,0,0,0,0,0,0,0,0],"split_type":[0,0,0,0,0,0,0,0,0,0,0,0,0,0,0,0,0,0,0,0,0,0,0,0,0,0,0,0,0,0,0,0,0,0,0,0,0,0,0,0,0,0,0,0,0,0,0,0,0],"sum_hessian":[4.1498972E2,3.9578632E1,3.7541107E2,1.6739694E2,2.0801411E2,6.8368E1,9.902895E1,1.7242891E2,3.5585205E1,6.5730064E1,2.6379304E0,5.8026485E1,4.100247E1,1.2416545E2,4.826346E1,1.8038726E0,3.3781334E1,9.940015E0,5.579005E1,2.3732383E0,5.5653248E1,2.7703333E1,1.3299133E1,9.342277E0,1.1482318E2,3.9459038E1,8.804422E0,1.6482493E0,3.2133083E1,5.0117593E0,4.9282556E0,5.4505314E1,1.284737E0,5.153883E1,4.114416E0,7.6508255E0,2.005251E1,3.325927E0,9.9732065E0,7.99082E0,1.3514565E0,9.353735E1,2.1285826E1,3.7388027E1,2.0710115E0,7.070946E0,1.7334764E0,1.2560878E1,1.9572206E1],"tree_param":{"num_deleted":"0","num_feature":"45","num_nodes":"49","size_leaf_vector":"1"}},{"base_weights":[5.053995E-2,-9.990512E-2,1.5252678E-1,4.308186E-1,-8.4994145E-2,6.586698E-1,2.3177259E-1,-3.4390005E-1,2.8351524E-1,3.3322766E-1,9.049204E-1,5.466661E-1,-3.2626754E-1,-1.3595724E-2,-1.16607204E-1,-8.377449E-1,4.1943076E-1,4.982148E-1,-2.1104364E-1,-1.9186984E-4,9.4562757E-1,1.9810173E-1,7.594632E-1,-1.3443951E-1,-1.0138303E-2,-3.4478122E-1,4.2619744E-1,6.571032E-2,-1.1902314E-1,2.558584E-1,1.1020026E0,7.448966E-2,-1.5587772E-2,9.800746E-2,1.1239922E-2,6.1840206E-2,-1.0811696E-1,4.8718896E-2,1.140177E-1,4.7008157E-2,-6.25441E-2,2.4175657E-2,-9.461285E-2,7.827709E-2,-2.2010855E-2,-1.7863618E-1,3.334143E-2,1.1429882E-1,3.476974E-2],"categories":[],"categories_nodes":[],"categories_segments":[],"categories_sizes":[],"default_left":[0,0,0,0,0,0,0,0,0,0,0,0,0,0,0,0,0,0,0,0,0,0,0,0,0,0,0,0,0,0,0,0,0,0,0,0,0,0,0,0,0,0,0,0,0,0,0,0,0],"id":25,"left_children":[1,-1,3,5,7,9,11,13,15,17,19,21,23,25,-1,27,29,31,-1,-1,33,35,37,-1,39,41,43,-1,-1,45,47,-1,-1,-1,-1,-1,-1,-1,-1,-1,-1,-1,-1,-1,-1,-1,-1,-1,-1],"loss_changes":[4.431446E1,0E0,2.4948994E1,7.725769E0,1.957764E1,6.146015E0,1.6742147E1,3.267342E1,1.3274872E1,1.5661355E1,1.6709595E0,4.346821E0,1.1132028E1,1.2802055E1,0E0,5.788677E0,8.23693E0,5.723834E0,0E0,0E0,1.1319466E0,1.375395E1,3.3104649E0,0E0,8.399568E0,1.790501E1,8.876617E0,0E0,0E0,1.0550561E1,4.924202E-2,0E0,0E0,0E0,0E0,0E0,0E0,0E0,0E0,0E0,0E0,0E0,0E0,0E0,0E0,0E0,0E0,0E0,0E0],"parents":[2147483647,0,0,2,2,3,3,4,4,5,5,6,6,7,7,8,8,9,9,10,10,11,11,12,12,13,13,15,15,16,16,17,17,20,20,21,21,22,22,24,24,25,25,26,26,29,29,30,30],"right_children":[2,-1,4,6,8,10,12,14,16,18,20,22,24,26,-1,28,30,32,-1,-1,34,36,38,-1,40,42,44,-1,-1,46,48,-1,-1,-1,-1,-1,-1,-1,-1,-1,-1,-1,-1,-1,-1,-1,-1,-1,-1],"split_conditions":[2.7777778E-2,-9.990512E-2,3.1266104E-2,2.8055737E-4,1.01620674E-1,2.7650017E-1,2.2206253E-1,4.059644E-2,2.3076923E-1,2.5889328E-1,1.923077E-1,6.935319E-2,2.6302552E-1,7.1428575E-2,-1.16607204E-1,3.4014773E-2,4.6640316E-1,3.3333334E-1,-2.1104364E-1,-1.9186984E-4,3.75E-1,4.9233466E-2,4.55863E-2,-1.3443951E-1,2.5E-1,1.1111111E-1,2.5E-1,6.571032E-2,-1.1902314E-1,3.8481362E-2,1.6491803E-4,7.448966E-2,-1.5587772E-2,9.800746E-2,1.1239922E-2,6.1840206E-2,-1.0811696E-1,4.8718896E-2,1.140177E-1,4.7008157E-2,-6.25441E-2,2.4175657E-2,-9.461285E-2,7.827709E-2,-2.2010855E-2,-1.7863618E-1,3.334143E-2,1.1429882E-1,3.476974E-2],"split_indices":[38,0,0,16,15,21,21,26,11,21,11,15,21,28,0,0,21,8,0,0,4,15,17,0,6,38,6,0,0,0,1,0,0,0,0,0,0,0,0,0,0,0,0,0,0,0,0,0,0],"split_type":[0,0,0,0,0,0,0,0,0,0,0,0,0,0,0,0,0,0,0,0,0,0,0,0,0,0,0,0,0,0,0,0,0,0,0,0,0,0,0,0,0,0,0,0,0,0,0,0,0],"sum_hessian":[4.1155823E2,3.5669712E1,3.7588852E2,1.7271402E2,2.031745E2,7.945334E1,9.326068E1,1.193728E2,8.38017E1,3.5237297E1,4.421604E1,5.9631767E1,3.3628914E1,8.588527E1,3.348753E1,8.501695E0,7.53E1,3.375444E1,1.4828547E0,1.940485E0,4.2275555E1,2.3336777E1,3.629499E1,7.1971283E0,2.6431784E1,4.9115196E1,3.6770077E1,1.4572971E0,7.0443974E0,6.185245E1,1.3447554E1,2.4409803E1,9.344637E0,4.042796E1,1.8475965E0,1.7954487E1,5.382289E0,2.2490313E1,1.3804678E1,1.4978029E1,1.1453754E1,2.5166475E1,2.3948719E1,2.3560415E1,1.3209661E1,1.4568595E0,6.039559E1,1.2265799E1,1.1817551E0],"tree_param":{"num_deleted":"0","num_feature":"45","num_nodes":"49","size_leaf_vector":"1"}},{"base_weights":[9.912811E-3,1.3202101E-1,-7.854532E-1,3.4927562E-1,-2.309918E-1,-9.660404E-1,1.8246955E-1,4.8683524E-1,-6.8977065E-2,-3.397298E-1,1.0103526E-1,-2.2763897E-1,-1.05052985E-1,6.7858124E-1,-1.078039E-1,9.44199E-1,3.858162E-1,-3.0644572E-1,7.491435E-1,-6.0657185E-1,2.8896612E-1,-1.0182273E-1,5.1563065E-2,7.989483E-3,9.329796E-2,1.0416567E0,3.53568E-1,-7.7792734E-1,4.3341273E-1,3.8379103E-1,-7.556183E-1,4.183798E-1,9.4470285E-2,-1.0480481E-1,-1.1098118E-1,5.6363964E-1,-9.1403075E-2,2.2664644E-2,1.0714849E-1,-5.3991895E-2,8.415788E-2,-1.2766422E-1,6.1487433E-2,-1.0766397E-1,4.7092777E-2,-1.03713565E-1,8.914569E-2,3.1751953E-2,-1.132829E-1,8.710709E-2,-6.371924E-2,-1.1580725E-1,1.8121885E-2,2.5105214E-2,1.3991712E-1],"categories":[],"categories_nodes":[],"categories_segments":[],"categories_sizes":[],"default_left":[0,0,0,0,0,0,0,0,0,0,0,0,0,0,0,0,0,0,0,0,0,0,0,0,0,0,0,0,0,0,0,0,0,0,0,0,0,0,0,0,0,0,0,0,0,0,0,0,0,0,0,0,0,0,0],"id":26,"left_children":[1,3,5,7,9,11,13,15,17,19,-1,21,-1,23,-1,25,27,29,31,33,35,-1,-1,-1,-1,37,39,41,43,45,47,49,-1,51,-1,53,-1,-1,-1,-1,-1,-1,-1,-1,-1,-1,-1,-1,-1,-1,-1,-1,-1,-1,-1],"loss_changes":[3.7995583E1,2.6822832E1,9.277813E0,1.226124E1,1.7560904E1,2.5084877E0,6.377474E0,7.0305023E0,1.0618541E1,1.9976402E1,0E0,3.9323764E0,0E0,1.0056455E0,0E0,1.2586594E0,7.692274E0,1.3359419E1,4.016714E-1,2.0888391E1,1.2360076E1,0E0,0E0,0E0,0E0,3.344574E-1,2.8600173E0,4.6576633E0,7.7701874E0,1.3390425E1,1.0833242E1,3.6001558E0,0E0,1.3090875E1,0E0,7.4323273E0,0E0,0E0,0E0,0E0,0E0,0E0,0E0,0E0,0E0,0E0,0E0,0E0,0E0,0E0,0E0,0E0,0E0,0E0,0E0],"parents":[2147483647,0,0,1,1,2,2,3,3,4,4,5,5,6,6,7,7,8,8,9,9,11,11,13,13,15,15,16,16,17,17,18,18,19,19,20,20,25,25,26,26,27,27,28,28,29,29,30,30,31,31,33,33,35,35],"right_children":[2,4,6,8,10,12,14,16,18,20,-1,22,-1,24,-1,26,28,30,32,34,36,-1,-1,-1,-1,38,40,42,44,46,48,50,-1,52,-1,54,-1,-1,-1,-1,-1,-1,-1,-1,-1,-1,-1,-1,-1,-1,-1,-1,-1,-1,-1],"split_conditions":[5E-1,5E-2,3.4135824E-1,2.1428572E-1,1.7857143E-3,1.3725491E-1,8.142931E-2,6.356296E-3,3.880266E-1,3.1944445E-1,1.0103526E-1,1.9251337E-4,-1.05052985E-1,1.260038E-1,-1.078039E-1,2.3754619E-1,2.6577482E-1,3.7417654E-2,3.753144E-1,7.5E-2,1.6666667E-1,-1.0182273E-1,5.1563065E-2,7.989483E-3,9.329796E-2,7.165279E-2,3.0195233E-1,1.2045554E-1,1.923077E-1,1.6666668E-2,2.3435669E-4,4.0650406E-1,9.4470285E-2,8.098993E-2,-1.1098118E-1,1.6E-1,-9.1403075E-2,2.2664644E-2,1.0714849E-1,-5.3991895E-2,8.415788E-2,-1.2766422E-1,6.1487433E-2,-1.0766397E-1,4.7092777E-2,-1.03713565E-1,8.914569E-2,3.1751953E-2,-1.132829E-1,8.710709E-2,-6.371924E-2,-1.1580725E-1,1.8121885E-2,2.5105214E-2,1.3991712E-1],"split_indices":[6,3,21,27,19,30,0,0,18,27,0,16,0,15,0,18,24,17,21,3,3,0,0,0,0,15,21,15,11,3,16,18,0,15,0,5,0,0,0,0,0,0,0,0,0,0,0,0,0,0,0,0,0,0,0],"split_type":[0,0,0,0,0,0,0,0,0,0,0,0,0,0,0,0,0,0,0,0,0,0,0,0,0,0,0,0,0,0,0,0,0,0,0,0,0,0,0,0,0,0,0,0,0,0,0,0,0,0,0,0,0,0,0],"sum_hessian":[3.8915253E2,3.3808258E2,5.1069958E1,2.1152669E2,1.26555885E2,4.3041557E1,8.0283985E0,1.5905193E2,5.2474762E1,1.1703068E2,9.525209E0,4.798553E0,3.8243004E1,6.092263E0,1.9361359E0,2.7264616E1,1.3178731E2,4.1154602E1,1.1320158E1,8.218393E1,3.484675E1,2.1460013E0,2.6525514E0,2.208637E0,3.883626E0,2.2747505E1,4.517111E0,4.575336E0,1.27211975E2,1.6281155E1,2.4873447E1,5.3725595E0,5.9475985E0,4.17572E1,4.042673E1,2.8802013E1,6.0447326E0,1.1067083E0,2.1640797E1,1.5580847E0,2.959026E0,3.4304197E0,1.1449165E0,2.4123263E0,1.24799644E2,4.0111723E0,1.2269983E1,6.5103126E0,1.8363134E1,3.882363E0,1.4901963E0,8.266684E0,3.3490517E1,2.1906765E1,6.895249E0],"tree_param":{"num_deleted":"0","num_feature":"45","num_nodes":"55","size_leaf_vector":"1"}},{"base_weights":[8.993573E-2,-8.4776783E-1,2.0768079E-1,-9.8390055E-1,8.053022E-2,-1.2507595E-1,4.108061E-1,-1.8908933E-1,-1.0419027E-1,-2.6089287E-1,9.7781174E-2,4.739966E-1,-5.4724014E-1,-7.1787536E-2,5.5681158E-2,7.6867417E-3,-8.0103827E-1,-7.753642E-1,5.1457894E-1,-9.898498E-2,4.4937387E-1,1.4139313E-1,-9.455241E-2,6.0939986E-1,-1.0351582E-1,3.1224284E-2,-1.052646E-1,6.139715E-1,9.622727E-3,-9.242307E-4,6.6175655E-2,2.2207372E-2,-1.6936788E-1,1.0122078E-1,-6.687508E-2,8.512365E-2,3.5244815E-2,-1.0969981E-1,8.334607E-2],"categories":[],"categories_nodes":[],"categories_segments":[],"categories_sizes":[],"default_left":[0,0,0,0,0,0,0,0,0,0,0,0,0,0,0,0,0,0,0,0,0,0,0,0,0,0,0,0,0,0,0,0,0,0,0,0,0,0,0],"id":27,"left_children":[1,3,5,7,-1,9,11,13,-1,15,-1,17,19,-1,-1,21,23,25,27,-1,29,31,-1,33,-1,-1,-1,35,37,-1,-1,-1,-1,-1,-1,-1,-1,-1,-1],"loss_changes":[4.3190292E1,1.06171665E1,2.3500679E1,1.6833E0,0E0,2.0067785E1,1.3315243E1,1.9757376E0,0E0,1.7205297E1,0E0,1.0683895E1,6.535821E0,0E0,0E0,1.0351853E1,1.363529E1,2.3735604E0,9.884792E0,0E0,4.8672688E-1,1.091481E1,0E0,3.8874683E0,0E0,0E0,0E0,9.916153E0,3.138839E1,0E0,0E0,0E0,0E0,0E0,0E0,0E0,0E0,0E0,0E0],"parents":[2147483647,0,0,1,1,2,2,3,3,5,5,6,6,7,7,9,9,11,11,12,12,15,15,16,16,17,17,18,18,20,20,21,21,23,23,27,27,28,28],"right_children":[2,4,6,8,-1,10,12,14,-1,16,-1,18,20,-1,-1,22,24,26,28,-1,30,32,-1,34,-1,-1,-1,36,38,-1,-1,-1,-1,-1,-1,-1,-1,-1,-1],"split_conditions":[4E-2,2.2222222E-1,8.570594E-2,4.6383785E-3,8.053022E-2,1.2386969E-3,1.6491803E-4,1.0221667E-5,-1.0419027E-1,3.4615386E-1,9.7781174E-2,1.1666667E-1,7.170569E-1,-7.1787536E-2,5.5681158E-2,1.5017051E-4,4.0625628E-6,6.356296E-3,1.76E-1,-9.898498E-2,2.08E-1,8.322383E-2,-9.455241E-2,5.7142857E-2,-1.0351582E-1,3.1224284E-2,-1.052646E-1,1.4285715E-1,3.6637807E-1,-9.242307E-4,6.6175655E-2,2.2207372E-2,-1.6936788E-1,1.0122078E-1,-6.687508E-2,8.512365E-2,3.5244815E-2,-1.0969981E-1,8.334607E-2],"split_indices":[32,22,15,0,0,19,1,1,0,11,0,27,24,0,0,1,1,0,32,0,32,15,0,5,0,0,0,40,10,0,0,0,0,0,0,0,0,0,0],"split_type":[0,0,0,0,0,0,0,0,0,0,0,0,0,0,0,0,0,0,0,0,0,0,0,0,0,0,0,0,0,0,0,0,0,0,0,0,0,0,0],"sum_hessian":[3.8858643E2,4.2658745E1,3.4592767E2,3.978703E1,2.8717155E0,1.3126901E2,2.1465866E2,2.995762E0,3.6791267E1,1.17555855E2,1.3713163E1,2.0185033E2,1.2808333E1,1.7749984E0,1.2207637E0,7.917365E1,3.8382202E1,5.7806993E0,1.9606963E2,8.87404E0,3.934293E0,7.018106E1,8.992594E0,5.235911E0,3.3146294E1,1.1487534E0,4.631946E0,1.636432E2,3.2426434E1,1.5480145E0,2.3862786E0,6.80674E1,2.1136608E0,4.1394396E0,1.0964717E0,8.4618645E1,7.902455E1,1.3696727E1,1.8729706E1],"tree_param":{"num_deleted":"0","num_feature":"45","num_nodes":"39","size_leaf_vector":"1"}},{"base_weights":[9.1564156E-2,-9.841275E-2,1.7832607E-1,2.88454E-1,-3.1967387E-1,4.513859E-1,-1.224657E-1,6.254698E-1,-6.4293134E-1,3.774065E-1,9.846812E-1,-9.899292E-1,1.9469588E-1,8.477658E-1,-7.185722E-2,-1.8704015E-1,-1.0129347E-1,6.146296E-1,1.8261459E-2,1.1527468E0,-8.248245E-2,2.059679E-1,-1.2773528E0,4.240048E-1,-7.743197E-1,9.3093073E-1,1.7082913E-2,5.7399143E-2,-1.1564759E-1,2.8921312E-2,9.658477E-2,4.0455986E-2,-6.303599E-2,-7.048928E-2,1.2704031E-1,9.101717E-2,-9.053718E-2,-6.294328E-2,-1.4317407E-1,-2.487648E-2,8.1211425E-2,4.0001016E-2,-1.1501374E-1,3.3733513E-2,1.0906674E-1,4.0690653E-2,-9.047469E-2],"categories":[],"categories_nodes":[],"categories_segments":[],"categories_sizes":[],"default_left":[0,0,0,0,0,0,0,0,0,0,0,0,0,0,0,0,0,0,0,0,0,0,0,0,0,0,0,0,0,0,0,0,0,0,0,0,0,0,0,0,0,0,0,0,0,0,0],"id":28,"left_children":[1,-1,3,5,7,9,11,13,15,17,19,21,23,25,-1,27,-1,29,31,33,-1,35,37,39,41,43,-1,45,-1,-1,-1,-1,-1,-1,-1,-1,-1,-1,-1,-1,-1,-1,-1,-1,-1,-1,-1],"loss_changes":[3.5441483E1,0E0,1.9315525E1,1.9308064E1,1.99403E1,7.7607307E0,2.2872202E1,5.630008E0,7.931669E0,1.5549158E1,8.398447E0,7.9056587E0,1.3926909E1,6.785908E-1,0E0,5.46819E0,0E0,1.2288025E1,1.8716547E1,5.884264E0,0E0,4.869735E0,9.058552E-1,1.3292434E1,5.7846255E0,8.671789E-1,0E0,6.8105E0,0E0,0E0,0E0,0E0,0E0,0E0,0E0,0E0,0E0,0E0,0E0,0E0,0E0,0E0,0E0,0E0,0E0,0E0,0E0],"parents":[2147483647,0,0,2,2,3,3,4,4,5,5,6,6,7,7,8,8,9,9,10,10,11,11,12,12,13,13,15,15,17,17,18,18,19,19,21,21,22,22,23,23,24,24,25,25,27,27],"right_children":[2,-1,4,6,8,10,12,14,16,18,20,22,24,26,-1,28,-1,30,32,34,-1,36,38,40,42,44,-1,46,-1,-1,-1,-1,-1,-1,-1,-1,-1,-1,-1,-1,-1,-1,-1,-1,-1,-1,-1],"split_conditions":[2.7777778E-2,-9.841275E-2,3.7901758E-4,3.3333334E-1,3.742639E-2,2.9166666E-1,1.4814815E-1,1.5555556E-1,1E-1,4E-2,1.4116319E-1,5.153754E-3,7.5E-2,3.6075037E-2,-7.185722E-2,2.4523282E-1,-1.0129347E-1,1.09505035E-1,3.866976E-4,2.5E-2,-8.248245E-2,3.3333334E-1,5.2700922E-2,1.1414141E-1,1.9240681E-2,1.09375E-1,1.7082913E-2,8.3333336E-2,-1.1564759E-1,2.8921312E-2,9.658477E-2,4.0455986E-2,-6.303599E-2,-7.048928E-2,1.2704031E-1,9.101717E-2,-9.053718E-2,-6.294328E-2,-1.4317407E-1,-2.487648E-2,8.1211425E-2,4.0001016E-2,-1.1501374E-1,3.3733513E-2,1.0906674E-1,4.0690653E-2,-9.047469E-2],"split_indices":[38,0,16,8,15,27,36,3,2,3,17,0,5,23,0,18,0,15,25,3,0,12,17,20,0,29,0,7,0,0,0,0,0,0,0,0,0,0,0,0,0,0,0,0,0,0,0],"split_type":[0,0,0,0,0,0,0,0,0,0,0,0,0,0,0,0,0,0,0,0,0,0,0,0,0,0,0,0,0,0,0,0,0,0,0,0,0,0,0,0,0,0,0,0,0,0,0],"sum_hessian":[3.7686716E2,2.7356232E1,3.4951093E2,2.865614E2,6.2949535E1,2.0512839E2,8.1433E1,1.5804697E1,4.7144836E1,1.8163892E2,2.3489481E1,2.1234272E1,6.0198723E1,1.3878519E1,1.9261776E0,2.1795507E1,2.5349329E1,1.08958244E2,7.2680664E1,2.1825312E1,1.6641699E0,4.1694875E0,1.7064783E1,4.9134033E1,1.10646925E1,1.2025872E1,1.8526468E0,1.8157866E1,3.6376412E0,5.7503025E1,5.1455223E1,4.5787407E1,2.6893257E1,1.0027099E0,2.0822601E1,2.6630511E0,1.5064365E0,4.260727E0,1.2804056E1,1.8106426E1,3.1027605E1,2.6669166E0,8.397776E0,3.209798E0,8.816074E0,1.3742776E1,4.4150906E0],"tree_param":{"num_deleted":"0","num_feature":"45","num_nodes":"47","size_leaf_vector":"1"}},{"base_weights":[5.802687E-2,-2.2652511E-1,3.6225992E-1,-9.9788535E-1,-7.5025745E-2,4.8805794E-1,-3.880724E-1,-1.0351332E-1,-3.56297E-1,6.039535E-1,-2.4876463E-1,7.6969546E-1,2.4848507E-1,1.8402143E-1,-1.0768992E-1,-1.0013491E-1,5.222373E-2,7.271565E-1,-7.431206E-2,2.5835934E-1,-5.6501865E-1,8.387427E-1,-3.509293E-1,3.3936197E-1,-1.3280109E-1,-3.071524E-1,9.5449455E-2,4.962579E-1,1.6301213E-1,5.132974E-1,-1.2195718E-1,-1.733846E0,-3.592652E-1,2.547682E-1,9.5173687E-1,-1.2564218E-1,7.120441E-2,6.0727365E-2,6.810759E-1,9.967573E-2,-9.0715826E-2,7.628099E-2,-2.5064146E-2,6.497837E-2,-1.2905553E-1,-2.3752081E-1,-9.647175E-2,5.2314945E-2,-6.1168905E-2,8.556833E-2,-1.5028022E-1,9.932526E-2,-3.3680644E-2,-1.0358522E-1,3.704878E-2,8.360771E-2,-5.083353E-2],"categories":[],"categories_nodes":[],"categories_segments":[],"categories_sizes":[],"default_left":[0,0,0,0,0,0,0,0,0,0,0,0,0,0,0,0,0,0,0,0,0,0,0,0,0,0,0,0,0,0,0,0,0,0,0,0,0,0,0,0,0,0,0,0,0,0,0,0,0,0,0,0,0,0,0,0,0],"id":29,"left_children":[1,3,5,7,9,11,13,-1,15,17,19,21,23,25,-1,-1,-1,27,-1,29,31,33,35,37,-1,39,-1,41,-1,43,-1,45,47,49,51,-1,-1,53,55,-1,-1,-1,-1,-1,-1,-1,-1,-1,-1,-1,-1,-1,-1,-1,-1,-1,-1],"loss_changes":[3.1248363E1,2.1735804E1,1.6648605E1,3.614502E-1,1.8680267E1,9.914772E0,1.0284208E1,0E0,2.3372774E0,5.900399E0,2.0319233E1,5.584461E0,1.2257395E1,5.907631E0,0E0,0E0,0E0,5.465765E0,0E0,1.9087912E1,1.8083635E1,4.026531E0,5.3925333E0,7.453394E0,0E0,8.584329E0,0E0,5.248932E0,0E0,1.13006935E1,0E0,3.3231506E0,1.5333564E1,1.38057375E1,3.2147827E0,0E0,0E0,1.5485002E1,6.9251366E0,0E0,0E0,0E0,0E0,0E0,0E0,0E0,0E0,0E0,0E0,0E0,0E0,0E0,0E0,0E0,0E0,0E0,0E0],"parents":[2147483647,0,0,1,1,2,2,3,3,4,4,5,5,6,6,8,8,9,9,10,10,11,11,12,12,13,13,17,17,19,19,20,20,21,21,22,22,23,23,25,25,27,27,29,29,31,31,32,32,33,33,34,34,37,37,38,38],"right_children":[2,4,6,8,10,12,14,-1,16,18,20,22,24,26,-1,-1,-1,28,-1,30,32,34,36,38,-1,40,-1,42,-1,44,-1,46,48,50,52,-1,-1,54,56,-1,-1,-1,-1,-1,-1,-1,-1,-1,-1,-1,-1,-1,-1,-1,-1,-1,-1],"split_conditions":[2.7650017E-1,4.4444445E-4,7.5E-2,6.5919576E-4,3.001443E-2,4.1917197E-2,8.695652E-2,-1.0351332E-1,1.1111111E-1,2.2493711E-1,2.2222223E-2,1.3043478E-1,4.097521E-4,2.2222222E-1,-1.0768992E-1,-1.0013491E-1,5.222373E-2,2.7605322E-1,-7.431206E-2,8.7452994E-5,1.8381722E-2,7.8282826E-2,1.21419184E-1,1.6469456E-1,-1.3280109E-1,3.650168E-2,9.5449455E-2,4.9233466E-2,1.6301213E-1,2.1428572E-1,-1.2195718E-1,1E-1,2.490981E-2,1.1166466E-2,2.638889E-1,-1.2564218E-1,7.120441E-2,9.376256E-5,2.2619048E-1,9.967573E-2,-9.0715826E-2,7.628099E-2,-2.5064146E-2,6.497837E-2,-1.2905553E-1,-2.3752081E-1,-9.647175E-2,5.2314945E-2,-6.1168905E-2,8.556833E-2,-1.5028022E-1,9.932526E-2,