{"learner":{"attributes":{"best_iteration":"27","best_score":"0.15156144111785247"},"feature_names":["bedrooms_diff","bedrooms_pct_diff","half_baths_diff","half_baths_pct_diff","full_baths_diff","full_baths_pct_diff","room_count_diff","room_count_pct_diff","gla_diff","gla_pct_diff","bedrooms","half_baths","full_baths","room_count","gla","year_built_diff","year_built_pct_diff","year_built","gla_per_room_count","room_count_per_gla","gla_x_room_count","gla_per_bedrooms","bedrooms_per_gla","gla_x_bedrooms","gla_per_full_baths","full_baths_per_gla","gla_x_full_baths","gla_per_half_baths","half_baths_per_gla","gla_x_half_baths","room_count_per_bedrooms","bedrooms_per_room_count","room_count_x_bedrooms","room_count_per_full_baths","full_baths_per_room_count","room_count_x_full_baths","room_count_per_half_baths","half_baths_per_room_count","room_count_x_half_baths","bedrooms_per_full_baths","full_baths_per_bedrooms","bedrooms_x_full_baths","bedrooms_per_half_baths","half_baths_per_bedrooms","bedrooms_x_half_baths","full_baths_per_half_baths","half_baths_per_full_baths","full_baths_x_half_baths"],"feature_types":["float","float","float","float","float","float","float","float","float","float","float","float","float","float","float","float","float","float","float","float","float","float","float","float","float","float","float","float","float","float","float","float","float","float","float","float","float","float","float","float","float","float","float","float","float","float","float","float"],"gradient_booster":{"model":{"gbtree_model_param":{"num_parallel_tree":"1","num_trees":"78"},"iteration_indptr":[0,1,2,3,4,5,6,7,8,9,10,11,12,13,14,15,16,17,18,19,20,21,22,23,24,25,26,27,28,29,30,31,32,33,34,35,36,37,38,39,40,41,42,43,44,45,46,47,48,49,50,51,52,53,54,55,56,57,58,59,60,61,62,63,64,65,66,67,68,69,70,71,72,73,74,75,76,77,78],"tree_info":[0,0,0,0,0,0,0,0,0,0,0,0,0,0,0,0,0,0,0,0,0,0,0,0,0,0,0,0,0,0,0,0,0,0,0,0,0,0,0,0,0,0,0,0,0,0,0,0,0,0,0,0,0,0,0,0,0,0,0,0,0,0,0,0,0,0,0,0,0,0,0,0,0,0,0,0,0,0],"trees":[{"base_weights":[1.1739533E-2,-2.3213665E-1,6.4555854E-1,1.749947E-1,-2.3213637E-1],"categories":[],"categories_nodes":[],"categories_segments":[],"categories_sizes":[],"default_left":[0,0,0,0,0],"id":0,"left_children":[1,-1,3,-1,-1],"loss_changes":[3.133478E3,0E0,5.463892E3,0E0,0E0],"parents":[2147483647,0,0,2,2],"right_children":[2,-1,4,-1,-1],"split_conditions":[9.595262E-1,-2.3213665E-1,9.6001977E-1,1.749947E-1,-2.3213637E-1],"split_indices":[17,0,17,0,0],"split_type":[0,0,0,0,0],"sum_hessian":[2.1169668E3,4.5167514E2,1.6652917E3,1.2138617E3,4.5143008E2],"tree_param":{"num_deleted":"0","num_feature":"48","num_nodes":"5","size_leaf_vector":"1"}},{"base_weights":[-3.650524E-2,-2.0472865E-1,5.540941E-1,1.6278069E-1,-2.0472677E-1],"categories":[],"categories_nodes":[],"categories_segments":[],"categories_sizes":[],"default_left":[0,0,0,0,0],"id":1,"left_children":[1,-1,3,-1,-1],"loss_changes":[2.4294973E3,0E0,4.420276E3,0E0,0E0],"parents":[2147483647,0,0,2,2],"right_children":[2,-1,4,-1,-1],"split_conditions":[9.595262E-1,-2.0472865E-1,9.6001977E-1,1.6278069E-1,-2.0472677E-1],"split_indices":[17,0,17,0,0],"split_type":[0,0,0,0,0],"sum_hessian":[2.0438236E3,4.6345547E2,1.5803682E3,1.1189114E3,4.6145676E2],"tree_param":{"num_deleted":"0","num_feature":"48","num_nodes":"5","size_leaf_vector":"1"}},{"base_weights":[1.9148381E-2,5.5864257E-1,-1.8529545E-1,-1.8529506E-1,1.5328887E-1],"categories":[],"categories_nodes":[],"categories_segments":[],"categories_sizes":[],"default_left":[0,0,0,0,0],"id":2,"left_children":[1,3,-1,-1,-1],"loss_changes":[2.0712217E3,3.7430876E3,0E0,0E0,0E0],"parents":[2147483647,0,0,1,1],"right_children":[2,4,-1,-1,-1],"split_conditions":[9.6001977E-1,9.595262E-1,-1.8529545E-1,-1.8529506E-1,1.5328887E-1],"split_indices":[17,17,0,0,0],"split_type":[0,0,0,0,0],"sum_hessian":[2.048713E3,1.5909435E3,4.5776938E2,4.5752075E2,1.1334227E3],"tree_param":{"num_deleted":"0","num_feature":"48","num_nodes":"5","size_leaf_vector":"1"}},{"base_weights":[3.1525437E-2,5.1339215E-1,-1.7102784E-1,-1.7095141E-1,1.3429203E0,-1.6394784E-1,1.4044099E0,1.4111694E0,-1.21280275E-1,1.4406781E-1,1.2181559E0,-1.0154044E-1,1.2459723E-1],"categories":[],"categories_nodes":[],"categories_segments":[],"categories_sizes":[],"default_left":[0,0,0,0,0,0,0,0,0,0,0,0,0],"id":3,"left_children":[1,3,-1,-1,5,-1,7,9,-1,-1,11,-1,-1],"loss_changes":[1.6840055E3,2.9002031E3,0E0,0E0,2.1228687E2,0E0,2.1568604E1,4.6242676E0,0E0,0E0,1.0895172E1,0E0,0E0],"parents":[2147483647,0,0,1,1,4,4,6,6,7,7,10,10],"right_children":[2,4,-1,-1,6,-1,8,10,-1,-1,12,-1,-1],"split_conditions":[3.063241E-2,3.0195829E-2,-1.7102784E-1,-1.7095141E-1,2.7777778E-2,-1.6394784E-1,4.5E-1,1.2989395E-4,-1.21280275E-1,1.4406781E-1,1.3568765E-4,-1.0154044E-1,1.2459723E-1],"split_indices":[16,16,0,0,41,0,6,9,0,0,9,0,0],"split_type":[0,0,0,0,0,0,0,0,0,0,0,0,0],"sum_hessian":[2.0043529E3,1.5705645E3,4.3378842E2,4.2652756E2,1.1440369E3,2.2592289E1,1.1214446E3,1.1190154E3,2.4292784E0,9.6501605E2,1.5399928E2,1.4575672E0,1.5254172E2],"tree_param":{"num_deleted":"0","num_feature":"48","num_nodes":"13","size_leaf_vector":"1"}},{"base_weights":[3.7328474E-2,-1.6013561E-1,5.259128E-1,1.3962458E-1,-1.5998334E-1],"categories":[],"categories_nodes":[],"categories_segments":[],"categories_sizes":[],"default_left":[0,0,0,0,0],"id":4,"left_children":[1,-1,3,-1,-1],"loss_changes":[1.5463494E3,0E0,2.7547239E3,0E0,0E0],"parents":[2147483647,0,0,2,2],"right_children":[2,-1,4,-1,-1],"split_conditions":[9.595262E-1,-1.6013561E-1,9.6001977E-1,1.3962458E-1,-1.5998334E-1],"split_indices":[17,0,17,0,0],"split_type":[0,0,0,0,0],"sum_hessian":[1.9293505E3,4.4260397E2,1.4867465E3,1.055104E3,4.3164246E2],"tree_param":{"num_deleted":"0","num_feature":"48","num_nodes":"5","size_leaf_vector":"1"}},{"base_weights":[-6.2904693E-3,4.5975876E-1,-1.5125635E-1,-1.5132092E-1,1.3344588E0,-1.22373156E-1,1.3474387E-1],"categories":[],"categories_nodes":[],"categories_segments":[],"categories_sizes":[],"default_left":[0,0,0,0,0,0,0],"id":5,"left_children":[1,3,-1,-1,5,-1,-1],"loss_changes":[1.2422732E3,2.3343494E3,0E0,0E0,3.2757935E1,0E0,0E0],"parents":[2147483647,0,0,1,1,4,4],"right_children":[2,4,-1,-1,6,-1,-1],"split_conditions":[2.7654322E-2,2.7160494E-2,-1.5125635E-1,-1.5132092E-1,2.8688524E-2,-1.22373156E-1,1.3474387E-1],"split_indices":[15,15,0,0,16,0,0],"split_type":[0,0,0,0,0,0,0],"sum_hessian":[1.767636E3,1.3504836E3,4.1715234E2,4.1459528E2,9.3588837E2,4.2536464E0,9.316347E2],"tree_param":{"num_deleted":"0","num_feature":"48","num_nodes":"7","size_leaf_vector":"1"}},{"base_weights":[-3.4505527E-2,4.1738525E-1,-1.4411752E-1,-1.4409278E-1,1.2895232E0,-1.1663145E-1,1.3028534E-1],"categories":[],"categories_nodes":[],"categories_segments":[],"categories_sizes":[],"default_left":[0,0,0,0,0,0,0],"id":6,"left_children":[1,3,-1,-1,5,-1,-1],"loss_changes":[1.0387762E3,2.0064995E3,0E0,0E0,2.9095093E1,0E0,0E0],"parents":[2147483647,0,0,1,1,4,4],"right_children":[2,4,-1,-1,6,-1,-1],"split_conditions":[2.7654322E-2,2.7160494E-2,-1.4411752E-1,-1.4409278E-1,2.8688524E-2,-1.1663145E-1,1.3028534E-1],"split_indices":[15,15,0,0,16,0,0],"split_type":[0,0,0,0,0,0,0],"sum_hessian":[1.6322206E3,1.2358944E3,3.9632617E2,3.945508E2,8.413436E2,4.075166E0,8.372685E2],"tree_param":{"num_deleted":"0","num_feature":"48","num_nodes":"7","size_leaf_vector":"1"}},{"base_weights":[-2.4500493E-2,-1.3801478E-1,4.1586632E-1,1.2608655E-1,-1.3793199E-1],"categories":[],"categories_nodes":[],"categories_segments":[],"categories_sizes":[],"default_left":[0,0,0,0,0],"id":7,"left_children":[1,-1,3,-1,-1],"loss_changes":[9.1307227E2,0E0,1.7530477E3,0E0,0E0],"parents":[2147483647,0,0,2,2],"right_children":[2,-1,4,-1,-1],"split_conditions":[9.595262E-1,-1.3801478E-1,9.6001977E-1,1.2608655E-1,-1.3793199E-1],"split_indices":[17,0,17,0,0],"split_type":[0,0,0,0,0],"sum_hessian":[1.5275189E3,3.7401093E2,1.153508E3,7.8452673E2,3.6898126E2],"tree_param":{"num_deleted":"0","num_feature":"48","num_nodes":"5","size_leaf_vector":"1"}},{"base_weights":[-2.1945793E-2,-1.3313524E-1,4.043751E-1,1.223639E0,-1.33162E-1,-1.0194137E-1,1.23437405E-1],"categories":[],"categories_nodes":[],"categories_segments":[],"categories_sizes":[],"default_left":[0,0,0,0,0,0,0],"id":8,"left_children":[1,-1,3,5,-1,-1,-1],"loss_changes":[8.062579E2,0E0,1.5513159E3,1.9095947E1,0E0,0E0,0E0],"parents":[2147483647,0,0,2,2,3,3],"right_children":[2,-1,4,6,-1,-1,-1],"split_conditions":[2.7160494E-2,-1.3313524E-1,2.7654322E-2,2.8688524E-2,-1.33162E-1,-1.0194137E-1,1.23437405E-1],"split_indices":[15,0,15,16,0,0,0],"split_type":[0,0,0,0,0,0,0],"sum_hessian":[1.4423535E3,3.5374237E2,1.0886111E3,7.3978253E2,3.4882858E2,3.07612E0,7.367064E2],"tree_param":{"num_deleted":"0","num_feature":"48","num_nodes":"7","size_leaf_vector":"1"}},{"base_weights":[1.5386123E-2,4.281603E-1,-1.2882768E-1,-1.2888081E-1,1.2003096E-1],"categories":[],"categories_nodes":[],"categories_segments":[],"categories_sizes":[],"default_left":[0,0,0,0,0],"id":9,"left_children":[1,3,-1,-1,-1],"loss_changes":[7.400573E2,1.3863146E3,0E0,0E0,0E0],"parents":[2147483647,0,0,1,1],"right_children":[2,4,-1,-1,-1],"split_conditions":[9.6001977E-1,9.595262E-1,-1.2882768E-1,-1.2888081E-1,1.2003096E-1],"split_indices":[17,17,0,0,0],"split_type":[0,0,0,0,0],"sum_hessian":[1.3732435E3,1.0435116E3,3.2973187E2,3.235002E2,7.200114E2],"tree_param":{"num_deleted":"0","num_feature":"48","num_nodes":"5","size_leaf_vector":"1"}},{"base_weights":[1.3490656E-2,-1.2551957E-1,4.2210245E-1,1.1701274E0,-1.2550054E-1,1.1821362E-1,-9.768017E-2],"categories":[],"categories_nodes":[],"categories_segments":[],"categories_sizes":[],"default_left":[0,0,0,0,0,0,0],"id":10,"left_children":[1,-1,3,5,-1,-1,-1],"loss_changes":[6.569361E2,0E0,1.2039208E3,1.8257507E1,0E0,0E0,0E0],"parents":[2147483647,0,0,2,2,3,3],"right_children":[2,-1,4,6,-1,-1,-1],"split_conditions":[2.7160494E-2,-1.2551957E-1,2.7654322E-2,9.6001977E-1,-1.2550054E-1,1.1821362E-1,-9.768017E-2],"split_indices":[15,0,15,17,0,0,0],"split_type":[0,0,0,0,0,0,0],"sum_hessian":[1.2652152E3,3.0771826E2,9.5749695E2,6.6236896E2,2.9512802E2,6.5913153E2,3.237416E0],"tree_param":{"num_deleted":"0","num_feature":"48","num_nodes":"7","size_leaf_vector":"1"}},{"base_weights":[1.396635E-2,-1.22263744E-1,4.0864843E-1,1.1565983E-1,-1.22234665E-1],"categories":[],"categories_nodes":[],"categories_segments":[],"categories_sizes":[],"default_left":[0,0,0,0,0],"id":11,"left_children":[1,-1,3,-1,-1],"loss_changes":[5.64826E2,0E0,1.071575E3,0E0,0E0],"parents":[2147483647,0,0,2,2],"right_children":[2,-1,4,-1,-1],"split_conditions":[9.595262E-1,-1.22263744E-1,9.6001977E-1,1.1565983E-1,-1.22234665E-1],"split_indices":[17,0,17,0,0],"split_type":[0,0,0,0,0],"sum_hessian":[1.1552516E3,2.7900024E2,8.7625134E2,6.009538E2,2.7529755E2],"tree_param":{"num_deleted":"0","num_feature":"48","num_nodes":"5","size_leaf_vector":"1"}},{"base_weights":[1.7380977E-2,4.0637302E-1,-1.1961106E-1,-1.1961957E-1,1.1379351E-1],"categories":[],"categories_nodes":[],"categories_segments":[],"categories_sizes":[],"default_left":[0,0,0,0,0],"id":12,"left_children":[1,3,-1,-1,-1],"loss_changes":[5.078334E2,9.564352E2,0E0,0E0,0E0],"parents":[2147483647,0,0,1,1],"right_children":[2,4,-1,-1,-1],"split_conditions":[9.6001977E-1,9.595262E-1,-1.1961106E-1,-1.1961957E-1,1.1379351E-1],"split_indices":[17,17,0,0,0],"split_type":[0,0,0,0,0],"sum_hessian":[1.0738005E3,8.136464E2,2.6015417E2,2.5481357E2,5.588329E2],"tree_param":{"num_deleted":"0","num_feature":"48","num_nodes":"5","size_leaf_vector":"1"}},{"base_weights":[-7.5110425E-3,-1.17362216E-1,3.7866446E-1,1.120788E-1,-1.172979E-1],"categories":[],"categories_nodes":[],"categories_segments":[],"categories_sizes":[],"default_left":[0,0,0,0,0],"id":13,"left_children":[1,-1,3,-1,-1],"loss_changes":[4.381408E2,0E0,8.4296954E2,0E0,0E0],"parents":[2147483647,0,0,2,2],"right_children":[2,-1,4,-1,-1],"split_conditions":[9.595262E-1,-1.17362216E-1,9.6001977E-1,1.120788E-1,-1.172979E-1],"split_indices":[17,0,17,0,0],"split_type":[0,0,0,0,0],"sum_hessian":[9.7095996E2,2.4104668E2,7.299133E2,4.939456E2,2.3596773E2],"tree_param":{"num_deleted":"0","num_feature":"48","num_nodes":"5","size_leaf_vector":"1"}},{"base_weights":[1.1769911E-2,-1.1533882E-1,3.858282E-1,1.1085097E-1,-1.1530664E-1],"categories":[],"categories_nodes":[],"categories_segments":[],"categories_sizes":[],"default_left":[0,0,0,0,0],"id":14,"left_children":[1,-1,3,-1,-1],"loss_changes":[3.95495E2,0E0,7.6518945E2,0E0,0E0],"parents":[2147483647,0,0,2,2],"right_children":[2,-1,4,-1,-1],"split_conditions":[9.595262E-1,-1.1533882E-1,9.6001977E-1,1.1085097E-1,-1.1530664E-1],"split_indices":[17,0,17,0,0],"split_type":[0,0,0,0,0],"sum_hessian":[9.0541675E2,2.1952686E2,6.858899E2,4.6690567E2,2.1898424E2],"tree_param":{"num_deleted":"0","num_feature":"48","num_nodes":"5","size_leaf_vector":"1"}},{"base_weights":[-1.0611326E-2,-1.1359022E-1,3.650852E-1,1.09296255E-1,-1.1355241E-1],"categories":[],"categories_nodes":[],"categories_segments":[],"categories_sizes":[],"default_left":[0,0,0,0,0],"id":15,"left_children":[1,-1,3,-1,-1],"loss_changes":[3.477623E2,0E0,6.74852E2,0E0,0E0],"parents":[2147483647,0,0,2,2],"right_children":[2,-1,4,-1,-1],"split_conditions":[9.595262E-1,-1.1359022E-1,9.6001977E-1,1.09296255E-1,-1.1355241E-1],"split_indices":[17,0,17,0,0],"split_type":[0,0,0,0,0],"sum_hessian":[8.206036E2,2.0489026E2,6.157133E2,4.1478943E2,2.0092386E2],"tree_param":{"num_deleted":"0","num_feature":"48","num_nodes":"5","size_leaf_vector":"1"}},{"base_weights":[4.8850555E-2,-1.1201375E-1,4.1307646E-1,1.0863723E-1,-1.1197497E-1],"categories":[],"categories_nodes":[],"categories_segments":[],"categories_sizes":[],"default_left":[0,0,0,0,0],"id":16,"left_children":[1,-1,3,-1,-1],"loss_changes":[3.3457697E2,0E0,6.194468E2,0E0,0E0],"parents":[2147483647,0,0,2,2],"right_children":[2,-1,4,-1,-1],"split_conditions":[9.595262E-1,-1.1201375E-1,9.6001977E-1,1.0863723E-1,-1.1197497E-1],"split_indices":[17,0,17,0,0],"split_type":[0,0,0,0,0],"sum_hessian":[7.83719E2,1.8568503E2,5.98034E2,4.157198E2,1.823142E2],"tree_param":{"num_deleted":"0","num_feature":"48","num_nodes":"5","size_leaf_vector":"1"}},{"base_weights":[-4.938566E-4,-1.10940434E-1,3.6787865E-1,1.0676877E0,-1.11557975E-1,1.0795158E-1,-7.3489495E-2],"categories":[],"categories_nodes":[],"categories_segments":[],"categories_sizes":[],"default_left":[0,0,0,0,0,0,0],"id":17,"left_children":[1,-1,3,5,-1,-1,-1],"loss_changes":[2.8053506E2,0E0,5.3636145E2,8.2724E0,0E0,0E0,0E0],"parents":[2147483647,0,0,2,2,3,3],"right_children":[2,-1,4,6,-1,-1,-1],"split_conditions":[2.7160494E-2,-1.10940434E-1,2.7654322E-2,9.6001977E-1,-1.11557975E-1,1.0795158E-1,-7.3489495E-2],"split_indices":[15,0,15,17,0,0,0],"split_type":[0,0,0,0,0,0,0],"sum_hessian":[6.847584E2,1.7024844E2,5.1450995E2,3.4978302E2,1.6472696E2,3.479013E2,1.8817044E0],"tree_param":{"num_deleted":"0","num_feature":"48","num_nodes":"7","size_leaf_vector":"1"}},{"base_weights":[-4.5385063E-3,3.569375E-1,-1.1034449E-1,-1.09368324E-1,1.0601772E0,-7.079699E-2,1.0720839E-1],"categories":[],"categories_nodes":[],"categories_segments":[],"categories_sizes":[],"default_left":[0,0,0,0,0,0,0],"id":18,"left_children":[1,3,-1,-1,5,-1,-1],"loss_changes":[2.471935E2,4.7886148E2,0E0,0E0,7.4093323E0,0E0,0E0],"parents":[2147483647,0,0,1,1,4,4],"right_children":[2,4,-1,-1,6,-1,-1],"split_conditions":[2.7654322E-2,2.7160494E-2,-1.1034449E-1,-1.09368324E-1,2.8688524E-2,-7.079699E-2,1.0720839E-1],"split_indices":[15,15,0,0,16,0,0],"split_type":[0,0,0,0,0,0,0],"sum_hessian":[6.2030426E2,4.6727368E2,1.5303055E2,1.5238452E2,3.1488916E2,1.7152442E0,3.1317392E2],"tree_param":{"num_deleted":"0","num_feature":"48","num_nodes":"7","size_leaf_vector":"1"}},{"base_weights":[-5.438988E-3,3.509831E-1,-1.0892691E-1,-1.08949654E-1,1.048651E0,1.0623578E-1,-7.203587E-2],"categories":[],"categories_nodes":[],"categories_segments":[],"categories_sizes":[],"default_left":[0,0,0,0,0,0,0],"id":19,"left_children":[1,3,-1,-1,5,-1,-1],"loss_changes":[2.2353331E2,4.387719E2,0E0,0E0,7.891144E0,0E0,0E0],"parents":[2147483647,0,0,1,1,4,4],"right_children":[2,4,-1,-1,6,-1,-1],"split_conditions":[2.7654322E-2,2.7160494E-2,-1.0892691E-1,-1.08949654E-1,9.6001977E-1,1.0623578E-1,-7.203587E-2],"split_indices":[15,15,0,0,17,0,0],"split_type":[0,0,0,0,0,0,0],"sum_hessian":[5.7666095E2,4.344623E2,1.4219861E2,1.4157983E2,2.9288248E2,2.9102698E2,1.8554981E0],"tree_param":{"num_deleted":"0","num_feature":"48","num_nodes":"7","size_leaf_vector":"1"}},{"base_weights":[-6.91586E-3,-1.079685E-1,3.5160694E-1,1.0429171E0,-1.0758161E-1,-6.970199E-2,1.05677925E-1],"categories":[],"categories_nodes":[],"categories_segments":[],"categories_sizes":[],"default_left":[0,0,0,0,0,0,0],"id":20,"left_children":[1,-1,3,5,-1,-1,-1],"loss_changes":[1.9931917E2,0E0,3.8442834E2,7.0606995E0,0E0,0E0,0E0],"parents":[2147483647,0,0,2,2,3,3],"right_children":[2,-1,4,6,-1,-1,-1],"split_conditions":[2.7160494E-2,-1.079685E-1,2.7654322E-2,2.8688524E-2,-1.0758161E-1,-6.970199E-2,1.05677925E-1],"split_indices":[15,0,15,16,0,0,0],"split_type":[0,0,0,0,0,0,0],"sum_hessian":[5.1624713E2,1.2881033E2,3.8743677E2,2.6120355E2,1.2623321E2,1.6750274E0,2.5952853E2],"tree_param":{"num_deleted":"0","num_feature":"48","num_nodes":"7","size_leaf_vector":"1"}},{"base_weights":[2.2156204E-3,-1.0707667E-1,3.5531354E-1,1.0370191E0,-1.0705749E-1,-6.669071E-2,1.0505333E-1],"categories":[],"categories_nodes":[],"categories_segments":[],"categories_sizes":[],"default_left":[0,0,0,0,0,0,0],"id":21,"left_children":[1,-1,3,5,-1,-1,-1],"loss_changes":[1.8197903E2,0E0,3.523947E2,6.3423767E0,0E0,0E0,0E0],"parents":[2147483647,0,0,2,2,3,3],"right_children":[2,-1,4,6,-1,-1,-1],"split_conditions":[2.7160494E-2,-1.0707667E-1,2.7654322E-2,2.8688524E-2,-1.0705749E-1,-6.669071E-2,1.0505333E-1],"split_indices":[15,0,15,16,0,0,0],"split_type":[0,0,0,0,0,0,0],"sum_hessian":[4.7831906E2,1.17928696E2,3.6039035E2,2.4400586E2,1.163845E2,1.5395701E0,2.4246628E2],"tree_param":{"num_deleted":"0","num_feature":"48","num_nodes":"7","size_leaf_vector":"1"}},{"base_weights":[-1.3461142E-2,-1.05559304E-1,3.3850828E-1,1.0279583E0,-1.0555756E-1,1.03193775E-1,2.9929588E-2],"categories":[],"categories_nodes":[],"categories_segments":[],"categories_sizes":[],"default_left":[0,0,0,0,0,0,0],"id":22,"left_children":[1,-1,3,5,-1,-1,-1],"loss_changes":[1.5662169E2,0E0,3.0790518E2,3.1195068E-1,0E0,0E0,0E0],"parents":[2147483647,0,0,2,2,3,3],"right_children":[2,-1,4,6,-1,-1,-1],"split_conditions":[9.595262E-1,-1.05559304E-1,9.6001977E-1,3E-1,-1.0555756E-1,1.03193775E-1,2.9929588E-2],"split_indices":[17,0,17,1,0,0,0],"split_type":[0,0,0,0,0,0,0],"sum_hessian":[4.250223E2,1.0680087E2,3.1822144E2,2.1309637E2,1.0512507E2,2.1152495E2,1.5714219E0],"tree_param":{"num_deleted":"0","num_feature":"48","num_nodes":"7","size_leaf_vector":"1"}},{"base_weights":[3.9056987E-3,-1.0567033E-1,3.5114503E-1,1.0227896E0,-1.0520681E-1,-6.659177E-2,1.03938736E-1],"categories":[],"categories_nodes":[],"categories_segments":[],"categories_sizes":[],"default_left":[0,0,0,0,0,0,0],"id":23,"left_children":[1,-1,3,5,-1,-1,-1],"loss_changes":[1.4587074E2,0E0,2.822883E2,6.3623505E0,0E0,0E0,0E0],"parents":[2147483647,0,0,2,2,3,3],"right_children":[2,-1,4,6,-1,-1,-1],"split_conditions":[2.7160494E-2,-1.0567033E-1,2.7654322E-2,2.8688524E-2,-1.0520681E-1,-6.659177E-2,1.03938736E-1],"split_indices":[15,0,15,16,0,0,0],"split_type":[0,0,0,0,0,0,0],"sum_hessian":[3.9407343E2,9.669247E1,2.9738095E2,2.0130022E2,9.608075E1,1.5784904E0,1.9972173E2],"tree_param":{"num_deleted":"0","num_feature":"48","num_nodes":"7","size_leaf_vector":"1"}},{"base_weights":[-2.7867151E-2,3.2027912E-1,-1.05400085E-1,-1.0455874E-1,1.0186366E0,-6.1218377E-2,1.0342594E-1],"categories":[],"categories_nodes":[],"categories_segments":[],"categories_sizes":[],"default_left":[0,0,0,0,0,0,0],"id":24,"left_children":[1,3,-1,-1,5,-1,-1],"loss_changes":[1.2694667E2,2.542109E2,0E0,0E0,5.1201324E0,0E0,0E0],"parents":[2147483647,0,0,1,1,4,4],"right_children":[2,4,-1,-1,6,-1,-1],"split_conditions":[2.7654322E-2,2.7160494E-2,-1.05400085E-1,-1.0455874E-1,2.8688524E-2,-6.1218377E-2,1.0342594E-1],"split_indices":[15,15,0,0,16,0,0],"split_type":[0,0,0,0,0,0,0],"sum_hessian":[3.5340448E2,2.6439017E2,8.901432E1,8.927888E1,1.7511128E2,1.2992703E0,1.7381201E2],"tree_param":{"num_deleted":"0","num_feature":"48","num_nodes":"7","size_leaf_vector":"1"}},{"base_weights":[7.743857E-3,3.5185462E-1,-1.04775384E-1,-1.0437649E-1,1.0145588E0,1.02884844E-1,-5.742791E-2],"categories":[],"categories_nodes":[],"categories_segments":[],"categories_sizes":[],"default_left":[0,0,0,0,0,0,0],"id":25,"left_children":[1,3,-1,-1,5,-1,-1],"loss_changes":[1.2054805E2,2.3253865E2,0E0,0E0,4.455185E0,0E0,0E0],"parents":[2147483647,0,0,1,1,4,4],"right_children":[2,4,-1,-1,6,-1,-1],"split_conditions":[2.7654322E-2,2.7160494E-2,-1.04775384E-1,-1.0437649E-1,9.6001977E-1,1.02884844E-1,-5.742791E-2],"split_indices":[15,15,0,0,17,0,0],"split_type":[0,0,0,0,0,0,0],"sum_hessian":[3.2988306E2,2.4928003E2,8.060302E1,8.007383E1,1.6920619E2,1.6804727E2,1.1589187E0],"tree_param":{"num_deleted":"0","num_feature":"48","num_nodes":"7","size_leaf_vector":"1"}},{"base_weights":[-1.8174064E-4,-1.0379753E-1,3.457423E-1,1.0079521E0,-1.0377224E-1,1.0229087E-1,-5.5887945E-2],"categories":[],"categories_nodes":[],"categories_segments":[],"categories_sizes":[],"default_left":[0,0,0,0,0,0,0],"id":26,"left_children":[1,-1,3,5,-1,-1,-1],"loss_changes":[1.0859498E2,0E0,2.08894E2,4.179184E0,0E0,0E0,0E0],"parents":[2147483647,0,0,2,2,3,3],"right_children":[2,-1,4,6,-1,-1,-1],"split_conditions":[2.7160494E-2,-1.0379753E-1,2.7654322E-2,9.6001977E-1,-1.0377224E-1,1.0229087E-1,-5.5887945E-2],"split_indices":[15,0,15,17,0,0,0],"split_type":[0,0,0,0,0,0,0],"sum_hessian":[3.0049524E2,7.4622505E1,2.2587273E2,1.5293854E2,7.29342E1,1.5183629E2,1.1022533E0],"tree_param":{"num_deleted":"0","num_feature":"48","num_nodes":"7","size_leaf_vector":"1"}},{"base_weights":[3.934435E-2,3.732898E-1,-1.0364314E-1,-1.02780156E-1,1.0044042E0,1.0191252E-1,-5.4396432E-2],"categories":[],"categories_nodes":[],"categories_segments":[],"categories_sizes":[],"default_left":[0,0,0,0,0,0,0],"id":27,"left_children":[1,3,-1,-1,5,-1,-1],"loss_changes":[1.0101089E2,1.9068483E2,0E0,0E0,3.9363708E0,0E0,0E0],"parents":[2147483647,0,0,1,1,4,4],"right_children":[2,4,-1,-1,6,-1,-1],"split_conditions":[2.7654322E-2,2.7160494E-2,-1.0364314E-1,-1.02780156E-1,9.6001977E-1,1.0191252E-1,-5.4396432E-2],"split_indices":[15,15,0,0,17,0,0],"split_type":[0,0,0,0,0,0,0],"sum_hessian":[2.7909427E2,2.1347862E2,6.561565E1,6.610195E1,1.4737668E2,1.463273E2,1.0493829E0],"tree_param":{"num_deleted":"0","num_feature":"48","num_nodes":"7","size_leaf_vector":"1"}},{"base_weights":[2.7245216E-2,-1.0275986E-1,3.4470764E-1,9.27821E-1,-1.02649234E-1,-7.8207016E-2,9.7230136E-1,9.809998E-2,2.9466143E-2],"categories":[],"categories_nodes":[],"categories_segments":[],"categories_sizes":[],"default_left":[0,0,0,0,0,0,0,0,0],"id":28,"left_children":[1,-1,3,5,-1,-1,7,-1,-1],"loss_changes":[8.638097E1,0E0,1.5943724E2,1.1377724E1,0E0,0E0,5.1553345E-1,0E0,0E0],"parents":[2147483647,0,0,2,2,3,3,6,6],"right_children":[2,-1,4,6,-1,-1,8,-1,-1],"split_conditions":[3.0195829E-2,-1.0275986E-1,3.063241E-2,1.6666667E-1,-1.02649234E-1,-7.8207016E-2,5E-1,9.809998E-2,2.9466143E-2],"split_indices":[16,0,16,12,0,0,13,0,0],"split_type":[0,0,0,0,0,0,0,0,0],"sum_hessian":[2.5589343E2,5.8679623E1,1.9721382E2,1.385975E2,5.8616306E1,3.093574E0,1.3550394E2,1.333446E2,2.1593256E0],"tree_param":{"num_deleted":"0","num_feature":"48","num_nodes":"9","size_leaf_vector":"1"}},{"base_weights":[2.7836522E-2,-1.0143125E-1,3.6557183E-1,9.968145E-1,-1.01349704E-1,1.009007E-1,4.3515348E-1,-1.4433041E-2,6.995283E-2],"categories":[],"categories_nodes":[],"categories_segments":[],"categories_sizes":[],"default_left":[0,0,0,0,0,0,0,0,0],"id":29,"left_children":[1,-1,3,5,-1,-1,7,-1,-1],"loss_changes":[8.210412E1,0E0,1.5432318E2,3.91716E-1,0E0,0E0,7.652281E-1,0E0,0E0],"parents":[2147483647,0,0,2,2,3,3,6,6],"right_children":[2,-1,4,6,-1,-1,8,-1,-1],"split_conditions":[9.595262E-1,-1.0143125E-1,9.6001977E-1,5E-1,-1.01349704E-1,1.009007E-1,1.6E-1,-1.4433041E-2,6.995283E-2],"split_indices":[17,0,17,0,0,0,1,0,0],"split_type":[0,0,0,0,0,0,0,0,0],"sum_hessian":[2.3121637E2,5.6101334E1,1.7511504E2,1.20318634E2,5.4796394E1,1.1698273E2,3.335906E0,1.1873716E0,2.1485343E0],"tree_param":{"num_deleted":"0","num_feature":"48","num_nodes":"9","size_leaf_vector":"1"}},{"base_weights":[-1.3346589E-2,-1.0186483E-1,3.2994473E-1,9.9076295E-1,-1.0189401E-1,-5.4488856E-2,1.0118955E-1],"categories":[],"categories_nodes":[],"categories_segments":[],"categories_sizes":[],"default_left":[0,0,0,0,0,0,0],"id":30,"left_children":[1,-1,3,5,-1,-1,-1],"loss_changes":[7.0521965E1,0E0,1.3681624E2,3.886383E0,0E0,0E0,0E0],"parents":[2147483647,0,0,2,2,3,3],"right_children":[2,-1,4,6,-1,-1,-1],"split_conditions":[2.7160494E-2,-1.0186483E-1,2.7654322E-2,2.8688524E-2,-1.0189401E-1,-5.4488856E-2,1.0118955E-1],"split_indices":[15,0,15,16,0,0,0],"split_type":[0,0,0,0,0,0,0],"sum_hessian":[2.0237166E2,5.1013966E1,1.513577E2,1.0176739E2,4.9590313E1,1.0449989E0,1.0072239E2],"tree_param":{"num_deleted":"0","num_feature":"48","num_nodes":"7","size_leaf_vector":"1"}},{"base_weights":[-3.4870787E-3,3.337093E-1,-1.01980984E-1,-1.013817E-1,9.896E-1,9.959554E-2,3.426173E-2],"categories":[],"categories_nodes":[],"categories_segments":[],"categories_sizes":[],"default_left":[0,0,0,0,0,0,0],"id":31,"left_children":[1,3,-1,-1,5,-1,-1],"loss_changes":[6.526717E1,1.2740117E2,0E0,0E0,5.6365967E-2,0E0,0E0],"parents":[2147483647,0,0,1,1,4,4],"right_children":[2,4,-1,-1,6,-1,-1],"split_conditions":[2.7654322E-2,2.7160494E-2,-1.01980984E-1,-1.013817E-1,3.6376863E-4,9.959554E-2,3.426173E-2],"split_indices":[15,15,0,0,9,0,0],"split_type":[0,0,0,0,0,0,0],"sum_hessian":[1.8845662E2,1.4201157E2,4.644506E1,4.6313942E1,9.5697624E1,9.423259E1,1.4650352E0],"tree_param":{"num_deleted":"0","num_feature":"48","num_nodes":"7","size_leaf_vector":"1"}},{"base_weights":[-1.3435508E-2,3.2370254E-1,-1.0151779E-1,-1.00912035E-1,9.8039466E-1,9.9172E-2,4.5332995E-1,-7.278065E-4,6.336867E-2],"categories":[],"categories_nodes":[],"categories_segments":[],"categories_sizes":[],"default_left":[0,0,0,0,0,0,0,0,0],"id":32,"left_children":[1,3,-1,-1,5,-1,7,-1,-1],"loss_changes":[5.8011707E1,1.1350226E2,0E0,0E0,6.751251E-2,0E0,3.0901277E-1,0E0,0E0],"parents":[2147483647,0,0,1,1,4,4,6,6],"right_children":[2,4,-1,-1,6,-1,8,-1,-1],"split_conditions":[2.7654322E-2,2.7160494E-2,-1.0151779E-1,-1.00912035E-1,1.7142858E-1,9.9172E-2,1.4705883E-1,-7.278065E-4,6.336867E-2],"split_indices":[15,15,0,0,1,0,34,0,0],"split_type":[0,0,0,0,0,0,0,0,0],"sum_hessian":[1.6979878E2,1.2754885E2,4.224992E1,4.1923737E1,8.562512E1,8.29609E1,2.6642225E0,1.0196959E0,1.6445265E0],"tree_param":{"num_deleted":"0","num_feature":"48","num_nodes":"9","size_leaf_vector":"1"}},{"base_weights":[-1.6574071E-3,3.345242E-1,-1.0101968E-1,-9.947917E-2,9.791924E-2],"categories":[],"categories_nodes":[],"categories_segments":[],"categories_sizes":[],"default_left":[0,0,0,0,0],"id":33,"left_children":[1,3,-1,-1,-1],"loss_changes":[5.262961E1,1.0074461E2,0E0,0E0,0E0],"parents":[2147483647,0,0,1,1],"right_children":[2,4,-1,-1,-1],"split_conditions":[2.7654322E-2,2.7160494E-2,-1.0101968E-1,-9.947917E-2,9.791924E-2],"split_indices":[15,15,0,0,0],"split_type":[0,0,0,0,0],"sum_hessian":[1.5322888E2,1.1542274E2,3.7806145E1,3.751765E1,7.790509E1],"tree_param":{"num_deleted":"0","num_feature":"48","num_nodes":"5","size_leaf_vector":"1"}},{"base_weights":[2.32975E-2,3.4968066E-1,-1.00535475E-1,-9.996393E-2,9.711172E-1,-5.6923848E-2,1.0013249E-1],"categories":[],"categories_nodes":[],"categories_segments":[],"categories_sizes":[],"default_left":[0,0,0,0,0,0,0],"id":34,"left_children":[1,3,-1,-1,5,-1,-1],"loss_changes":[4.927096E1,9.4343025E1,0E0,0E0,4.141136E0,0E0,0E0],"parents":[2147483647,0,0,1,1,4,4],"right_children":[2,4,-1,-1,6,-1,-1],"split_conditions":[2.7654322E-2,2.7160494E-2,-1.00535475E-1,-9.996393E-2,2.8688524E-2,-5.6923848E-2,1.0013249E-1],"split_indices":[15,15,0,0,16,0,0],"split_type":[0,0,0,0,0,0,0],"sum_hessian":[1.447085E2,1.1035408E2,3.435441E1,3.4605927E1,7.574815E1,1.1137091E0,7.4634445E1],"tree_param":{"num_deleted":"0","num_feature":"48","num_nodes":"7","size_leaf_vector":"1"}},{"base_weights":[-2.637093E-2,3.1470245E-1,-1.0007354E-1,-9.943673E-2,9.707632E-1,9.8296486E-2,2.0977153E-2],"categories":[],"categories_nodes":[],"categories_segments":[],"categories_sizes":[],"default_left":[0,0,0,0,0,0,0],"id":35,"left_children":[1,3,-1,-1,5,-1,-1],"loss_changes":[4.2002388E1,8.1417046E1,0E0,0E0,3.7792587E-1,0E0,0E0],"parents":[2147483647,0,0,1,1,4,4],"right_children":[2,4,-1,-1,6,-1,-1],"split_conditions":[2.7654322E-2,2.7160494E-2,-1.0007354E-1,-9.943673E-2,1.7142858E-1,9.8296486E-2,2.0977153E-2],"split_indices":[15,15,0,0,1,0,0],"split_type":[0,0,0,0,0,0,0],"sum_hessian":[1.2444003E2,9.267606E1,3.1763966E1,3.076784E1,6.1908226E1,6.0644176E1,1.2640482E0],"tree_param":{"num_deleted":"0","num_feature":"48","num_nodes":"7","size_leaf_vector":"1"}},{"base_weights":[-7.269199E-3,3.224337E-1,-9.957736E-2,-9.900875E-2,9.5416087E-1,-5.917274E-2,9.9525146E-2],"categories":[],"categories_nodes":[],"categories_segments":[],"categories_sizes":[],"default_left":[0,0,0,0,0,0,0],"id":36,"left_children":[1,3,-1,-1,5,-1,-1],"loss_changes":[3.912453E1,7.559969E1,0E0,0E0,4.4822464E0,0E0,0E0],"parents":[2147483647,0,0,1,1,4,4],"right_children":[2,4,-1,-1,6,-1,-1],"split_conditions":[2.7654322E-2,2.7160494E-2,-9.957736E-2,-9.900875E-2,2.8688524E-2,-5.917274E-2,9.9525146E-2],"split_indices":[15,15,0,0,16,0,0],"split_type":[0,0,0,0,0,0,0],"sum_hessian":[1.18060875E2,8.9037415E1,2.9023466E1,2.8745808E1,6.0291603E1,1.2141175E0,5.9077484E1],"tree_param":{"num_deleted":"0","num_feature":"48","num_nodes":"7","size_leaf_vector":"1"}},{"base_weights":[-1.1808438E-2,3.16374E-1,-9.901965E-2,-9.8059654E-2,9.498894E-1,9.6797846E-2,1.0207959E-2],"categories":[],"categories_nodes":[],"categories_segments":[],"categories_sizes":[],"default_left":[0,0,0,0,0,0,0],"id":37,"left_children":[1,3,-1,-1,5,-1,-1],"loss_changes":[3.4400654E1,6.687214E1,0E0,0E0,7.358589E-1,0E0,0E0],"parents":[2147483647,0,0,1,1,4,4],"right_children":[2,4,-1,-1,6,-1,-1],"split_conditions":[2.7654322E-2,2.7160494E-2,-9.901965E-2,-9.8059654E-2,1.7142858E-1,9.6797846E-2,1.0207959E-2],"split_indices":[15,15,0,0,1,0,0],"split_type":[0,0,0,0,0,0,0],"sum_hessian":[1.0516154E2,7.92539E1,2.5907639E1,2.5828465E1,5.3425434E1,5.2170574E1,1.25486E0],"tree_param":{"num_deleted":"0","num_feature":"48","num_nodes":"7","size_leaf_vector":"1"}},{"base_weights":[-3.195141E-2,3.0939674E-1,-9.744333E-2,-9.707474E-2,9.646126E-2],"categories":[],"categories_nodes":[],"categories_segments":[],"categories_sizes":[],"default_left":[0,0,0,0,0],"id":38,"left_children":[1,3,-1,-1,-1],"loss_changes":[3.0438934E1,5.92556E1,0E0,0E0,0E0],"parents":[2147483647,0,0,1,1],"right_children":[2,4,-1,-1,-1],"split_conditions":[9.6001977E-1,9.595262E-1,-9.744333E-2,-9.707474E-2,9.646126E-2],"split_indices":[17,17,0,0,0],"split_type":[0,0,0,0,0],"sum_hessian":[9.2677635E1,6.852938E1,2.4148254E1,2.3037577E1,4.5491802E1],"tree_param":{"num_deleted":"0","num_feature":"48","num_nodes":"5","size_leaf_vector":"1"}},{"base_weights":[8.597002E-4,3.2587227E-1,-9.832364E-2,-9.766065E-2,9.4442606E-1,9.6327126E-2,3.1173555E-2],"categories":[],"categories_nodes":[],"categories_segments":[],"categories_sizes":[],"default_left":[0,0,0,0,0,0,0],"id":39,"left_children":[1,3,-1,-1,5,-1,-1],"loss_changes":[2.9066908E1,5.59598E1,0E0,0E0,2.5802612E-1,0E0,0E0],"parents":[2147483647,0,0,1,1,4,4],"right_children":[2,4,-1,-1,6,-1,-1],"split_conditions":[2.7654322E-2,2.7160494E-2,-9.832364E-2,-9.766065E-2,1.7142858E-1,9.6327126E-2,3.1173555E-2],"split_indices":[15,15,0,0,1,0,0],"split_type":[0,0,0,0,0,0,0],"sum_hessian":[8.8876724E1,6.7314095E1,2.1562634E1,2.1488096E1,4.5825996E1,4.3993126E1,1.8328713E0],"tree_param":{"num_deleted":"0","num_feature":"48","num_nodes":"7","size_leaf_vector":"1"}},{"base_weights":[5.4146355E-4,-9.7045235E-2,3.2569602E-1,9.408838E-1,-9.762358E-2,9.604182E-2,3.170297E-2],"categories":[],"categories_nodes":[],"categories_segments":[],"categories_sizes":[],"default_left":[0,0,0,0,0,0,0],"id":40,"left_children":[1,-1,3,5,-1,-1,-1],"loss_changes":[2.5567616E1,0E0,4.950693E1,2.0378494E-1,0E0,0E0,0E0],"parents":[2147483647,0,0,2,2,3,3],"right_children":[2,-1,4,6,-1,-1,-1],"split_conditions":[2.7160494E-2,-9.7045235E-2,2.7654322E-2,1.7142858E-1,-9.762358E-2,9.604182E-2,3.170297E-2],"split_indices":[15,0,15,1,0,0,0],"split_type":[0,0,0,0,0,0,0],"sum_hessian":[7.8980034E1,1.9315243E1,5.966479E1,4.0707184E1,1.895761E1,3.8948135E1,1.7590488E0],"tree_param":{"num_deleted":"0","num_feature":"48","num_nodes":"7","size_leaf_vector":"1"}},{"base_weights":[-2.2266181E-3,3.1800172E-1,-9.710147E-2,-9.648132E-2,9.2382777E-1,9.5081836E-2,2.0219063E-2],"categories":[],"categories_nodes":[],"categories_segments":[],"categories_sizes":[],"default_left":[0,0,0,0,0,0,0],"id":41,"left_children":[1,3,-1,-1,5,-1,-1],"loss_changes":[2.3464834E1,4.507392E1,0E0,0E0,5.698204E-1,0E0,0E0],"parents":[2147483647,0,0,1,1,4,4],"right_children":[2,4,-1,-1,6,-1,-1],"split_conditions":[2.7654322E-2,2.7160494E-2,-9.710147E-2,-9.648132E-2,1.6666667E-1,9.5081836E-2,2.0219063E-2],"split_indices":[15,15,0,0,7,0,0],"split_type":[0,0,0,0,0,0,0],"sum_hessian":[7.364074E1,5.5851154E1,1.7789583E1,1.7725496E1,3.812566E1,3.6444965E1,1.6806933E0],"tree_param":{"num_deleted":"0","num_feature":"48","num_nodes":"7","size_leaf_vector":"1"}},{"base_weights":[-7.03623E-4,-9.660061E-2,3.2359236E-1,8.7783825E-1,-9.621053E-2,-1.8981172E-2,9.1877294E-1,9.413835E-2,3.0923778E-2],"categories":[],"categories_nodes":[],"categories_segments":[],"categories_sizes":[],"default_left":[0,0,0,0,0,0,0,0,0],"id":42,"left_children":[1,-1,3,5,-1,-1,7,-1,-1],"loss_changes":[2.2037832E1,0E0,3.8396095E1,1.8065662E0,0E0,0E0,2.069397E-1,0E0,0E0],"parents":[2147483647,0,0,2,2,3,3,6,6],"right_children":[2,-1,4,6,-1,-1,8,-1,-1],"split_conditions":[3.0195829E-2,-9.660061E-2,3.063241E-2,1.8917896E-4,-9.621053E-2,-1.8981172E-2,1.822711E-1,9.413835E-2,3.0923778E-2],"split_indices":[16,0,16,25,0,0,8,0,0],"split_type":[0,0,0,0,0,0,0,0,0],"sum_hessian":[6.8400024E1,1.6702986E1,5.169704E1,3.634602E1,1.5351021E1,1.2077888E0,3.513823E1,3.3356453E1,1.781777E0],"tree_param":{"num_deleted":"0","num_feature":"48","num_nodes":"9","size_leaf_vector":"1"}},{"base_weights":[-7.6739746E-3,3.1445393E-1,-9.4891354E-2,-9.461284E-2,9.052425E-1,9.294854E-2,1.745083E-2],"categories":[],"categories_nodes":[],"categories_segments":[],"categories_sizes":[],"default_left":[0,0,0,0,0,0,0],"id":43,"left_children":[1,3,-1,-1,5,-1,-1],"loss_changes":[1.9299852E1,3.618806E1,0E0,0E0,4.190941E-1,0E0,0E0],"parents":[2147483647,0,0,1,1,4,4],"right_children":[2,4,-1,-1,6,-1,-1],"split_conditions":[9.6001977E-1,9.595262E-1,-9.4891354E-2,-9.461284E-2,5E-1,9.294854E-2,1.745083E-2],"split_indices":[17,17,0,0,0,0,0],"split_type":[0,0,0,0,0,0,0],"sum_hessian":[6.166983E1,4.644165E1,1.5228181E1,1.4628001E1,3.181365E1,3.0528833E1,1.2848158E0],"tree_param":{"num_deleted":"0","num_feature":"48","num_nodes":"7","size_leaf_vector":"1"}},{"base_weights":[-1.0960998E-2,3.0893847E-1,-9.41551E-2,-9.380582E-2,9.0734017E-1,9.50278E-2,2.6118076E-1,5.2539956E-2,-1.223356E-2],"categories":[],"categories_nodes":[],"categories_segments":[],"categories_sizes":[],"default_left":[0,0,0,0,0,0,0,0,0],"id":44,"left_children":[1,3,-1,-1,5,-1,7,-1,-1],"loss_changes":[1.7138746E1,3.2840458E1,0E0,0E0,5.6962204E-1,0E0,3.9013004E-1,0E0,0E0],"parents":[2147483647,0,0,1,1,4,4,6,6],"right_children":[2,4,-1,-1,6,-1,8,-1,-1],"split_conditions":[9.6001977E-1,9.595262E-1,-9.41551E-2,-9.380582E-2,1.8236805E-4,9.50278E-2,3.6075037E-2,5.2539956E-2,-1.223356E-2],"split_indices":[17,17,0,0,9,0,14,0,0],"split_type":[0,0,0,0,0,0,0,0,0],"sum_hessian":[5.5594334E1,4.1869354E1,1.3724982E1,1.3392791E1,2.847656E1,2.6260853E1,2.2157083E0,1.0928496E0,1.1228588E0],"tree_param":{"num_deleted":"0","num_feature":"48","num_nodes":"9","size_leaf_vector":"1"}},{"base_weights":[-2.1383107E-2,-9.458559E-2,2.9739013E-1,8.872902E-1,-9.502426E-2,-5.2480258E-2,9.665242E-2],"categories":[],"categories_nodes":[],"categories_segments":[],"categories_sizes":[],"default_left":[0,0,0,0,0,0,0],"id":45,"left_children":[1,-1,3,5,-1,-1,-1],"loss_changes":[1.5452463E1,0E0,2.9576872E1,3.5309715E0,0E0,0E0,0E0],"parents":[2147483647,0,0,2,2,3,3],"right_children":[2,-1,4,6,-1,-1,-1],"split_conditions":[3.0195829E-2,-9.458559E-2,2.7654322E-2,5.4320986E-3,-9.502426E-2,-5.2480258E-2,9.665242E-2],"split_indices":[16,0,15,15,0,0,0],"split_type":[0,0,0,0,0,0,0],"sum_hessian":[5.0480553E1,1.2439024E1,3.8041527E1,2.602522E1,1.2016307E1,1.0839434E0,2.4941278E1],"tree_param":{"num_deleted":"0","num_feature":"48","num_nodes":"7","size_leaf_vector":"1"}},{"base_weights":[-2.3736961E-2,2.98954E-1,-9.4440326E-2,-9.275721E-2,8.9091384E-1,9.209535E-2,2.3151034E-2],"categories":[],"categories_nodes":[],"categories_segments":[],"categories_sizes":[],"default_left":[0,0,0,0,0,0,0],"id":46,"left_children":[1,3,-1,-1,5,-1,-1],"loss_changes":[1.42658205E1,2.6682602E1,0E0,0E0,2.7267838E-1,0E0,0E0],"parents":[2147483647,0,0,1,1,4,4],"right_children":[2,4,-1,-1,6,-1,-1],"split_conditions":[2.7654322E-2,2.7160494E-2,-9.4440326E-2,-9.275721E-2,1.6666667E-1,9.209535E-2,2.3151034E-2],"split_indices":[15,15,0,0,7,0,0],"split_type":[0,0,0,0,0,0,0],"sum_hessian":[4.6068073E1,3.461196E1,1.1456112E1,1.108245E1,2.3529512E1,2.2124945E1,1.4045668E0],"tree_param":{"num_deleted":"0","num_feature":"48","num_nodes":"7","size_leaf_vector":"1"}},{"base_weights":[-5.0418843E-2,2.7418754E-1,-9.224087E-2,-9.1592215E-2,8.785622E-1,9.1102205E-2,1.1792431E-2],"categories":[],"categories_nodes":[],"categories_segments":[],"categories_sizes":[],"default_left":[0,0,0,0,0,0,0],"id":47,"left_children":[1,3,-1,-1,5,-1,-1],"loss_changes":[1.2229965E1,2.353798E1,0E0,0E0,4.227028E-1,0E0,0E0],"parents":[2147483647,0,0,1,1,4,4],"right_children":[2,4,-1,-1,6,-1,-1],"split_conditions":[9.6001977E-1,9.595262E-1,-9.224087E-2,-9.1592215E-2,5E-1,9.1102205E-2,1.1792431E-2],"split_indices":[17,17,0,0,0,0,0],"split_type":[0,0,0,0,0,0,0],"sum_hessian":[4.1313747E1,3.0605955E1,1.0707792E1,1.0134341E1,2.0471613E1,1.944414E1,1.0274744E0],"tree_param":{"num_deleted":"0","num_feature":"48","num_nodes":"7","size_leaf_vector":"1"}},{"base_weights":[-1.178611E-2,-9.250419E-2,3.0497357E-1,-9.057128E-2,8.522276E-1,8.9947695E-1,1.7569136E-3,3.650586E-2,9.309101E-2],"categories":[],"categories_nodes":[],"categories_segments":[],"categories_sizes":[],"default_left":[0,0,0,0,0,0,0,0,0],"id":48,"left_children":[1,-1,3,-1,5,7,-1,-1,-1],"loss_changes":[1.2038511E1,0E0,2.126207E1,0E0,8.4447193E-1,6.6375732E-3,0E0,0E0,0E0],"parents":[2147483647,0,0,2,2,4,4,5,5],"right_children":[2,-1,4,-1,6,8,-1,-1,-1],"split_conditions":[3.0195829E-2,-9.250419E-2,9.595262E-1,-9.057128E-2,2.0201589E-4,6.70569E-2,1.7569136E-3,3.650586E-2,9.309101E-2],"split_indices":[16,0,17,0,9,18,0,0,0],"split_type":[0,0,0,0,0,0,0,0,0],"sum_hessian":[3.963984E1,9.7137165E0,2.9926125E1,9.112217E0,2.0813908E1,1.9625278E1,1.1886296E0,1.7908876E0,1.783439E1],"tree_param":{"num_deleted":"0","num_feature":"48","num_nodes":"9","size_leaf_vector":"1"}},{"base_weights":[-2.3158973E-2,2.9627964E-1,-9.08879E-2,-9.022241E-2,8.631173E-1,9.420853E-2,3.8240016E-1,6.2951304E-2,9.5371244E-4],"categories":[],"categories_nodes":[],"categories_segments":[],"categories_sizes":[],"default_left":[0,0,0,0,0,0,0,0,0],"id":49,"left_children":[1,3,-1,-1,5,-1,7,-1,-1],"loss_changes":[1.0915514E1,2.0078283E1,0E0,0E0,3.9129925E-1,0E0,4.0646636E-1,0E0,0E0],"parents":[2147483647,0,0,1,1,4,4,6,6],"right_children":[2,4,-1,-1,6,-1,8,-1,-1],"split_conditions":[9.6001977E-1,9.595262E-1,-9.08879E-2,-9.022241E-2,1.2989395E-4,9.420853E-2,8.833703E-2,6.2951304E-2,9.5371244E-4],"split_indices":[17,17,0,0,9,0,21,0,0],"split_type":[0,0,0,0,0,0,0,0,0],"sum_hessian":[3.6628082E1,2.7408562E1,9.219521E0,8.610696E0,1.8797865E1,1.5321271E1,3.476595E0,1.6769099E0,1.799685E0],"tree_param":{"num_deleted":"0","num_feature":"48","num_nodes":"9","size_leaf_vector":"1"}},{"base_weights":[-1.8055324E-2,2.996189E-1,-9.220923E-2,-9.00537E-2,8.670051E-1,8.084997E-3,9.125955E-2],"categories":[],"categories_nodes":[],"categories_segments":[],"categories_sizes":[],"default_left":[0,0,0,0,0,0,0],"id":50,"left_children":[1,3,-1,-1,5,-1,-1],"loss_changes":[1.0168775E1,1.8651611E1,0E0,0E0,5.8314896E-1,0E0,0E0],"parents":[2147483647,0,0,1,1,4,4],"right_children":[2,4,-1,-1,6,-1,-1],"split_conditions":[2.7654322E-2,2.8688524E-2,-9.220923E-2,-9.00537E-2,5.5555556E-2,8.084997E-3,9.125955E-2],"split_indices":[15,16,0,0,41,0,0],"split_type":[0,0,0,0,0,0,0],"sum_hessian":[3.3445923E1,2.5243912E1,8.202012E0,7.9148874E0,1.7329025E1,1.1018715E0,1.6227154E1],"tree_param":{"num_deleted":"0","num_feature":"48","num_nodes":"7","size_leaf_vector":"1"}},{"base_weights":[-1.2929433E-2,2.9813927E-1,-9.001194E-2,-8.876132E-2,8.752477E-2],"categories":[],"categories_nodes":[],"categories_segments":[],"categories_sizes":[],"default_left":[0,0,0,0,0],"id":51,"left_children":[1,3,-1,-1,-1],"loss_changes":[8.877808E0,1.7096848E1,0E0,0E0,0E0],"parents":[2147483647,0,0,1,1],"right_children":[2,4,-1,-1,-1],"split_conditions":[2.7654322E-2,2.7160494E-2,-9.001194E-2,-8.876132E-2,8.752477E-2],"split_indices":[15,15,0,0,0],"split_type":[0,0,0,0,0],"sum_hessian":[3.0196243E1,2.284887E1,7.347375E0,7.3039064E0,1.5544962E1],"tree_param":{"num_deleted":"0","num_feature":"48","num_nodes":"5","size_leaf_vector":"1"}},{"base_weights":[-1.5056543E-2,3.0185184E-1,-8.8051036E-2,-8.726753E-2,8.595159E-1,8.9865506E-2,2.3467287E-2],"categories":[],"categories_nodes":[],"categories_segments":[],"categories_sizes":[],"default_left":[0,0,0,0,0,0,0],"id":52,"left_children":[1,3,-1,-1,5,-1,-1],"loss_changes":[8.174446E0,1.5062516E1,0E0,0E0,1.6378021E-1,0E0,0E0],"parents":[2147483647,0,0,1,1,4,4],"right_children":[2,4,-1,-1,6,-1,-1],"split_conditions":[9.6001977E-1,9.595262E-1,-8.8051036E-2,-8.726753E-2,1.8236805E-4,8.9865506E-2,2.3467287E-2],"split_indices":[17,17,0,0,9,0,0],"split_type":[0,0,0,0,0,0,0],"sum_hessian":[2.7835367E1,2.0851332E1,6.9840355E0,6.5310497E0,1.4320282E1,1.3063779E1,1.256503E0],"tree_param":{"num_deleted":"0","num_feature":"48","num_nodes":"7","size_leaf_vector":"1"}},{"base_weights":[-2.8806455E-2,-8.795559E-2,2.7577382E-1,8.1270784E-1,-8.9042224E-2,2.090237E-2,8.562247E-2],"categories":[],"categories_nodes":[],"categories_segments":[],"categories_sizes":[],"default_left":[0,0,0,0,0,0,0],"id":53,"left_children":[1,-1,3,5,-1,-1,-1],"loss_changes":[7.2768025E0,0E0,1.3717415E1,2.0804214E-1,0E0,0E0,0E0],"parents":[2147483647,0,0,2,2,3,3],"right_children":[2,-1,4,6,-1,-1,-1],"split_conditions":[3.0195829E-2,-8.795559E-2,3.063241E-2,7.5E-2,-8.9042224E-2,2.090237E-2,8.562247E-2],"split_indices":[16,0,16,34,0,0,0],"split_type":[0,0,0,0,0,0,0],"sum_hessian":[2.6146511E1,6.395348E0,1.9751162E1,1.3731902E1,6.0192604E0,1.3135165E0,1.24183855E1],"tree_param":{"num_deleted":"0","num_feature":"48","num_nodes":"7","size_leaf_vector":"1"}},{"base_weights":[-4.4796962E-2,2.6461497E-1,-8.8569425E-2,-8.660556E-2,8.3593494E-1,8.758018E-2,2.543722E-2],"categories":[],"categories_nodes":[],"categories_segments":[],"categories_sizes":[],"default_left":[0,0,0,0,0,0,0],"id":54,"left_children":[1,3,-1,-1,5,-1,-1],"loss_changes":[6.7458925E0,1.303941E1,0E0,0E0,8.266258E-2,0E0,0E0],"parents":[2147483647,0,0,1,1,4,4],"right_children":[2,4,-1,-1,6,-1,-1],"split_conditions":[2.7654322E-2,2.7160494E-2,-8.8569425E-2,-8.660556E-2,1.5E-1,8.758018E-2,2.543722E-2],"split_indices":[15,15,0,0,7,0,0],"split_type":[0,0,0,0,0,0,0],"sum_hessian":[2.4026646E1,1.8064901E1,5.9617434E0,5.89081E0,1.2174091E1,1.0919594E1,1.2544976E0],"tree_param":{"num_deleted":"0","num_feature":"48","num_nodes":"7","size_leaf_vector":"1"}},{"base_weights":[-4.0814076E-3,-8.604506E-2,3.0087295E-1,7.926878E-1,-8.508449E-2,1.2767605E-2,8.388113E-2],"categories":[],"categories_nodes":[],"categories_segments":[],"categories_sizes":[],"default_left":[0,0,0,0,0,0,0],"id":55,"left_children":[1,-1,3,5,-1,-1,-1],"loss_changes":[6.4554763E0,0E0,1.100502E1,3.0079174E-1,0E0,0E0,0E0],"parents":[2147483647,0,0,2,2,3,3],"right_children":[2,-1,4,6,-1,-1,-1],"split_conditions":[3.0195829E-2,-8.604506E-2,3.063241E-2,4E-2,-8.508449E-2,1.2767605E-2,8.388113E-2],"split_indices":[16,0,16,35,0,0,0],"split_type":[0,0,0,0,0,0,0],"sum_hessian":[2.2727768E1,5.4898014E0,1.7237967E1,1.2298084E1,4.939882E0,1.04204E0,1.1256044E1],"tree_param":{"num_deleted":"0","num_feature":"48","num_nodes":"7","size_leaf_vector":"1"}},{"base_weights":[-3.630892E-2,-8.449627E-2,2.6261756E-1,7.652036E-1,-8.3770595E-2,1.5300426E-2,8.096348E-2],"categories":[],"categories_nodes":[],"categories_segments":[],"categories_sizes":[],"default_left":[0,0,0,0,0,0,0],"id":56,"left_children":[1,-1,3,5,-1,-1,-1],"loss_changes":[5.324077E0,0E0,9.584998E0,1.923275E-1,0E0,0E0,0E0],"parents":[2147483647,0,0,2,2,3,3],"right_children":[2,-1,4,6,-1,-1,-1],"split_conditions":[3.0195829E-2,-8.449627E-2,3.063241E-2,1.4430014E-4,-8.3770595E-2,1.5300426E-2,8.096348E-2],"split_indices":[16,0,16,26,0,0,0],"split_type":[0,0,0,0,0,0,0],"sum_hessian":[2.010709E1,4.9337335E0,1.5173357E1,1.062488E1,4.548477E0,1.0196159E0,9.605264E0],"tree_param":{"num_deleted":"0","num_feature":"48","num_nodes":"7","size_leaf_vector":"1"}},{"base_weights":[-3.7031602E-2,-8.2665935E-2,2.5167483E-1,7.8553504E-1,-8.263304E-2,8.858182E-2,2.7929437E-1,5.074017E-2,-5.166445E-3],"categories":[],"categories_nodes":[],"categories_segments":[],"categories_sizes":[],"default_left":[0,0,0,0,0,0,0,0,0],"id":57,"left_children":[1,-1,3,5,-1,-1,7,-1,-1],"loss_changes":[4.80446E0,0E0,9.587136E0,3.0593824E-1,0E0,0E0,2.7252352E-1,0E0,0E0],"parents":[2147483647,0,0,2,2,3,3,6,6],"right_children":[2,-1,4,6,-1,-1,8,-1,-1],"split_conditions":[9.595262E-1,-8.2665935E-2,9.6001977E-1,1.2989395E-4,-8.263304E-2,8.858182E-2,4.4252045E-2,5.074017E-2,-5.166445E-3],"split_indices":[17,0,17,9,0,0,23,0,0],"split_type":[0,0,0,0,0,0,0,0,0],"sum_hessian":[1.9162294E1,4.631519E0,1.4530776E1,9.899538E0,4.6312385E0,7.6369147E0,2.2626233E0,1.0238363E0,1.238787E0],"tree_param":{"num_deleted":"0","num_feature":"48","num_nodes":"9","size_leaf_vector":"1"}},{"base_weights":[-5.870343E-2,2.3734419E-1,-8.373737E-2,-8.230346E-2,7.934481E-2],"categories":[],"categories_nodes":[],"categories_segments":[],"categories_sizes":[],"default_left":[0,0,0,0,0],"id":58,"left_children":[1,3,-1,-1,-1],"loss_changes":[4.4688373E0,9.026526E0,0E0,0E0,0E0],"parents":[2147483647,0,0,1,1],"right_children":[2,4,-1,-1,-1],"split_conditions":[2.7654322E-2,2.7160494E-2,-8.373737E-2,-8.230346E-2,7.934481E-2],"split_indices":[15,15,0,0,0],"split_type":[0,0,0,0,0],"sum_hessian":[1.7523455E1,1.3200041E1,4.3234143E0,4.37596E0,8.82408E0],"tree_param":{"num_deleted":"0","num_feature":"48","num_nodes":"5","size_leaf_vector":"1"}},{"base_weights":[-1.7745027E-2,2.7689064E-1,-8.025074E-2,-7.95868E-2,7.930522E-1,8.7758265E-2,1.7611036E-2],"categories":[],"categories_nodes":[],"categories_segments":[],"categories_sizes":[],"default_left":[0,0,0,0,0,0,0],"id":59,"left_children":[1,3,-1,-1,5,-1,-1],"loss_changes":[4.2099853E0,7.9859157E0,0E0,0E0,3.3923864E-1,0E0,0E0],"parents":[2147483647,0,0,1,1,4,4],"right_children":[2,4,-1,-1,6,-1,-1],"split_conditions":[9.6001977E-1,9.595262E-1,-8.025074E-2,-7.95868E-2,3.7901758E-4,8.7758265E-2,1.7611036E-2],"split_indices":[17,17,0,0,19,0,0],"split_type":[0,0,0,0,0,0,0],"sum_hessian":[1.6246763E1,1.2282514E1,3.9642506E0,3.8139455E0,8.468568E0,7.0765057E0,1.392062E0],"tree_param":{"num_deleted":"0","num_feature":"48","num_nodes":"7","size_leaf_vector":"1"}},{"base_weights":[-8.5299894E-2,-8.034922E-2,2.0597367E-1,7.0967555E-2,-8.042229E-2],"categories":[],"categories_nodes":[],"categories_segments":[],"categories_sizes":[],"default_left":[0,0,0,0,0],"id":60,"left_children":[1,-1,3,-1,-1],"loss_changes":[3.4840991E0,0E0,6.7187905E0,0E0,0E0],"parents":[2147483647,0,0,2,2],"right_children":[2,-1,4,-1,-1],"split_conditions":[3.0195829E-2,-8.034922E-2,3.063241E-2,7.0967555E-2,-8.042229E-2],"split_indices":[16,0,16,0,0],"split_type":[0,0,0,0,0],"sum_hessian":[1.486402E1,3.7814825E0,1.1082538E1,7.5936813E0,3.4888563E0],"tree_param":{"num_deleted":"0","num_feature":"48","num_nodes":"5","size_leaf_vector":"1"}},{"base_weights":[-4.662645E-2,2.56855E-1,-8.04891E-2,-7.711197E-2,7.664648E-1,8.100181E-2,2.315968E-2],"categories":[],"categories_nodes":[],"categories_segments":[],"categories_sizes":[],"default_left":[0,0,0,0,0,0,0],"id":61,"left_children":[1,3,-1,-1,5,-1,-1],"loss_changes":[3.6929862E0,6.656111E0,0E0,0E0,4.398823E-3,0E0,0E0],"parents":[2147483647,0,0,1,1,4,4],"right_children":[2,4,-1,-1,6,-1,-1],"split_conditions":[2.7654322E-2,2.7160494E-2,-8.04891E-2,-7.711197E-2,8.3333336E-2,8.100181E-2,2.315968E-2],"split_indices":[15,15,0,0,7,0,0],"split_type":[0,0,0,0,0,0,0],"sum_hessian":[1.4149736E1,1.0577533E1,3.5722039E0,3.3356895E0,7.2418427E0,6.2208643E0,1.0209787E0],"tree_param":{"num_deleted":"0","num_feature":"48","num_nodes":"7","size_leaf_vector":"1"}},{"base_weights":[-6.7296796E-2,2.178576E-1,-7.883691E-2,-7.758753E-2,7.427607E-2],"categories":[],"categories_nodes":[],"categories_segments":[],"categories_sizes":[],"default_left":[0,0,0,0,0],"id":62,"left_children":[1,3,-1,-1,-1],"loss_changes":[3.119223E0,6.3432117E0,0E0,0E0,0E0],"parents":[2147483647,0,0,1,1],"right_children":[2,4,-1,-1,-1],"split_conditions":[2.7654322E-2,2.7160494E-2,-7.883691E-2,-7.758753E-2,7.427607E-2],"split_indices":[15,15,0,0,0],"split_type":[0,0,0,0,0],"sum_hessian":[1.3334767E1,1.0055931E1,3.2788367E0,3.3104818E0,6.745449E0],"tree_param":{"num_deleted":"0","num_feature":"48","num_nodes":"5","size_leaf_vector":"1"}},{"base_weights":[-7.143082E-2,-7.694409E-2,2.1633716E-1,6.7624485E-1,-7.559773E-2,7.578102E-2,1.6156105E-2],"categories":[],"categories_nodes":[],"categories_segments":[],"categories_sizes":[],"default_left":[0,0,0,0,0,0,0],"id":63,"left_children":[1,-1,3,5,-1,-1,-1],"loss_changes":[2.8530931E0,0E0,5.0953727E0,1.9188786E-1,0E0,0E0,0E0],"parents":[2147483647,0,0,2,2,3,3],"right_children":[2,-1,4,6,-1,-1,-1],"split_conditions":[3.0195829E-2,-7.694409E-2,3.063241E-2,1.21285E-1,-7.559773E-2,7.578102E-2,1.6156105E-2],"split_indices":[16,0,16,8,0,0,0],"split_type":[0,0,0,0,0,0,0],"sum_hessian":[1.2375331E1,3.1239798E0,9.25135E0,6.4873257E0,2.7640247E0,5.1921167E0,1.2952094E0],"tree_param":{"num_deleted":"0","num_feature":"48","num_nodes":"7","size_leaf_vector":"1"}},{"base_weights":[-7.8061394E-2,2.0471935E-1,-7.6000065E-2,-7.5034276E-2,7.172666E-2],"categories":[],"categories_nodes":[],"categories_segments":[],"categories_sizes":[],"default_left":[0,0,0,0,0],"id":64,"left_children":[1,3,-1,-1,-1],"loss_changes":[2.5568376E0,5.232588E0,0E0,0E0,0E0],"parents":[2147483647,0,0,1,1],"right_children":[2,4,-1,-1,-1],"split_conditions":[2.7654322E-2,2.8688524E-2,-7.6000065E-2,-7.5034276E-2,7.172666E-2],"split_indices":[15,16,0,0,0],"split_type":[0,0,0,0,0],"sum_hessian":[1.1452082E1,8.589895E0,2.8621862E0,2.837902E0,5.751993E0],"tree_param":{"num_deleted":"0","num_feature":"48","num_nodes":"5","size_leaf_vector":"1"}},{"base_weights":[-5.4089896E-2,-7.382327E-2,2.2195597E-1,6.5079015E-1,-7.23032E-2,7.2615795E-2,1.8534064E-2],"categories":[],"categories_nodes":[],"categories_segments":[],"categories_sizes":[],"default_left":[0,0,0,0,0,0,0],"id":65,"left_children":[1,-1,3,5,-1,-1,-1],"loss_changes":[2.4307735E0,0E0,4.247991E0,1.08799934E-1,0E0,0E0,0E0],"parents":[2147483647,0,0,2,2,3,3],"right_children":[2,-1,4,6,-1,-1,-1],"split_conditions":[3.0195829E-2,-7.382327E-2,3.063241E-2,1.21285E-1,-7.23032E-2,7.2615795E-2,1.8534064E-2],"split_indices":[16,0,16,8,0,0,0],"split_type":[0,0,0,0,0,0,0],"sum_hessian":[1.1003498E1,2.6820598E0,8.321439E0,5.9380736E0,2.3833652E0,4.628486E0,1.3095875E0],"tree_param":{"num_deleted":"0","num_feature":"48","num_nodes":"7","size_leaf_vector":"1"}},{"base_weights":[-4.9521826E-2,-7.299873E-2,2.440891E-1,7.044882E-2,-7.041296E-2],"categories":[],"categories_nodes":[],"categories_segments":[],"categories_sizes":[],"default_left":[0,0,0,0,0],"id":66,"left_children":[1,-1,3,-1,-1],"loss_changes":[2.4151697E0,0E0,4.2378273E0,0E0,0E0],"parents":[2147483647,0,0,2,2],"right_children":[2,-1,4,-1,-1],"split_conditions":[2.7160494E-2,-7.299873E-2,2.7654322E-2,7.044882E-2,-7.041296E-2],"split_indices":[15,0,15,0,0],"split_type":[0,0,0,0,0],"sum_hessian":[1.0196578E1,2.625513E0,7.571065E0,5.2695312E0,2.3015337E0],"tree_param":{"num_deleted":"0","num_feature":"48","num_nodes":"5","size_leaf_vector":"1"}},{"base_weights":[-5.8585864E-2,-7.180346E-2,2.3685434E-1,6.902873E-2,-6.865771E-2],"categories":[],"categories_nodes":[],"categories_segments":[],"categories_sizes":[],"default_left":[0,0,0,0,0],"id":67,"left_children":[1,-1,3,-1,-1],"loss_changes":[2.2060149E0,0E0,3.810559E0,0E0,0E0],"parents":[2147483647,0,0,2,2],"right_children":[2,-1,4,-1,-1],"split_conditions":[2.7160494E-2,-7.180346E-2,2.7654322E-2,6.902873E-2,-6.865771E-2],"split_indices":[15,0,15,0,0],"split_type":[0,0,0,0,0],"sum_hessian":[9.449979E0,2.481241E0,6.9687386E0,4.8431034E0,2.125635E0],"tree_param":{"num_deleted":"0","num_feature":"48","num_nodes":"5","size_leaf_vector":"1"}},{"base_weights":[-6.2088743E-2,2.1007556E-1,-7.007159E-2,-6.944288E-2,6.832425E-1,7.795804E-2,1.764777E-2],"categories":[],"categories_nodes":[],"categories_segments":[],"categories_sizes":[],"default_left":[0,0,0,0,0,0,0],"id":68,"left_children":[1,3,-1,-1,5,-1,-1],"loss_changes":[1.9305353E0,3.8827121E0,0E0,0E0,1.4228559E-1,0E0,0E0],"parents":[2147483647,0,0,1,1,4,4],"right_children":[2,4,-1,-1,6,-1,-1],"split_conditions":[9.6001977E-1,9.595262E-1,-7.007159E-2,-6.944288E-2,1.2871953E-4,7.795804E-2,1.764777E-2],"split_indices":[17,17,0,0,9,0,0],"split_type":[0,0,0,0,0,0,0],"sum_hessian":[9.260149E0,6.9635415E0,2.2966073E0,2.2310514E0,4.73249E0,3.5241818E0,1.2083081E0],"tree_param":{"num_deleted":"0","num_feature":"48","num_nodes":"7","size_leaf_vector":"1"}},{"base_weights":[-8.0319375E-2,1.8655802E-1,-6.870277E-2,-6.7406826E-2,6.360439E-1,7.60644E-2,1.2519595E-2],"categories":[],"categories_nodes":[],"categories_segments":[],"categories_sizes":[],"default_left":[0,0,0,0,0,0,0],"id":69,"left_children":[1,3,-1,-1,5,-1,-1],"loss_changes":[1.6892745E0,3.3232362E0,0E0,0E0,2.5038624E-1,0E0,0E0],"parents":[2147483647,0,0,1,1,4,4],"right_children":[2,4,-1,-1,6,-1,-1],"split_conditions":[9.6001977E-1,9.595262E-1,-6.870277E-2,-6.7406826E-2,1.2989395E-4,7.60644E-2,1.2519595E-2],"split_indices":[17,17,0,0,9,0,0],"split_type":[0,0,0,0,0,0,0],"sum_hessian":[8.641399E0,6.482431E0,2.158968E0,2.0526323E0,4.4297986E0,3.168091E0,1.2617073E0],"tree_param":{"num_deleted":"0","num_feature":"48","num_nodes":"7","size_leaf_vector":"1"}},{"base_weights":[-7.0252985E-2,2.0179237E-1,-6.667731E-2,-6.567063E-2,6.674979E-1,1.9223861E-2,7.425382E-2],"categories":[],"categories_nodes":[],"categories_segments":[],"categories_sizes":[],"default_left":[0,0,0,0,0,0,0],"id":70,"left_children":[1,3,-1,-1,5,-1,-1],"loss_changes":[1.5553931E0,3.1493745E0,0E0,0E0,3.1723022E-2,0E0,0E0],"parents":[2147483647,0,0,1,1,4,4],"right_children":[2,4,-1,-1,6,-1,-1],"split_conditions":[9.6001977E-1,9.595262E-1,-6.667731E-2,-6.567063E-2,7.314937E-2,1.9223861E-2,7.425382E-2],"split_indices":[17,17,0,0,18,0,0],"split_type":[0,0,0,0,0,0,0],"sum_hessian":[7.7554765E0,5.7808256E0,1.974651E0,1.8888035E0,3.892022E0,1.0164242E0,2.875598E0],"tree_param":{"num_deleted":"0","num_feature":"48","num_nodes":"7","size_leaf_vector":"1"}},{"base_weights":[-8.404858E-2,1.756214E-1,-6.679255E-2,-6.5889716E-2,6.3235804E-2],"categories":[],"categories_nodes":[],"categories_segments":[],"categories_sizes":[],"default_left":[0,0,0,0,0],"id":71,"left_children":[1,3,-1,-1,-1],"loss_changes":[1.4259154E0,2.9955606E0,0E0,0E0,0E0],"parents":[2147483647,0,0,1,1],"right_children":[2,4,-1,-1,-1],"split_conditions":[2.7654322E-2,2.7160494E-2,-6.679255E-2,-6.5889716E-2,6.3235804E-2],"split_indices":[15,15,0,0,0],"split_type":[0,0,0,0,0],"sum_hessian":[7.631143E0,5.7660146E0,1.8651284E0,1.8829659E0,3.8830488E0],"tree_param":{"num_deleted":"0","num_feature":"48","num_nodes":"5","size_leaf_vector":"1"}},{"base_weights":[-7.731838E-2,-6.481122E-2,1.8176699E-1,6.2516E-2,-6.480693E-2],"categories":[],"categories_nodes":[],"categories_segments":[],"categories_sizes":[],"default_left":[0,0,0,0,0],"id":72,"left_children":[1,-1,3,-1,-1],"loss_changes":[1.3253571E0,0E0,2.7589707E0,0E0,0E0],"parents":[2147483647,0,0,2,2],"right_children":[2,-1,4,-1,-1],"split_conditions":[3.0195829E-2,-6.481122E-2,2.7654322E-2,6.2516E-2,-6.480693E-2],"split_indices":[16,0,15,0,0],"split_type":[0,0,0,0,0],"sum_hessian":[7.1655154E0,1.7682735E0,5.397242E0,3.678445E0,1.718797E0],"tree_param":{"num_deleted":"0","num_feature":"48","num_nodes":"5","size_leaf_vector":"1"}},{"base_weights":[-7.820077E-2,-6.3010894E-2,1.7445919E-1,6.087183E-1,-6.26825E-2,7.115524E-2,1.3665182E-2],"categories":[],"categories_nodes":[],"categories_segments":[],"categories_sizes":[],"default_left":[0,0,0,0,0,0,0],"id":73,"left_children":[1,-1,3,5,-1,-1,-1],"loss_changes":[1.2039937E0,0E0,2.526822E0,1.21487975E-1,0E0,0E0,0E0],"parents":[2147483647,0,0,2,2,3,3],"right_children":[2,-1,4,6,-1,-1,-1],"split_conditions":[9.595262E-1,-6.3010894E-2,9.6001977E-1,1.2989395E-4,-6.26825E-2,7.115524E-2,1.3665182E-2],"split_indices":[17,0,17,9,0,0,0],"split_type":[0,0,0,0,0,0,0],"sum_hessian":[6.84585E0,1.680682E0,5.165168E0,3.5056102E0,1.6595576E0,2.4619823E0,1.0436281E0],"tree_param":{"num_deleted":"0","num_feature":"48","num_nodes":"7","size_leaf_vector":"1"}},{"base_weights":[-7.5294904E-2,-6.090582E-2,1.7927074E-1,5.9341934E-2,-6.013952E-2],"categories":[],"categories_nodes":[],"categories_segments":[],"categories_sizes":[],"default_left":[0,0,0,0,0],"id":74,"left_children":[1,-1,3,-1,-1],"loss_changes":[1.0821885E0,0E0,2.1742415E0,0E0,0E0],"parents":[2147483647,0,0,2,2],"right_children":[2,-1,4,-1,-1],"split_conditions":[2.7160494E-2,-6.090582E-2,2.7654322E-2,5.9341934E-2,-6.013952E-2],"split_indices":[15,0,15,0,0],"split_type":[0,0,0,0,0],"sum_hessian":[6.160862E0,1.5397778E0,4.621084E0,3.1760325E0,1.4450518E0],"tree_param":{"num_deleted":"0","num_feature":"48","num_nodes":"5","size_leaf_vector":"1"}},{"base_weights":[-9.374304E-2,-6.237037E-2,1.6768022E-1,5.814883E-2,-6.0601544E-2],"categories":[],"categories_nodes":[],"categories_segments":[],"categories_sizes":[],"default_left":[0,0,0,0,0],"id":75,"left_children":[1,-1,3,-1,-1],"loss_changes":[1.1046011E0,0E0,2.1522694E0,0E0,0E0],"parents":[2147483647,0,0,2,2],"right_children":[2,-1,4,-1,-1],"split_conditions":[3.0195829E-2,-6.237037E-2,2.7654322E-2,5.814883E-2,-6.0601544E-2],"split_indices":[16,0,15,0,0],"split_type":[0,0,0,0,0],"sum_hessian":[6.218054E0,1.5962712E0,4.6217823E0,3.1730936E0,1.448689E0],"tree_param":{"num_deleted":"0","num_feature":"48","num_nodes":"5","size_leaf_vector":"1"}},{"base_weights":[-8.666097E-2,-5.9464045E-2,1.7151506E-1,6.031087E-2,-5.8291722E-2],"categories":[],"categories_nodes":[],"categories_segments":[],"categories_sizes":[],"default_left":[0,0,0,0,0],"id":76,"left_children":[1,-1,3,-1,-1],"loss_changes":[9.680311E-1,0E0,2.0298893E0,0E0,0E0],"parents":[2147483647,0,0,2,2],"right_children":[2,-1,4,-1,-1],"split_conditions":[9.595262E-1,-5.9464045E-2,9.6001977E-1,6.031087E-2,-5.8291722E-2],"split_indices":[17,0,17,0,0],"split_type":[0,0,0,0,0],"sum_hessian":[5.6035347E0,1.4490975E0,4.1544375E0,2.7702305E0,1.3842069E0],"tree_param":{"num_deleted":"0","num_feature":"48","num_nodes":"5","size_leaf_vector":"1"}},{"base_weights":[-9.993794E-2,-5.9447277E-2,1.5999159E-1,5.4344248E-2,-5.6126714E-2],"categories":[],"categories_nodes":[],"categories_segments":[],"categories_sizes":[],"default_left":[0,0,0,0,0],"id":77,"left_children":[1,-1,3,-1,-1],"loss_changes":[9.174257E-1,0E0,1.6826323E0,0E0,0E0],"parents":[2147483647,0,0,2,2],"right_children":[2,-1,4,-1,-1],"split_conditions":[3.0195829E-2,-5.9447277E-2,2.7654322E-2,5.4344248E-2,-5.6126714E-2],"split_indices":[16,0,15,0,0],"split_type":[0,0,0,0,0],"sum_hessian":[5.397138E0,1.4160142E0,3.9811237E0,2.7602153E0,1.2209084E0],"tree_param":{"num_deleted":"0","num_feature":"48","num_nodes":"5","size_leaf_vector":"1"}}]},"name":"gbtree"},"learner_model_param":{"base_score":"5.701709E-1","boost_from_average":"1","num_class":"0","num_feature":"48","num_target":"1"},"objective":{"name":"binary:logistic","reg_loss_param":{"scale_pos_weight":"30"}}},"version":[2,1,1]}